{"learner":{"attributes":{"scikit_learn":"{\"_estimator_type\": \"regressor\"}"},"feature_names":[],"feature_types":[],"gradient_booster":{"model":{"gbtree_model_param":{"num_parallel_tree":"1","num_trees":"200"},"iteration_indptr":[0,1,2,3,4,5,6,7,8,9,10,11,12,13,14,15,16,17,18,19,20,21,22,23,24,25,26,27,28,29,30,31,32,33,34,35,36,37,38,39,40,41,42,43,44,45,46,47,48,49,50,51,52,53,54,55,56,57,58,59,60,61,62,63,64,65,66,67,68,69,70,71,72,73,74,75,76,77,78,79,80,81,82,83,84,85,86,87,88,89,90,91,92,93,94,95,96,97,98,99,100,101,102,103,104,105,106,107,108,109,110,111,112,113,114,115,116,117,118,119,120,121,122,123,124,125,126,127,128,129,130,131,132,133,134,135,136,137,138,139,140,141,142,143,144,145,146,147,148,149,150,151,152,153,154,155,156,157,158,159,160,161,162,163,164,165,166,167,168,169,170,171,172,173,174,175,176,177,178,179,180,181,182,183,184,185,186,187,188,189,190,191,192,193,194,195,196,197,198,199,200],"tree_info":[0,0,0,0,0,0,0,0,0,0,0,0,0,0,0,0,0,0,0,0,0,0,0,0,0,0,0,0,0,0,0,0,0,0,0,0,0,0,0,0,0,0,0,0,0,0,0,0,0,0,0,0,0,0,0,0,0,0,0,0,0,0,0,0,0,0,0,0,0,0,0,0,0,0,0,0,0,0,0,0,0,0,0,0,0,0,0,0,0,0,0,0,0,0,0,0,0,0,0,0,0,0,0,0,0,0,0,0,0,0,0,0,0,0,0,0,0,0,0,0,0,0,0,0,0,0,0,0,0,0,0,0,0,0,0,0,0,0,0,0,0,0,0,0,0,0,0,0,0,0,0,0,0,0,0,0,0,0,0,0,0,0,0,0,0,0,0,0,0,0,0,0,0,0,0,0,0,0,0,0,0,0,0,0,0,0,0,0,0,0,0,0,0,0,0,0,0,0,0,0],"trees":[{"base_weights":[-3.6896614E-3,-1.20379314E-1,7.2588575E-1,-5.964152E-1,-2.1776358E-2,1.2380034E0,4.3619195E-1,-9.0887827E-1,-5.081858E-1,-1.0509926E-1,1.4720942E-1,5.3761907E-2,1.775074E0,-4.553786E-1,4.7622508E-1,-1.0910372E0,-6.7074424E-1,-5.795772E-1,-5.4038662E-2,-1.5620565E-1,1.74792E-1,3.2719508E-2,3.287049E-1,2.341994E-2,9.1219224E-2,-8.291253E-3,-2.6901752E-2,3.7036452E-1,7.270173E-1,-1.2735205E0,-3.0848349E-2,-3.4997724E-2,-1.0674056E-2,-6.3458484E-1,3.4807872E-2,1.2840043E-1,-1.9889301E-1,-2.4983752E-1,-7.552874E-2,7.4513096E-1,1.3498107E-1,-6.394499E-2,8.662152E-2,2.804812E-1,4.3687665E-1,2.919446E-1,5.044778E-1,3.250238E-2,5.8329184E-2,-6.904142E-2,-2.495407E-2,-8.8454944E-1,-5.1974046E-1,-2.660638E-2,1.6296159E-1,7.6024714E-3,-3.884685E-3,-1.6560555E-3,-2.3460029E-1,-3.0401766E-1,-1.386091E-1,-1.9521447E-1,1.6153397E-2,4.663796E-2,2.230011E-2,-6.794904E-2,2.2034419E-1,-1.03017464E-1,1.2481505E-2,2.9125214E-2,1.6313681E-1,2.2099E-1,1.5989376E-2,1.9558307E-2,3.178344E-2,1.4884211E-1,3.571492E-1,1.6637493E-2,5.735972E-1,-8.9993864E-1,-4.0314556E-3,-5.932584E-1,-2.3158209E-1,1.0266314E-2,1.63095E-2,-1.4459771E-2,-6.1353366E-3,-2.503033E-2,-2.7640527E-1,-3.228944E-1,-9.465146E-2,-2.9827994E-1,-1.4330909E-1,-3.8673747E-2,1.1206912E-1,-1.4549991E-1,6.430946E-2,1.5021907E-1,3.0536208E-1,-8.0148295E-2,-2.0706157E-1,-4.0423617E-2,5.8428288E-2,-2.1887844E-2,7.4338466E-2,1.1258018E-1,1.0122618E-2,7.5347307E-3,1.191416E-2,7.29392E-2,9.6213445E-3,5.018139E-3,1.8031266E-2,2.9350061E-2,6.2975287E-3,-1.1683333E-2,-4.5467153E-2,-3.1567644E-2,-1.7476304E-2,-1.4113977E-2,-6.618886E-3,1.0796785E-3,1.1432171E-5,-1.8075382E-2,-1.0599994E-2,-1.8069264E-2,-8.642575E-3,-7.368985E-3,-1.7323943E-3,-1.9335685E-2,-1.3148244E-2,-1.0107498E-2,-4.404219E-3,-5.7503404E-3,1.7009703E-4,2.7696562E-3,7.779725E-3,-8.312886E-3,-1.8760156E-3,1.0405485E-2,1.150014E-3,2.2359702E-3,1.1888402E-2,1.585078E-2,3.3808392E-3,-6.8687545E-3,-3.298856E-3,-1.1506221E-2,-3.8270075E-3,-5.1322104E-3,-8.157392E-4,3.4169124E-3,1.0488367E-3,-1.7223796E-3,1.5391562E-3,2.5719723E-3,5.720833E-3,2.3686376E-3,6.290301E-3,3.284693E-4,4.4355243E-3],"categories":[],"categories_nodes":[],"categories_segments":[],"categories_sizes":[],"default_left":[0,0,0,0,0,0,0,0,0,0,0,0,0,0,0,0,0,0,0,0,0,0,0,0,0,0,0,0,0,0,0,0,0,0,0,0,0,0,0,0,0,0,0,0,0,0,0,0,0,0,0,0,0,0,0,0,0,0,0,0,0,0,0,0,0,0,0,0,0,0,0,0,0,0,0,0,0,0,0,0,0,0,0,0,0,0,0,0,0,0,0,0,0,0,0,0,0,0,0,0,0,0,0,0,0,0,0,0,0,0,0,0,0,0,0,0,0,0,0,0,0,0,0,0,0,0,0,0,0,0,0,0,0,0,0,0,0,0,0,0,0,0,0,0,0,0,0,0,0,0,0,0,0,0,0,0,0,0,0,0,0],"id":0,"left_children":[1,3,5,7,9,11,13,15,17,19,21,-1,23,25,27,29,31,33,35,37,39,41,43,-1,-1,-1,-1,45,47,49,-1,-1,-1,51,53,55,57,59,61,63,65,67,69,71,73,75,77,-1,-1,-1,-1,79,81,-1,83,-1,-1,-1,85,87,89,91,93,-1,-1,95,97,99,101,103,105,107,-1,-1,-1,109,111,-1,113,115,-1,117,119,-1,121,-1,-1,-1,123,125,127,129,131,133,135,137,139,141,143,145,147,149,151,153,155,157,-1,-1,-1,159,-1,-1,-1,-1,-1,-1,-1,-1,-1,-1,-1,-1,-1,-1,-1,-1,-1,-1,-1,-1,-1,-1,-1,-1,-1,-1,-1,-1,-1,-1,-1,-1,-1,-1,-1,-1,-1,-1,-1,-1,-1,-1,-1,-1,-1,-1,-1,-1,-1,-1,-1],"loss_changes":[1.4447449E2,6.865811E1,3.4175606E1,6.457802E0,1.709498E1,5.4343567E0,5.606409E0,1.6106148E0,6.388279E0,1.1656645E1,8.321784E0,0E0,3.0524445E-1,7.831454E-2,3.5803452E0,1.7230682E0,1.9784832E-1,5.801178E0,7.654967E-1,5.178234E0,2.760344E0,1.2925107E0,6.8601227E-1,0E0,0E0,0E0,0E0,9.465046E-1,6.626625E-1,9.729271E-1,0E0,0E0,0E0,4.047268E0,1.1765395E0,7.517423E-2,8.693802E-2,1.8742485E0,4.074152E0,3.2987595E-2,2.076379E0,2.6705515E-1,6.9474447E-1,1.865511E-1,1.693449E-1,5.8134556E-1,2.4831486E-1,0E0,0E0,0E0,0E0,5.212784E-1,2.1929398E0,0E0,7.7418506E-2,0E0,0E0,0E0,4.3928683E-2,1.0178547E0,8.2811666E-1,8.185477E-1,1.1139379E0,0E0,0E0,3.7860045E-1,4.5492744E-1,1.2378907E-1,7.7717304E-2,2.13822E-1,1.1236894E-1,2.1226883E-2,0E0,0E0,0E0,6.2053323E-2,4.8666E-3,0E0,7.607365E-2,8.201218E-2,0E0,5.871105E-1,8.333826E-2,0E0,3.3495226E-4,0E0,0E0,0E0,9.5928E-1,5.303979E-2,2.7015138E-1,6.382942E-2,3.3638573E-1,4.3397963E-1,1.8132812E-1,4.531461E-2,7.837719E-2,4.3271363E-1,8.107567E-2,3.148493E-2,1.2488157E-2,2.0826366E-2,4.8759207E-3,3.0167902E-2,3.9084285E-2,2.1637768E-2,0E0,0E0,0E0,9.884592E-3,0E0,0E0,0E0,0E0,0E0,0E0,0E0,0E0,0E0,0E0,0E0,0E0,0E0,0E0,0E0,0E0,0E0,0E0,0E0,0E0,0E0,0E0,0E0,0E0,0E0,0E0,0E0,0E0,0E0,0E0,0E0,0E0,0E0,0E0,0E0,0E0,0E0,0E0,0E0,0E0,0E0,0E0,0E0,0E0,0E0,0E0,0E0,0E0,0E0,0E0,0E0],"parents":[2147483647,0,0,1,1,2,2,3,3,4,4,5,5,6,6,7,7,8,8,9,9,10,10,12,12,13,13,14,14,15,15,16,16,17,17,18,18,19,19,20,20,21,21,22,22,27,27,28,28,29,29,33,33,34,34,35,35,36,36,37,37,38,38,39,39,40,40,41,41,42,42,43,43,44,44,45,45,46,46,51,51,52,52,54,54,58,58,59,59,60,60,61,61,62,62,65,65,66,66,67,67,68,68,69,69,70,70,71,71,75,75,76,76,78,78,79,79,81,81,82,82,84,84,88,88,89,89,90,90,91,91,92,92,93,93,94,94,95,95,96,96,97,97,98,98,99,99,100,100,101,101,102,102,103,103,104,104,105,105,109,109],"right_children":[2,4,6,8,10,12,14,16,18,20,22,-1,24,26,28,30,32,34,36,38,40,42,44,-1,-1,-1,-1,46,48,50,-1,-1,-1,52,54,56,58,60,62,64,66,68,70,72,74,76,78,-1,-1,-1,-1,80,82,-1,84,-1,-1,-1,86,88,90,92,94,-1,-1,96,98,100,102,104,106,108,-1,-1,-1,110,112,-1,114,116,-1,118,120,-1,122,-1,-1,-1,124,126,128,130,132,134,136,138,140,142,144,146,148,150,152,154,156,158,-1,-1,-1,160,-1,-1,-1,-1,-1,-1,-1,-1,-1,-1,-1,-1,-1,-1,-1,-1,-1,-1,-1,-1,-1,-1,-1,-1,-1,-1,-1,-1,-1,-1,-1,-1,-1,-1,-1,-1,-1,-1,-1,-1,-1,-1,-1,-1,-1,-1,-1,-1,-1,-1,-1],"split_conditions":[1.0745601E2,1.7168576E0,4.674273E1,2.4587687E1,8.059906E1,2.5E2,1.1071174E0,1.0374863E0,4.2466366E1,3.3125E1,2.4821428E1,5.3761907E-2,1.889554E1,9.556224E-1,2.5183447E1,1E0,8.489065E0,8.136372E1,2E0,6.397764E1,6.134393E0,2.0111547E1,2.9540882E1,2.341994E-2,9.1219224E-2,-8.291253E-3,-2.6901752E-2,4.7451344E0,5.914751E0,1E0,-3.0848349E-2,-3.4997724E-2,-1.0674056E-2,2.2561752E1,1.195181E1,1E0,1.1783468E0,2.8156435E1,2.3285395E1,5.2E1,4.9969116E1,9.796137E1,9.212793E1,9.062563E1,3.6313892E1,2.0451977E1,2.5417261E1,3.250238E-2,5.8329184E-2,-6.904142E-2,-2.495407E-2,1E0,4.2582726E1,-2.660638E-2,7.5938144E0,7.6024714E-3,-3.884685E-3,-1.6560555E-3,2.7571428E1,2.1133053E1,4.81021E1,1.9859396E1,2.6666666E1,4.663796E-2,2.230011E-2,7.586732E0,3.7898914E1,4.7488853E1,1.8253796E1,2.2286606E1,2.214047E1,2.5579916E1,1.5989376E-2,1.9558307E-2,3.178344E-2,1.8115942E1,1.09425835E2,1.6637493E-2,4.750053E1,8.5841805E-1,-4.0314556E-3,1E0,7.58631E0,1.0266314E-2,1.6156303E1,-1.4459771E-2,-6.1353366E-3,-2.503033E-2,5.562121E1,3.1978563E1,5.5345158E1,7.135189E1,7.323504E1,7.030459E1,6.9589294E1,1E0,4.729562E1,6.009292E1,1E0,8.664233E1,1.7772581E1,1.7346945E1,9.370036E0,9.062563E1,8.728539E1,9.5E1,1.0122618E-2,7.5347307E-3,1.191416E-2,3.6142716E0,9.6213445E-3,5.018139E-3,1.8031266E-2,2.9350061E-2,6.2975287E-3,-1.1683333E-2,-4.5467153E-2,-3.1567644E-2,-1.7476304E-2,-1.4113977E-2,-6.618886E-3,1.0796785E-3,1.1432171E-5,-1.8075382E-2,-1.0599994E-2,-1.8069264E-2,-8.642575E-3,-7.368985E-3,-1.7323943E-3,-1.9335685E-2,-1.3148244E-2,-1.0107498E-2,-4.404219E-3,-5.7503404E-3,1.7009703E-4,2.7696562E-3,7.779725E-3,-8.312886E-3,-1.8760156E-3,1.0405485E-2,1.150014E-3,2.2359702E-3,1.1888402E-2,1.585078E-2,3.3808392E-3,-6.8687545E-3,-3.298856E-3,-1.1506221E-2,-3.8270075E-3,-5.1322104E-3,-8.157392E-4,3.4169124E-3,1.0488367E-3,-1.7223796E-3,1.5391562E-3,2.5719723E-3,5.720833E-3,2.3686376E-3,6.290301E-3,3.284693E-4,4.4355243E-3],"split_indices":[1,0,5,6,1,1,0,0,1,6,6,0,6,0,6,15,4,6,2,1,4,6,6,0,0,0,0,0,0,31,0,0,0,1,1,3,0,6,6,1,1,1,1,1,6,6,7,0,0,0,0,17,6,0,4,0,0,0,6,6,1,6,6,0,0,4,6,5,6,6,6,6,0,0,0,6,1,0,5,0,0,388,4,0,1,0,0,0,1,6,1,1,1,1,1,69,5,1,189,1,6,6,4,1,1,1,0,0,0,0,0,0,0,0,0,0,0,0,0,0,0,0,0,0,0,0,0,0,0,0,0,0,0,0,0,0,0,0,0,0,0,0,0,0,0,0,0,0,0,0,0,0,0,0,0,0,0,0,0,0,0],"split_type":[0,0,0,0,0,0,0,0,0,0,0,0,0,0,0,0,0,0,0,0,0,0,0,0,0,0,0,0,0,0,0,0,0,0,0,0,0,0,0,0,0,0,0,0,0,0,0,0,0,0,0,0,0,0,0,0,0,0,0,0,0,0,0,0,0,0,0,0,0,0,0,0,0,0,0,0,0,0,0,0,0,0,0,0,0,0,0,0,0,0,0,0,0,0,0,0,0,0,0,0,0,0,0,0,0,0,0,0,0,0,0,0,0,0,0,0,0,0,0,0,0,0,0,0,0,0,0,0,0,0,0,0,0,0,0,0,0,0,0,0,0,0,0,0,0,0,0,0,0,0,0,0,0,0,0,0,0,0,0,0,0],"sum_hessian":[1.695E3,1.462E3,2.33E2,2.5E2,1.212E3,8.3E1,1.5E2,5.3E1,1.97E2,8.12E2,4E2,6.6E1,1.7E1,6E0,1.44E2,2.8E1,2.5E1,1.7E2,2.7E1,6.87E2,1.25E2,2.46E2,1.54E2,1E0,1.6E1,2E0,4E0,1.03E2,4.1E1,1.9E1,9E0,2.3E1,2E0,1.56E2,1.4E1,1.2E1,1.5E1,3.17E2,3.7E2,7E0,1.18E2,8.8E1,1.58E2,1.09E2,4.5E1,6.7E1,3.6E1,3.7E1,4E0,1.6E1,3E0,4.7E1,1.09E2,2E0,1.2E1,1.1E1,1E0,3E0,1.2E1,2.12E2,1.05E2,1.6E2,2.1E2,3E0,4E0,3.5E1,8.3E1,5.8E1,3E1,9.1E1,6.7E1,4.6E1,6.3E1,3.9E1,6E0,2.2E1,4.5E1,1.2E1,2.4E1,4.6E1,1E0,8.6E1,2.3E1,9E0,3E0,7E0,5E0,2.4E1,1.88E2,1.9E1,8.6E1,5.2E1,1.08E2,1.34E2,7.6E1,2.2E1,1.3E1,4.7E1,3.6E1,4.9E1,9E0,1.4E1,1.6E1,4.3E1,4.8E1,3.1E1,3.6E1,1.1E1,3.5E1,9E0,1.3E1,1E0,4.4E1,2.3E1,1E0,1E0,4.5E1,7.3E1,1.3E1,1.4E1,9E0,2E0,1E0,7.9E1,1.09E2,1.4E1,5E0,4.5E1,4.1E1,1.2E1,4E1,5.1E1,5.7E1,4.7E1,8.7E1,3.4E1,4.2E1,1.8E1,4E0,2E0,1.1E1,2.2E1,2.5E1,3.4E1,2E0,8E0,4.1E1,7E0,2E0,3E0,1.1E1,1.2E1,4E0,3.5E1,8E0,3.2E1,1.6E1,6E0,2.5E1,2E0,7E0],"tree_param":{"num_deleted":"0","num_feature":"411","num_nodes":"161","size_leaf_vector":"1"}},{"base_weights":[-3.220065E-3,-1.1068114E-1,6.805092E-1,-5.655828E-1,-1.9159973E-2,1.1964977E0,4.1638094E-1,-8.599135E-1,-4.965305E-1,-1.0301726E-1,1.3732652E-1,4.9990825E-2,1.744271E0,-4.3827167E-1,4.5424616E-1,-7.005104E-2,-7.5724965E-1,-5.672614E-1,-7.681343E-2,-1.4864232E-1,1.7204851E-1,2.3264887E-2,3.144629E-1,2.2834444E-2,8.952159E-2,-8.08889E-3,-2.5825683E-2,3.5649356E-1,7.1580476E-1,-5.397075E-2,-3.214883E-2,-6.015785E-1,1.0357347E-2,-2.0312479E-1,1.0398795E-1,-2.2451976E-1,-7.8346595E-2,-4.9664333E-2,2.4566762E-1,-1.083933E-1,5.847433E-2,2.893482E-1,3.210237E-2,2.7669248E-1,4.8723313E-1,3.0374376E-2,5.6209285E-2,-7.8821975E-1,-4.742459E-1,-2.223573E-1,3.0956983E-3,7.396798E-3,-1.5939533E-3,-2.8420714E-1,-1.2238505E-1,-1.9774136E-1,1.0412987E-2,-1.4909053E-1,6.7513056E-2,3.1059185E-2,2.0400357E-1,-2.0908968E-1,-7.224704E-2,6.674671E-3,1.3769016E-1,2.0838453E-1,3.2668883E-1,1.3648501E-1,3.5155255E-1,3.7501E-1,6.3212967E-1,-8.4969985E-1,-2.439614E-1,-5.677436E-1,-2.0042823E-1,-2.3830134E-1,-3.4259004E-3,-2.2364598E-2,-2.547938E-1,-1.9556518E-1,-2.968261E-2,-2.8287205E-1,-1.474328E-1,-4.8482005E-2,1.02306254E-1,-8.600584E-3,-1.8662096E-3,1.0341072E-2,2.7059874E-2,1.2469222E-1,2.8420782E-1,-1.5078426E-3,-1.10267E-2,-1.0764726E-1,-1.3501485E-3,-3.232121E-2,5.6893453E-2,8.970532E-2,9.616437E-3,6.379269E-3,2.407512E-1,2.9495117E-1,1.845183E-2,7.802747E-2,9.050905E-3,1.4359693E-2,1.9794999E-2,2.044346E-2,1.1476683E-2,3.2638904E-2,8.060086E-3,-4.3092426E-2,-3.930664E-3,-2.897504E-2,3.6631206E-3,-3.0234545E-2,-1.6322916E-2,-1.224893E-2,-6.680322E-3,-1.3677232E-2,-6.9922805E-3,-1.7748065E-2,-9.99615E-3,-1.7959362E-2,-8.05808E-3,-3.8434055E-3,7.636128E-4,-1.6070409E-2,-1.1188619E-2,-9.983239E-3,-4.259146E-3,-5.670219E-3,-1.1028599E-4,2.6668643E-3,7.4970894E-3,1.9570685E-3,-1.1115869E-3,1.8217413E-3,1.0777037E-2,6.672638E-3,1.5415201E-2,-8.171457E-3,-4.0635485E-3,-1.117502E-3,7.566558E-4,-2.9691171E-3,-2.9246486E-4,1.6488383E-3,5.2111745E-3,2.6220009E-3,5.6303316E-3,1.0053456E-2,1.4145078E-2,1.2263678E-2,1.740811E-2,1.7887533E-3,6.0679717E-3],"categories":[],"categories_nodes":[],"categories_segments":[],"categories_sizes":[],"default_left":[0,0,0,0,0,0,0,0,0,0,0,0,0,0,0,0,0,0,0,0,0,0,0,0,0,0,0,0,0,0,0,0,0,0,0,0,0,0,0,0,0,0,0,0,0,0,0,0,0,0,0,0,0,0,0,0,0,0,0,0,0,0,0,0,0,0,0,0,0,0,0,0,0,0,0,0,0,0,0,0,0,0,0,0,0,0,0,0,0,0,0,0,0,0,0,0,0,0,0,0,0,0,0,0,0,0,0,0,0,0,0,0,0,0,0,0,0,0,0,0,0,0,0,0,0,0,0,0,0,0,0,0,0,0,0,0,0,0,0,0,0,0,0,0,0,0,0,0,0,0,0,0,0,0,0,0,0],"id":1,"left_children":[1,3,5,7,9,11,13,15,17,19,21,-1,23,25,27,-1,29,31,33,35,37,39,41,-1,-1,-1,-1,43,45,-1,-1,47,-1,49,51,53,55,57,59,61,63,65,-1,67,69,-1,-1,71,73,75,-1,-1,-1,77,79,81,83,85,87,-1,89,91,93,95,97,99,101,103,105,107,109,111,113,115,117,119,-1,-1,121,123,125,127,129,131,133,-1,-1,-1,135,137,139,-1,-1,141,143,145,147,149,-1,-1,151,153,-1,155,-1,-1,-1,-1,-1,-1,-1,-1,-1,-1,-1,-1,-1,-1,-1,-1,-1,-1,-1,-1,-1,-1,-1,-1,-1,-1,-1,-1,-1,-1,-1,-1,-1,-1,-1,-1,-1,-1,-1,-1,-1,-1,-1,-1,-1,-1,-1,-1,-1,-1,-1,-1,-1],"loss_changes":[1.23879486E2,6.0648636E1,3.0711548E1,4.532135E0,1.5944902E1,6.5517807E0,5.1504097E0,1.4389267E0,5.8938217E0,9.9525385E0,8.559377E0,0E0,3.1160736E-1,6.78736E-2,3.5033207E0,0E0,7.78553E-1,4.669014E0,7.0624053E-1,3.6040993E0,1.856621E0,1.2069615E0,1.1799374E0,0E0,0E0,0E0,0E0,1.0024004E0,1.0422268E0,0E0,0E0,3.5237389E0,0E0,1.0551953E-1,8.2340166E-2,1.9525623E0,3.7535493E0,3.479301E-1,1.2031455E0,1.8508285E-1,8.4026825E-1,4.035473E-1,0E0,6.867337E-1,4.133749E-1,0E0,0E0,1.9676743E0,2.4463406E0,2.5370061E-2,0E0,0E0,0E0,8.693924E-1,8.2184005E-1,6.049986E-1,1.1090189E0,3.4568787E-2,7.329999E-2,0E0,4.6072793E-1,2.2018015E-2,1.0526481E-1,2.4662958E-1,1.9511485E-1,1.0527396E-1,3.2274246E-2,5.356127E-2,1.4736176E-2,2.9293537E-2,5.035305E-2,4.7557068E-1,8.939843E-1,4.6229172E-1,4.764664E-2,1.3794541E-2,0E0,0E0,8.963785E-1,3.2489753E-1,1.17840916E-1,5.3338528E-2,2.983811E-1,3.7529564E-1,1.7861557E-1,0E0,0E0,0E0,8.016377E-3,3.2088697E-1,9.689546E-2,0E0,0E0,2.7914912E-2,5.530427E-3,5.0514206E-2,5.8821827E-2,3.2499015E-2,0E0,0E0,3.3311844E-3,8.6425304E-2,0E0,1.9459791E-2,0E0,0E0,0E0,0E0,0E0,0E0,0E0,0E0,0E0,0E0,0E0,0E0,0E0,0E0,0E0,0E0,0E0,0E0,0E0,0E0,0E0,0E0,0E0,0E0,0E0,0E0,0E0,0E0,0E0,0E0,0E0,0E0,0E0,0E0,0E0,0E0,0E0,0E0,0E0,0E0,0E0,0E0,0E0,0E0,0E0,0E0,0E0,0E0,0E0,0E0,0E0,0E0,0E0],"parents":[2147483647,0,0,1,1,2,2,3,3,4,4,5,5,6,6,7,7,8,8,9,9,10,10,12,12,13,13,14,14,16,16,17,17,18,18,19,19,20,20,21,21,22,22,27,27,28,28,31,31,33,33,34,34,35,35,36,36,37,37,38,38,39,39,40,40,41,41,43,43,44,44,47,47,48,48,49,49,53,53,54,54,55,55,56,56,57,57,58,58,60,60,61,61,62,62,63,63,64,64,65,65,66,66,67,67,68,68,69,69,70,70,71,71,72,72,73,73,74,74,75,75,78,78,79,79,80,80,81,81,82,82,83,83,84,84,88,88,89,89,90,90,93,93,94,94,95,95,96,96,97,97,100,100,101,101,103,103],"right_children":[2,4,6,8,10,12,14,16,18,20,22,-1,24,26,28,-1,30,32,34,36,38,40,42,-1,-1,-1,-1,44,46,-1,-1,48,-1,50,52,54,56,58,60,62,64,66,-1,68,70,-1,-1,72,74,76,-1,-1,-1,78,80,82,84,86,88,-1,90,92,94,96,98,100,102,104,106,108,110,112,114,116,118,120,-1,-1,122,124,126,128,130,132,134,-1,-1,-1,136,138,140,-1,-1,142,144,146,148,150,-1,-1,152,154,-1,156,-1,-1,-1,-1,-1,-1,-1,-1,-1,-1,-1,-1,-1,-1,-1,-1,-1,-1,-1,-1,-1,-1,-1,-1,-1,-1,-1,-1,-1,-1,-1,-1,-1,-1,-1,-1,-1,-1,-1,-1,-1,-1,-1,-1,-1,-1,-1,-1,-1,-1,-1,-1,-1],"split_conditions":[1.0745601E2,1.7168576E0,4.674273E1,2.421169E1,8E1,2.5E2,1.1071174E0,6.6194854E0,4.058666E1,3.3835922E1,2.4620037E1,4.9990825E-2,1.889554E1,1.0279828E0,2.5183447E1,-7.005104E-2,3.3E1,1E0,4.3238247E1,6.397764E1,4.9089478E1,1.9151272E1,3.6313892E1,2.2834444E-2,8.952159E-2,-8.08889E-3,-2.5825683E-2,4.7451344E0,5.914751E0,-5.397075E-2,-3.214883E-2,2.4232746E1,1.0357347E-2,6.0580692E1,2E0,2.8402828E1,2.3346094E1,7.586732E0,6.1409044E0,1.7346945E1,9.3E1,2.6574366E1,3.210237E-2,2.0451977E1,1.691236E2,3.0374376E-2,5.6209285E-2,8.136372E1,4.15625E1,5E0,3.0956983E-3,7.396798E-3,-1.5939533E-3,2.338983E1,5.4090836E1,2.0006964E1,2.6666666E1,1E0,4.729562E1,3.1059185E-2,3.7898914E1,4.7070606E1,9.796137E1,2.2338184E1,2.1965376E1,8.728539E1,2.9285715E1,1.1513202E2,2.2044231E1,5.5979214E0,1E0,1E0,1.195181E1,1E0,7.58631E0,4.752726E1,-3.4259004E-3,-2.2364598E-2,5.4090836E1,4.4966248E1,3.0612246E1,7.582946E1,7.2518394E1,7.030459E1,7.030459E1,-8.600584E-3,-1.8662096E-3,1.0341072E-2,4.7409508E1,6.009292E1,1.9996317E1,-1.5078426E-3,-1.10267E-2,8.664233E1,1.7936508E1,2.10173E1,8.728539E1,2.0181343E1,9.616437E-3,6.379269E-3,9.4258644E1,9.212793E1,1.845183E-2,1.8676407E1,9.050905E-3,1.4359693E-2,1.9794999E-2,2.044346E-2,1.1476683E-2,3.2638904E-2,8.060086E-3,-4.3092426E-2,-3.930664E-3,-2.897504E-2,3.6631206E-3,-3.0234545E-2,-1.6322916E-2,-1.224893E-2,-6.680322E-3,-1.3677232E-2,-6.9922805E-3,-1.7748065E-2,-9.99615E-3,-1.7959362E-2,-8.05808E-3,-3.8434055E-3,7.636128E-4,-1.6070409E-2,-1.1188619E-2,-9.983239E-3,-4.259146E-3,-5.670219E-3,-1.1028599E-4,2.6668643E-3,7.4970894E-3,1.9570685E-3,-1.1115869E-3,1.8217413E-3,1.0777037E-2,6.672638E-3,1.5415201E-2,-8.171457E-3,-4.0635485E-3,-1.117502E-3,7.566558E-4,-2.9691171E-3,-2.9246486E-4,1.6488383E-3,5.2111745E-3,2.6220009E-3,5.6303316E-3,1.0053456E-2,1.4145078E-2,1.2263678E-2,1.740811E-2,1.7887533E-3,6.0679717E-3],"split_indices":[1,0,5,6,1,1,0,4,1,6,6,0,6,0,6,0,1,128,7,1,1,6,6,0,0,0,0,0,0,0,0,1,0,1,2,6,6,4,4,6,1,6,0,6,1,0,0,6,6,2,0,0,0,6,1,6,6,69,5,0,6,5,1,6,6,1,6,1,6,0,40,17,1,388,4,5,0,0,1,1,6,1,1,1,1,0,0,0,5,1,7,0,0,1,6,6,1,6,0,0,1,1,0,6,0,0,0,0,0,0,0,0,0,0,0,0,0,0,0,0,0,0,0,0,0,0,0,0,0,0,0,0,0,0,0,0,0,0,0,0,0,0,0,0,0,0,0,0,0,0,0,0,0,0,0,0,0],"split_type":[0,0,0,0,0,0,0,0,0,0,0,0,0,0,0,0,0,0,0,0,0,0,0,0,0,0,0,0,0,0,0,0,0,0,0,0,0,0,0,0,0,0,0,0,0,0,0,0,0,0,0,0,0,0,0,0,0,0,0,0,0,0,0,0,0,0,0,0,0,0,0,0,0,0,0,0,0,0,0,0,0,0,0,0,0,0,0,0,0,0,0,0,0,0,0,0,0,0,0,0,0,0,0,0,0,0,0,0,0,0,0,0,0,0,0,0,0,0,0,0,0,0,0,0,0,0,0,0,0,0,0,0,0,0,0,0,0,0,0,0,0,0,0,0,0,0,0,0,0,0,0,0,0,0,0,0,0],"sum_hessian":[1.684E3,1.456E3,2.28E2,2.43E2,1.213E3,7.6E1,1.52E2,4.4E1,1.99E2,7.9E2,4.23E2,5.8E1,1.8E1,6E0,1.46E2,5E0,3.9E1,1.7E2,2.9E1,6.78E2,1.12E2,2.58E2,1.65E2,1E0,1.7E1,2E0,4E0,1.08E2,3.8E1,8E0,3.1E1,1.63E2,7E0,1.7E1,1.2E1,3.25E2,3.53E2,2.8E1,8.4E1,5.4E1,2.04E2,1.55E2,1E1,6.9E1,3.9E1,3.2E1,6E0,6.4E1,9.9E1,1.6E1,1E0,9E0,3E0,2.04E2,1.21E2,1.5E2,2.03E2,1.5E1,1.3E1,7E0,7.7E1,1.3E1,4.1E1,1.24E2,8E1,5.1E1,1.04E2,2.5E1,4.4E1,2.4E1,1.5E1,5.7E1,7E0,7.3E1,2.6E1,1.4E1,2E0,2.9E1,1.75E2,6.7E1,5.4E1,5.4E1,9.6E1,1.24E2,7.9E1,1.2E1,3E0,2E0,1.1E1,4E1,3.7E1,1E0,1.2E1,2.7E1,1.4E1,7E1,5.4E1,4.4E1,3.6E1,1.6E1,3.5E1,6.4E1,4E1,1.2E1,1.3E1,2.1E1,2.3E1,1.8E1,6E0,1.4E1,1E0,5.6E1,1E0,3E0,4E0,6.2E1,1.1E1,1.4E1,1.2E1,9E0,5E0,6E1,1.15E2,1E1,5.7E1,2.6E1,2.8E1,3E1,2.4E1,5.1E1,4.5E1,5.1E1,7.3E1,4E1,3.9E1,9E0,2E0,2.1E1,1.9E1,6E0,3.1E1,7E0,2E1,6E0,8E0,3.4E1,3.6E1,3.7E1,1.7E1,1.8E1,2.6E1,2.1E1,1.4E1,3.6E1,2.8E1,7E0,5E0],"tree_param":{"num_deleted":"0","num_feature":"411","num_nodes":"157","size_leaf_vector":"1"}},{"base_weights":[9.692749E-4,-7.533547E-2,9.1900325E-1,-5.378368E-1,1.0885195E-2,5.9239346E-1,1.2168428E0,-5.1039785E-1,-6.9304384E-2,-8.923981E-2,1.870906E-1,4.8307618E-1,8.032718E-1,9.950948E-1,8.5650206E-2,-5.412069E-1,1.6803708E-2,-1.3235769E-1,1.8797337E-1,8.724071E-2,4.0657446E-1,8.405656E-3,5.0202197E-1,7.8585865E-3,4.1450243E-2,5.0239522E-2,1.3484991E-2,-8.399819E-1,-4.2859894E-1,-2.4456294E-2,1.418858E-1,-2.1619095E-1,-5.846648E-2,6.942722E-1,1.4760798E-1,4.8736684E-2,3.1395096E-1,3.5970134E-1,3.8393345E-2,1.7388396E-2,2.8060982E-2,-5.633499E-2,-6.902766E-1,-4.8998272E-1,-2.0466039E-1,9.16973E-3,1.3019562E-2,-2.799209E-1,-1.1557859E-1,-1.2499303E-1,7.349273E-2,4.422006E-2,2.016573E-2,-1.0146949E-1,1.9687828E-1,-8.67548E-3,1.4395946E-1,8.175135E-3,3.4061977E-1,3.344391E-1,3.1722832E-2,-7.162085E-1,-5.721307E-3,-5.561008E-1,-3.4135765E-1,-3.371738E-1,-2.8928503E-2,9.215911E-4,-8.043051E-5,-2.3438698E-2,-2.51087E-1,-1.754936E-2,-8.6912215E-2,-2.3860085E-1,-8.15654E-2,9.995946E-3,1.1764185E-1,-1.6265474E-1,-4.6560764E-3,1.1375061E-1,2.577803E-1,-1.0869807E-2,5.291809E-3,9.0440296E-2,2.0102173E-1,1.3792068E-2,1.9150442E-2,3.1439736E-1,2.3401061E-2,-3.7830774E-2,-2.300019E-2,-2.871472E-2,7.23753E-3,-2.0015897E-2,-1.1555161E-2,-2.051081E-2,-4.3099243E-3,-6.0501597E-3,4.4890465E-3,-1.6272206E-2,-9.680993E-3,-7.173106E-3,-1.0365879E-3,-1.465901E-2,-9.516842E-3,-7.1997046E-3,-1.7063728E-3,-1.4153454E-3,3.8263071E-3,2.3963868E-3,7.646732E-3,-8.713036E-3,-1.1648774E-3,-1.57547E-3,8.878899E-4,1.3212556E-3,1.0214069E-2,1.407208E-2,3.6113195E-3,-1.9732593E-3,3.1119252E-3,2.3640743E-3,6.4496123E-3,6.9123767E-3,1.0759124E-2,1.2324787E-2,1.6573425E-2],"categories":[],"categories_nodes":[],"categories_segments":[],"categories_sizes":[],"default_left":[0,0,0,0,0,0,0,0,0,0,0,0,0,0,0,0,0,0,0,0,0,0,0,0,0,0,0,0,0,0,0,0,0,0,0,0,0,0,0,0,0,0,0,0,0,0,0,0,0,0,0,0,0,0,0,0,0,0,0,0,0,0,0,0,0,0,0,0,0,0,0,0,0,0,0,0,0,0,0,0,0,0,0,0,0,0,0,0,0,0,0,0,0,0,0,0,0,0,0,0,0,0,0,0,0,0,0,0,0,0,0,0,0,0,0,0,0,0,0,0,0,0,0,0,0,0,0],"id":2,"left_children":[1,3,5,7,9,11,13,15,-1,17,19,21,23,25,-1,27,29,31,33,35,37,-1,39,-1,-1,-1,-1,41,43,-1,45,47,49,51,53,55,57,59,-1,-1,-1,-1,61,63,65,-1,67,69,71,73,75,-1,-1,77,79,81,83,-1,85,87,-1,89,-1,91,93,95,97,-1,-1,-1,99,-1,101,103,105,107,109,111,113,115,117,-1,119,121,123,-1,-1,125,-1,-1,-1,-1,-1,-1,-1,-1,-1,-1,-1,-1,-1,-1,-1,-1,-1,-1,-1,-1,-1,-1,-1,-1,-1,-1,-1,-1,-1,-1,-1,-1,-1,-1,-1,-1,-1,-1,-1],"loss_changes":[1.1684317E2,6.1416702E1,1.1730644E1,4.9251175E0,2.2934391E1,1.0642738E0,5.5569077E0,3.8423462E0,0E0,9.933788E0,1.0286703E1,1.7816067E-1,2.0222664E-1,6.6596985E-2,0E0,7.1427E0,9.5535827E-1,4.4350395E0,2.1864574E0,2.821708E0,2.2132301E0,0E0,1.7921734E-1,0E0,0E0,0E0,0E0,1.797657E0,2.1540947E0,0E0,6.180127E-2,2.1220856E0,3.371463E0,8.586383E-2,1.3085499E0,1.5265267E0,1.328845E-1,7.040138E-1,0E0,0E0,0E0,0E0,5.4522896E-1,1.0679989E0,8.51859E-1,0E0,3.4633552E-4,9.985981E-1,8.6027205E-1,1.2386365E0,3.6045337E-1,0E0,0E0,1.05866626E-1,4.161899E-1,5.113212E-1,3.0248165E-1,0E0,1.4400482E-3,1.8215275E-1,0E0,6.605148E-2,0E0,1.1924667E0,1.8051195E-1,3.4960866E-1,1.9667608E-1,0E0,0E0,0E0,7.0614433E-1,0E0,4.42383E-1,1.2859273E-1,5.4592276E-1,1.3977422E-1,1.7966092E-1,1.3731271E-2,5.3746337E-3,3.02922E-1,1.9919491E-1,0E0,4.2300215E-1,8.707702E-2,1.4698267E-2,0E0,0E0,4.5802116E-2,0E0,0E0,0E0,0E0,0E0,0E0,0E0,0E0,0E0,0E0,0E0,0E0,0E0,0E0,0E0,0E0,0E0,0E0,0E0,0E0,0E0,0E0,0E0,0E0,0E0,0E0,0E0,0E0,0E0,0E0,0E0,0E0,0E0,0E0,0E0,0E0,0E0,0E0,0E0],"parents":[2147483647,0,0,1,1,2,2,3,3,4,4,5,5,6,6,7,7,9,9,10,10,11,11,12,12,13,13,15,15,16,16,17,17,18,18,19,19,20,20,22,22,27,27,28,28,30,30,31,31,32,32,33,33,34,34,35,35,36,36,37,37,42,42,43,43,44,44,46,46,47,47,48,48,49,49,50,50,53,53,54,54,55,55,56,56,58,58,59,59,61,61,63,63,64,64,65,65,66,66,70,70,72,72,73,73,74,74,75,75,76,76,77,77,78,78,79,79,80,80,82,82,83,83,84,84,87,87],"right_children":[2,4,6,8,10,12,14,16,-1,18,20,22,24,26,-1,28,30,32,34,36,38,-1,40,-1,-1,-1,-1,42,44,-1,46,48,50,52,54,56,58,60,-1,-1,-1,-1,62,64,66,-1,68,70,72,74,76,-1,-1,78,80,82,84,-1,86,88,-1,90,-1,92,94,96,98,-1,-1,-1,100,-1,102,104,106,108,110,112,114,116,118,-1,120,122,124,-1,-1,126,-1,-1,-1,-1,-1,-1,-1,-1,-1,-1,-1,-1,-1,-1,-1,-1,-1,-1,-1,-1,-1,-1,-1,-1,-1,-1,-1,-1,-1,-1,-1,-1,-1,-1,-1,-1,-1,-1,-1],"split_conditions":[4.7451344E0,1.7168576E0,2.8402828E1,1E0,8.122563E1,1.9329762E2,2.5E2,8.136372E1,-6.9304384E-2,3.3835922E1,2.5859156E1,1.4787234E1,6.430502E0,1E0,8.5650206E-2,2.4232746E1,1.195181E1,6.397764E1,6.134393E0,1.1513202E2,1.1935572E2,8.405656E-3,2.48E1,7.8585865E-3,4.1450243E-2,5.0239522E-2,1.3484991E-2,3.3337208E1,1E0,-2.4456294E-2,7.5938144E0,2.8156435E1,2.5183447E1,5.2E1,4.686625E1,2.2338184E1,2.0111547E1,3.6313892E1,3.8393345E-2,1.7388396E-2,2.8060982E-2,-5.633499E-2,1E0,3.508482E1,3.015625E1,9.16973E-3,1.6156303E1,2.1133053E1,4.5671047E1,2.1318962E1,2.7483978E1,4.422006E-2,2.016573E-2,1.9E1,3.7898914E1,1.5692209E1,9.144964E1,8.175135E-3,2.2044231E1,1.0362573E2,3.1722832E-2,1E0,-5.721307E-3,1E0,1E0,1E0,3.6948868E1,9.215911E-4,-8.043051E-5,-2.3438698E-2,5.562121E1,-1.754936E-2,5.5345158E1,1.9151272E1,7.2518394E1,7.456278E1,6.8E1,4.4047665E1,4.174783E1,6.009292E1,1E0,-1.0869807E-2,9.582245E1,2.3724854E1,2.2690832E1,1.3792068E-2,1.9150442E-2,2.7325954E1,2.3401061E-2,-3.7830774E-2,-2.300019E-2,-2.871472E-2,7.23753E-3,-2.0015897E-2,-1.1555161E-2,-2.051081E-2,-4.3099243E-3,-6.0501597E-3,4.4890465E-3,-1.6272206E-2,-9.680993E-3,-7.173106E-3,-1.0365879E-3,-1.465901E-2,-9.516842E-3,-7.1997046E-3,-1.7063728E-3,-1.4153454E-3,3.8263071E-3,2.3963868E-3,7.646732E-3,-8.713036E-3,-1.1648774E-3,-1.57547E-3,8.878899E-4,1.3212556E-3,1.0214069E-2,1.407208E-2,3.6113195E-3,-1.9732593E-3,3.1119252E-3,2.3640743E-3,6.4496123E-3,6.9123767E-3,1.0759124E-2,1.2324787E-2,1.6573425E-2],"split_indices":[0,0,6,50,1,1,1,6,0,6,6,6,0,166,0,1,1,1,4,1,1,0,7,0,0,0,0,6,404,0,4,6,6,1,1,6,6,6,0,0,0,0,17,6,6,0,1,6,1,6,6,0,0,7,6,6,1,0,6,1,0,179,0,23,3,152,7,0,0,0,1,0,1,6,1,1,1,6,1,1,189,0,1,6,6,0,0,6,0,0,0,0,0,0,0,0,0,0,0,0,0,0,0,0,0,0,0,0,0,0,0,0,0,0,0,0,0,0,0,0,0,0,0,0,0,0,0],"split_type":[0,0,0,0,0,0,0,0,0,0,0,0,0,0,0,0,0,0,0,0,0,0,0,0,0,0,0,0,0,0,0,0,0,0,0,0,0,0,0,0,0,0,0,0,0,0,0,0,0,0,0,0,0,0,0,0,0,0,0,0,0,0,0,0,0,0,0,0,0,0,0,0,0,0,0,0,0,0,0,0,0,0,0,0,0,0,0,0,0,0,0,0,0,0,0,0,0,0,0,0,0,0,0,0,0,0,0,0,0,0,0,0,0,0,0,0,0,0,0,0,0,0,0,0,0,0,0],"sum_hessian":[1.666E3,1.539E3,1.27E2,2.41E2,1.298E3,6.2E1,6.5E1,2.35E2,6E0,8.28E2,4.7E2,4.3E1,1.9E1,4.7E1,1.8E1,2.22E2,1.3E1,7.17E2,1.11E2,3.24E2,1.46E2,3E0,4E1,1E0,1.8E1,4.6E1,1E0,5.9E1,1.63E2,2E0,1.1E1,3.35E2,3.82E2,7E0,1.04E2,2.78E2,4.6E1,1.31E2,1.5E1,1.3E1,2.7E1,1.8E1,4.1E1,1.27E2,3.6E1,8E0,3E0,2.04E2,1.31E2,2.54E2,1.28E2,3E0,4E0,1.7E1,8.7E1,1.74E2,1.04E2,8E0,3.8E1,1.22E2,9E0,3.9E1,2E0,8.6E1,4.1E1,2E1,1.6E1,2E0,1E0,2.5E1,1.79E2,1.3E1,1.18E2,6.9E1,1.85E2,5.3E1,7.5E1,1E1,7E0,3.8E1,4.9E1,1E1,1.64E2,5.5E1,4.9E1,1.8E1,2E1,1.09E2,1.3E1,3.2E1,7E0,8.4E1,2E0,2.5E1,1.6E1,1.5E1,5E0,9E0,7E0,7.6E1,1.03E2,6.3E1,5.5E1,3E1,3.9E1,7.9E1,1.06E2,3.4E1,1.9E1,2.6E1,4.9E1,9E0,1E0,3E0,4E0,2E1,1.8E1,4.3E1,6E0,9.2E1,7.2E1,2.7E1,2.8E1,1.1E1,3.8E1,2.5E1,8.4E1],"tree_param":{"num_deleted":"0","num_feature":"411","num_nodes":"127","size_leaf_vector":"1"}},{"base_weights":[-1.1895107E-2,-1.03192054E-1,6.3412994E-1,-5.227644E-1,-2.2858625E-2,3.874862E-1,1.0528835E0,-8.080447E-1,-4.4385305E-1,-9.637512E-2,1.2923841E-1,-3.5904604E-1,4.3733898E-1,4.3510824E-2,7.6955356E-2,-1.0249114E0,-5.7731456E-1,-5.024092E-1,-6.9570914E-2,-1.5843564E-1,6.575875E-2,2.7588934E-2,2.8852862E-1,-2.3972234E-2,-8.341908E-3,3.2200795E-1,5.922916E-1,-1.1344291E0,-2.4451697E-2,-3.0126898E-2,-8.734068E-3,-5.247587E-1,8.865611E-3,-1.7603439E-1,7.8177966E-2,-2.6826137E-1,-1.0286849E-1,-4.045253E-2,1.6876677E-1,-6.0197804E-2,7.673094E-2,2.4279566E-1,4.1965753E-1,2.4954647E-1,1.9484168E-2,5.1663846E-1,4.0385995E-2,-6.0715098E-2,-2.5568103E-2,-6.77282E-1,-4.2135334E-1,-1.4891458E-2,-6.8680816E-3,6.6065895E-3,-6.276262E-2,-3.8188973E-1,-2.2434448E-1,-2.254459E-1,-5.2561708E-2,-1.0917524E-1,1.3778634E-1,1.1157747E-1,2.89239E-1,-9.883067E-3,-3.4753095E-2,2.0070512E-2,1.5476048E-1,1.8511789E-1,2.865193E-1,1.772561E-2,2.8982121E-2,1.321338E-1,1.3779207E-2,1.03791235E-2,5.5279243E-1,-7.719229E-1,-3.757875E-1,-5.068841E-1,-1.8942353E-1,-1.4436166E-3,-4.110837E-3,-3.871579E-1,-7.98831E-3,-2.9745388E-1,-1.6562861E-1,-3.133969E-1,-1.8193878E-1,-1.0545184E-1,1.0506944E-3,-1.374957E-1,-2.182592E-2,6.328522E-2,3.2942432E-1,5.4045755E-2,1.8518704E-1,2.9312244E-1,3.6387802E-3,-7.710598E-2,3.5581715E-2,-1.0555321E-2,5.7351876E-2,1.24128625E-1,1.8942322E-1,5.2918484E-3,9.9164285E-3,1.2051619E-2,1.6178956E-2,4.7330858E-4,7.314199E-3,9.102385E-3,5.687765E-1,-4.03248E-2,-2.2957427E-2,-3.184661E-2,-3.6444322E-3,-2.6853273E-2,-1.4671722E-2,-1.1357516E-2,-6.009597E-3,-1.7835826E-2,-2.588032E-2,-1.989055E-2,-1.3006844E-2,-9.303717E-3,-4.674178E-3,-1.702309E-2,-1.0178451E-2,-1.0880394E-2,-6.5158466E-3,-6.906409E-3,-1.1604193E-3,-1.3314709E-3,4.1657262E-3,-7.6601147E-3,-4.199654E-4,-3.7396592E-3,-9.2385795E-5,-4.8490143E-3,4.9215048E-3,1.1473745E-2,2.8225495E-2,1.2002588E-4,3.4667433E-3,3.723234E-3,9.649811E-3,1.5359226E-2,8.463549E-3,-6.953848E-3,-2.6624221E-3,-9.4934105E-4,2.6507524E-3,-1.7103037E-3,1.355639E-3,1.730036E-3,4.8757E-3,3.0087328E-3,6.485919E-3,3.724249E-3,9.748645E-3,2.8863523E-2,6.9995285E-3],"categories":[],"categories_nodes":[],"categories_segments":[],"categories_sizes":[],"default_left":[0,0,0,0,0,0,0,0,0,0,0,0,0,0,0,0,0,0,0,0,0,0,0,0,0,0,0,0,0,0,0,0,0,0,0,0,0,0,0,0,0,0,0,0,0,0,0,0,0,0,0,0,0,0,0,0,0,0,0,0,0,0,0,0,0,0,0,0,0,0,0,0,0,0,0,0,0,0,0,0,0,0,0,0,0,0,0,0,0,0,0,0,0,0,0,0,0,0,0,0,0,0,0,0,0,0,0,0,0,0,0,0,0,0,0,0,0,0,0,0,0,0,0,0,0,0,0,0,0,0,0,0,0,0,0,0,0,0,0,0,0,0,0,0,0,0,0,0,0,0,0,0,0,0,0,0,0,0,0,0,0],"id":3,"left_children":[1,3,5,7,9,11,13,15,17,19,21,23,25,-1,-1,27,29,31,33,35,37,39,41,-1,-1,43,45,47,-1,-1,-1,49,-1,51,53,55,57,59,61,63,65,67,69,71,-1,73,-1,-1,-1,75,77,-1,-1,-1,79,81,83,85,87,89,91,93,95,-1,97,99,101,103,105,-1,-1,107,-1,-1,109,111,113,115,117,-1,-1,119,-1,121,123,125,127,129,131,133,135,137,139,141,143,145,-1,147,149,151,153,155,157,-1,-1,-1,-1,-1,-1,-1,159,-1,-1,-1,-1,-1,-1,-1,-1,-1,-1,-1,-1,-1,-1,-1,-1,-1,-1,-1,-1,-1,-1,-1,-1,-1,-1,-1,-1,-1,-1,-1,-1,-1,-1,-1,-1,-1,-1,-1,-1,-1,-1,-1,-1,-1,-1,-1,-1,-1,-1],"loss_changes":[1.00980415E2,5.054657E1,2.1488014E1,5.066704E0,1.4101325E1,5.18128E0,5.5883636E0,1.960228E0,4.1511E0,8.563214E0,6.6468554E0,1.2828457E-1,2.0788746E0,0E0,0E0,9.124279E-1,1.6895294E-1,2.5996323E0,4.3846822E-1,3.725566E0,2.5888114E0,1.091751E0,8.576145E-1,0E0,0E0,2.7054596E-1,4.4648552E-1,3.743744E-1,0E0,0E0,0E0,2.2380981E0,0E0,3.445193E-2,9.9544324E-2,9.423084E-1,2.516405E0,1.4481826E0,7.9449415E-1,3.1142312E-1,7.1312624E-1,2.5210762E-1,2.1140099E-1,8.281493E-2,0E0,3.5454178E-1,0E0,0E0,0E0,1.5075455E0,1.8480206E0,0E0,0E0,0E0,2.634339E-4,3.6745071E-3,5.98928E-1,3.9833403E-1,8.280963E-1,2.0726979E-1,4.5030135E-1,3.4148693E-1,1.0611534E-2,0E0,2.3509637E-1,1.090738E-1,4.868853E-2,3.661394E-2,3.495121E-2,0E0,0E0,1.423718E-2,0E0,0E0,1.1571789E-1,1.3793755E-1,1.2982824E0,2.998047E-1,4.5831203E-2,0E0,0E0,2.9797554E-2,0E0,1.436863E-1,1.09460115E-1,4.3646812E-2,1.2262893E-1,3.9184427E-1,3.3467114E-1,1.2848365E-1,2.3141999E-2,1.5035856E-1,8.192909E-2,3.7734836E-2,1.6755939E-2,1.2442112E-2,0E0,6.5039635E-2,2.9545918E-2,4.8144005E-2,3.5916522E-2,6.1362386E-3,4.6135187E-3,0E0,0E0,0E0,0E0,0E0,0E0,0E0,4.6661377E-2,0E0,0E0,0E0,0E0,0E0,0E0,0E0,0E0,0E0,0E0,0E0,0E0,0E0,0E0,0E0,0E0,0E0,0E0,0E0,0E0,0E0,0E0,0E0,0E0,0E0,0E0,0E0,0E0,0E0,0E0,0E0,0E0,0E0,0E0,0E0,0E0,0E0,0E0,0E0,0E0,0E0,0E0,0E0,0E0,0E0,0E0,0E0,0E0,0E0,0E0],"parents":[2147483647,0,0,1,1,2,2,3,3,4,4,5,5,6,6,7,7,8,8,9,9,10,10,11,11,12,12,15,15,16,16,17,17,18,18,19,19,20,20,21,21,22,22,25,25,26,26,27,27,31,31,33,33,34,34,35,35,36,36,37,37,38,38,39,39,40,40,41,41,42,42,43,43,45,45,49,49,50,50,54,54,55,55,56,56,57,57,58,58,59,59,60,60,61,61,62,62,64,64,65,65,66,66,67,67,68,68,71,71,74,74,75,75,76,76,77,77,78,78,81,81,83,83,84,84,85,85,86,86,87,87,88,88,89,89,90,90,91,91,92,92,93,93,94,94,95,95,97,97,98,98,99,99,100,100,101,101,102,102,110,110],"right_children":[2,4,6,8,10,12,14,16,18,20,22,24,26,-1,-1,28,30,32,34,36,38,40,42,-1,-1,44,46,48,-1,-1,-1,50,-1,52,54,56,58,60,62,64,66,68,70,72,-1,74,-1,-1,-1,76,78,-1,-1,-1,80,82,84,86,88,90,92,94,96,-1,98,100,102,104,106,-1,-1,108,-1,-1,110,112,114,116,118,-1,-1,120,-1,122,124,126,128,130,132,134,136,138,140,142,144,146,-1,148,150,152,154,156,158,-1,-1,-1,-1,-1,-1,-1,160,-1,-1,-1,-1,-1,-1,-1,-1,-1,-1,-1,-1,-1,-1,-1,-1,-1,-1,-1,-1,-1,-1,-1,-1,-1,-1,-1,-1,-1,-1,-1,-1,-1,-1,-1,-1,-1,-1,-1,-1,-1,-1,-1,-1,-1,-1,-1,-1,-1,-1],"split_conditions":[1.12724075E2,1.7168576E0,2.7872341E1,2.4587687E1,8.059906E1,1.1783468E0,2.2917308E2,1.0374863E0,4.058666E1,3E1,2.4473684E1,1.57311E2,5.3972945E0,4.3510824E-2,7.6955356E-2,1E0,8.489065E0,1E0,4.2290615E1,6.0580692E1,5.7E1,2.0111547E1,3.035962E1,-2.3972234E-2,-8.341908E-3,2.1748577E1,2.2917308E2,1E0,-2.4451697E-2,-3.0126898E-2,-8.734068E-3,2.4232746E1,8.865611E-3,4.704777E1,2E0,4.9350872E1,2.222078E1,3.754583E1,3.556981E1,1.6539408E1,9.3323685E1,9.062563E1,3.6313892E1,1.9350649E1,1.9484168E-2,1.4787234E1,4.0385995E-2,-6.0715098E-2,-2.5568103E-2,6.297452E1,4.15625E1,-1.4891458E-2,-6.8680816E-3,6.6065895E-3,1.1783468E0,2.9540882E1,2.5330591E1,1.889554E1,7.086701E1,5.3E1,4.9111225E1,6.7E1,1E0,-9.883067E-3,9.884486E1,2.2338184E1,2.2535885E1,2.525952E1,2.7325954E1,1.772561E-2,2.8982121E-2,3.5270317E0,1.3779207E-2,1.03791235E-2,1.3E2,1.1783468E0,1.3630415E1,1E0,7.58631E0,-1.4436166E-3,-4.110837E-3,1E0,-7.98831E-3,2.3172318E1,2.9113142E1,7.77606E1,7.424867E1,2.6251932E1,2.5510204E1,3.5909092E1,3.1363636E1,4.174783E1,2.5099373E0,5.9E1,2.0018213E0,1E0,3.6387802E-3,8.664233E1,1.7850513E1,8.664233E1,8.728539E1,4.6938213E1,6.60774E0,5.2918484E-3,9.9164285E-3,1.2051619E-2,1.6178956E-2,4.7330858E-4,7.314199E-3,9.102385E-3,1E0,-4.03248E-2,-2.2957427E-2,-3.184661E-2,-3.6444322E-3,-2.6853273E-2,-1.4671722E-2,-1.1357516E-2,-6.009597E-3,-1.7835826E-2,-2.588032E-2,-1.989055E-2,-1.3006844E-2,-9.303717E-3,-4.674178E-3,-1.702309E-2,-1.0178451E-2,-1.0880394E-2,-6.5158466E-3,-6.906409E-3,-1.1604193E-3,-1.3314709E-3,4.1657262E-3,-7.6601147E-3,-4.199654E-4,-3.7396592E-3,-9.2385795E-5,-4.8490143E-3,4.9215048E-3,1.1473745E-2,2.8225495E-2,1.2002588E-4,3.4667433E-3,3.723234E-3,9.649811E-3,1.5359226E-2,8.463549E-3,-6.953848E-3,-2.6624221E-3,-9.4934105E-4,2.6507524E-3,-1.7103037E-3,1.355639E-3,1.730036E-3,4.8757E-3,3.0087328E-3,6.485919E-3,3.724249E-3,9.748645E-3,2.8863523E-2,6.9995285E-3],"split_indices":[1,0,6,6,1,0,1,0,1,6,6,1,0,0,0,15,4,128,7,1,1,6,6,0,0,6,1,31,0,0,0,1,0,5,2,1,6,6,6,6,1,1,6,6,0,6,0,0,0,6,6,0,0,0,0,6,6,6,1,1,6,1,69,0,1,6,6,6,6,0,0,0,0,0,1,0,1,388,4,0,0,43,0,6,6,1,1,6,6,6,6,1,0,1,0,180,0,1,6,1,1,5,4,0,0,0,0,0,0,0,98,0,0,0,0,0,0,0,0,0,0,0,0,0,0,0,0,0,0,0,0,0,0,0,0,0,0,0,0,0,0,0,0,0,0,0,0,0,0,0,0,0,0,0,0,0,0,0,0,0,0],"split_type":[0,0,0,0,0,0,0,0,0,0,0,0,0,0,0,0,0,0,0,0,0,0,0,0,0,0,0,0,0,0,0,0,0,0,0,0,0,0,0,0,0,0,0,0,0,0,0,0,0,0,0,0,0,0,0,0,0,0,0,0,0,0,0,0,0,0,0,0,0,0,0,0,0,0,0,0,0,0,0,0,0,0,0,0,0,0,0,0,0,0,0,0,0,0,0,0,0,0,0,0,0,0,0,0,0,0,0,0,0,0,0,0,0,0,0,0,0,0,0,0,0,0,0,0,0,0,0,0,0,0,0,0,0,0,0,0,0,0,0,0,0,0,0,0,0,0,0,0,0,0,0,0,0,0,0,0,0,0,0,0,0],"sum_hessian":[1.71E3,1.499E3,2.11E2,2.4E2,1.259E3,1.34E2,7.7E1,5E1,1.9E2,8.49E2,4.1E2,8E0,1.26E2,5.8E1,1.9E1,2.4E1,2.6E1,1.64E2,2.6E1,6.14E2,2.35E2,2.51E2,1.59E2,4E0,4E0,7.4E1,5.2E1,1.9E1,5E0,2.4E1,2E0,1.59E2,5E0,1.5E1,1.1E1,2.05E2,4.09E2,1.16E2,1.19E2,9E1,1.61E2,1.2E2,3.9E1,3.8E1,3.6E1,4.1E1,1.1E1,1.6E1,3E0,6.2E1,9.7E1,2E0,1.3E1,8E0,3E0,5.5E1,1.5E2,1.18E2,2.91E2,8.4E1,3.2E1,8.2E1,3.7E1,1.3E1,7.7E1,9.4E1,6.7E1,5.4E1,6.6E1,3E1,9E0,8E0,3E1,5E0,3.6E1,4.6E1,1.6E1,7E1,2.7E1,2E0,1E0,5.3E1,2E0,6.5E1,8.5E1,3.7E1,8.1E1,1.46E2,1.45E2,6.3E1,2.1E1,2.4E1,8E0,4.7E1,3.5E1,3.6E1,1E0,4.8E1,2.9E1,5.2E1,4.2E1,3.8E1,2.9E1,9E0,4.5E1,3.3E1,3.3E1,1E0,7E0,2E0,3.4E1,4E1,6E0,8E0,8E0,6E1,1E1,1.6E1,1.1E1,4.6E1,7E0,1.5E1,5E1,6.5E1,2E1,2.8E1,9E0,4.6E1,3.5E1,1.04E2,4.2E1,1.09E2,3.6E1,5.6E1,7E0,5E0,1.6E1,4E0,2E1,7E0,1E0,1.1E1,3.6E1,3E0,3.2E1,3.1E1,5E0,1.2E1,3.6E1,7E0,2.2E1,3.2E1,2E1,2.8E1,1.4E1,4E0,3.4E1,2E0,2.7E1,3.3E1,1E0],"tree_param":{"num_deleted":"0","num_feature":"411","num_nodes":"161","size_leaf_vector":"1"}},{"base_weights":[-9.7530294E-4,-9.355423E-2,5.985489E-1,-4.987846E-1,-1.7211547E-2,1.0277271E0,3.6251637E-1,-7.519736E-1,-4.2370433E-1,-8.0534175E-2,1.1516146E-1,4.3418866E-2,1.4936202E0,-3.248039E-1,3.938454E-1,-6.2020272E-2,-6.736212E-1,-4.8165768E-1,-5.7458933E-2,-1.4102492E-1,7.807967E-2,2.0085964E-2,2.6125804E-1,2.0217681E-2,7.658354E-2,-2.0780772E-2,-7.639569E-3,3.2271606E-1,5.8002275E-1,-4.8004795E-2,-5.4797E-1,-5.268837E-1,1.7928736E-2,-1.6652505E-1,8.366195E-2,-2.2384611E-1,-6.7025274E-2,1.7412445E-2,2.3367989E-1,-6.123658E-2,6.8009764E-2,2.2113821E-1,3.570892E-1,2.3574151E-1,4.173045E-1,2.2580126E-2,3.2644596E-2,-2.8291477E-2,-8.442926E-3,-7.372351E-1,-4.3889055E-1,-2.3282552E-2,1.3732962E-1,-1.1343917E-2,-1.13660574E-1,6.1634276E-3,-1.318419E-3,-2.0861771E-2,-2.0372362E-1,-1.8035291E-1,-1.7366901E-2,-8.986689E-2,1.2322482E-1,-6.685083E-2,2.895373E-1,-1.7956132E-1,-4.0990274E-2,1.2778912E-2,1.1893857E-1,1.8686235E-1,1.41131E-2,1.5874928E-2,2.633265E-2,7.7195294E-2,2.6783228E-1,3.6412087E-1,5.509439E-1,-7.823956E-1,-4.5314878E-1,-5.022244E-1,-1.6465566E-1,8.815037E-3,1.5312195E-2,-5.9406706E-3,-1.6821265E-3,-3.1894204E-1,-1.6147599E-1,-1.3178113E-2,-1.5279807E-1,-5.3907726E-2,5.0846618E-2,-1.328177E-1,-2.890975E-2,5.6095973E-2,1.6909309E-1,-1.1303584E-2,-6.3493517E-3,2.292915E-1,5.0967586E-1,-1.52421E-3,-9.472203E-3,-7.805965E-2,1.3047637E-2,-3.374504E-2,3.272744E-2,9.469194E-2,1.630267E-1,1.361889E-1,1.0249253E-2,3.0761924E-2,6.338148E-3,8.223953E-3,1.3947274E-2,3.5936832E-3,3.700769E-1,2.8772414E-2,7.034886E-3,-4.0039923E-2,-1.6265003E-2,-2.6804408E-2,-1.1809367E-2,-3.05616E-2,-2.1840287E-2,-1.0492304E-2,-6.0352087E-3,1.0123492E-3,1.2695789E-5,-1.7100506E-2,-1.2705718E-2,-1.1296979E-2,-6.639842E-3,-9.43564E-3,-5.7878504E-3,-5.7131085E-3,-1.2199257E-3,2.0066123E-4,4.6004527E-3,-7.4440213E-3,-7.586411E-4,-4.9211266E-3,4.9737893E-4,1.725172E-3,4.820287E-3,3.6173519E-3,9.573546E-3,-1.4734555E-3,9.020138E-4,1.1921461E-2,1.0943492E-3,3.699124E-2,1.8816445E-2,-5.820643E-3,-2.9130466E-3,-1.0562236E-3,1.6790243E-3,-1.8845581E-3,2.5630792E-4,7.5548823E-4,3.30723E-3,2.472669E-3,5.5411677E-3,8.307007E-3,2.0519376E-3,3.937459E-3,7.591472E-3,1.621008E-4,2.056074E-3,1.104236E-2,1.9591799E-2],"categories":[],"categories_nodes":[],"categories_segments":[],"categories_sizes":[],"default_left":[0,0,0,0,0,0,0,0,0,0,0,0,0,0,0,0,0,0,0,0,0,0,0,0,0,0,0,0,0,0,0,0,0,0,0,0,0,0,0,0,0,0,0,0,0,0,0,0,0,0,0,0,0,0,0,0,0,0,0,0,0,0,0,0,0,0,0,0,0,0,0,0,0,0,0,0,0,0,0,0,0,0,0,0,0,0,0,0,0,0,0,0,0,0,0,0,0,0,0,0,0,0,0,0,0,0,0,0,0,0,0,0,0,0,0,0,0,0,0,0,0,0,0,0,0,0,0,0,0,0,0,0,0,0,0,0,0,0,0,0,0,0,0,0,0,0,0,0,0,0,0,0,0,0,0,0,0,0,0,0,0,0,0,0,0,0,0,0,0],"id":4,"left_children":[1,3,5,7,9,11,13,15,17,19,21,-1,23,25,27,-1,29,31,33,35,37,39,41,-1,-1,-1,-1,43,45,-1,47,49,51,53,55,57,59,61,63,65,67,69,71,73,75,-1,-1,-1,-1,77,79,-1,81,-1,83,-1,-1,-1,85,87,89,91,93,95,97,99,101,103,105,107,-1,-1,-1,109,111,113,115,117,119,121,123,-1,125,-1,-1,127,129,-1,131,133,135,137,139,141,143,-1,145,147,149,-1,-1,151,153,155,157,159,161,163,-1,165,-1,-1,-1,-1,167,-1,-1,-1,-1,-1,-1,-1,-1,-1,-1,-1,-1,-1,-1,-1,-1,-1,-1,-1,-1,-1,-1,-1,-1,-1,-1,-1,-1,-1,-1,-1,-1,-1,-1,-1,-1,-1,-1,-1,-1,-1,-1,-1,-1,-1,-1,-1,-1,-1,-1,-1,-1,-1,-1],"loss_changes":[9.41896E1,4.5467888E1,2.2622543E1,4.1105957E0,1.0386446E1,4.6421814E0,3.3148193E0,1.1544666E0,3.8353004E0,8.051343E0,5.564725E0,0E0,1.6816711E-1,4.5842588E-2,1.6932774E0,0E0,1.1657028E0,3.556755E0,4.1411096E-1,3.705141E0,2.1859725E0,9.551024E-1,5.285015E-1,0E0,0E0,0E0,0E0,7.654371E-1,6.0751915E-2,0E0,1.4143181E-1,2.3418007E0,8.7230563E-1,2.2071034E-2,5.554553E-2,1.0279598E0,1.8089762E0,1.9181225E0,1.1105027E0,2.1064287E-1,4.3165773E-1,1.8609428E-1,1.3487959E-1,2.6933336E-1,1.4765358E-1,0E0,0E0,0E0,0E0,1.7146492E-1,1.7236156E0,0E0,5.4362312E-2,0E0,1.2600422E-4,0E0,0E0,0E0,1.2189703E0,1.8442464E-1,5.635711E-1,2.1608555E-1,2.5223672E-1,1.04528666E-1,6.1256886E-1,1.3377726E-2,1.5926749E-1,7.071072E-2,7.008171E-2,4.187727E-2,0E0,0E0,0E0,2.1418065E-2,8.102417E-3,3.9545536E-2,3.966999E-2,2.5505066E-2,1.7340064E-2,3.3202362E-1,1.6380548E-2,0E0,2.9209664E-4,0E0,0E0,1.6275883E-2,3.2680655E-1,0E0,7.9259634E-2,2.59021E-1,1.519251E-1,9.03362E-2,9.821797E-2,2.8007701E-2,9.4395995E-2,0E0,5.6065707E-3,8.0065966E-2,5.9169054E-2,0E0,0E0,2.8906882E-2,2.3863845E-2,3.7211943E-3,3.0203402E-2,3.3926606E-2,3.4365654E-3,8.70648E-3,0E0,1.862342E-3,0E0,0E0,0E0,0E0,3.3607006E-2,0E0,0E0,0E0,0E0,0E0,0E0,0E0,0E0,0E0,0E0,0E0,0E0,0E0,0E0,0E0,0E0,0E0,0E0,0E0,0E0,0E0,0E0,0E0,0E0,0E0,0E0,0E0,0E0,0E0,0E0,0E0,0E0,0E0,0E0,0E0,0E0,0E0,0E0,0E0,0E0,0E0,0E0,0E0,0E0,0E0,0E0,0E0,0E0,0E0,0E0,0E0,0E0,0E0,0E0],"parents":[2147483647,0,0,1,1,2,2,3,3,4,4,5,5,6,6,7,7,8,8,9,9,10,10,12,12,13,13,14,14,16,16,17,17,18,18,19,19,20,20,21,21,22,22,27,27,28,28,30,30,31,31,32,32,33,33,34,34,35,35,36,36,37,37,38,38,39,39,40,40,41,41,42,42,43,43,44,44,49,49,50,50,52,52,54,54,58,58,59,59,60,60,61,61,62,62,63,63,64,64,65,65,66,66,67,67,68,68,69,69,73,73,74,74,75,75,76,76,77,77,78,78,79,79,80,80,82,82,85,85,86,86,88,88,89,89,90,90,91,91,92,92,93,93,94,94,96,96,97,97,98,98,101,101,102,102,103,103,104,104,105,105,106,106,107,107,109,109,114,114],"right_children":[2,4,6,8,10,12,14,16,18,20,22,-1,24,26,28,-1,30,32,34,36,38,40,42,-1,-1,-1,-1,44,46,-1,48,50,52,54,56,58,60,62,64,66,68,70,72,74,76,-1,-1,-1,-1,78,80,-1,82,-1,84,-1,-1,-1,86,88,90,92,94,96,98,100,102,104,106,108,-1,-1,-1,110,112,114,116,118,120,122,124,-1,126,-1,-1,128,130,-1,132,134,136,138,140,142,144,-1,146,148,150,-1,-1,152,154,156,158,160,162,164,-1,166,-1,-1,-1,-1,168,-1,-1,-1,-1,-1,-1,-1,-1,-1,-1,-1,-1,-1,-1,-1,-1,-1,-1,-1,-1,-1,-1,-1,-1,-1,-1,-1,-1,-1,-1,-1,-1,-1,-1,-1,-1,-1,-1,-1,-1,-1,-1,-1,-1,-1,-1,-1,-1,-1,-1,-1,-1,-1,-1],"split_conditions":[1.0745601E2,1.7168576E0,4.674273E1,2.4587687E1,8.059906E1,2.5E2,1.1783468E0,6.6194854E0,4.058666E1,3E1,2.4473684E1,4.3418866E-2,1.889554E1,1.57311E2,2.5183447E1,-6.2020272E-2,3.3E1,8.136372E1,4E1,6.5323326E1,3.7898914E1,2.0181343E1,2.9285715E1,2.0217681E-2,7.658354E-2,-2.0780772E-2,-7.639569E-3,1.2639915E2,1.21558136E2,-4.8004795E-2,8.489065E0,2.1379267E1,1.195181E1,2.7411242E1,2E0,2.1133053E1,2.2370007E1,5.7292366E1,4.7415672E1,1.7346945E1,8.9738106E1,9.4258644E1,3.6313892E1,1.889554E1,6.430502E0,2.2580126E-2,3.2644596E-2,-2.8291477E-2,-8.442926E-3,1E0,4.5152805E1,-2.3282552E-2,7.5938144E0,-1.1343917E-2,5.279374E1,6.1634276E-3,-1.318419E-3,-2.0861771E-2,5.209396E1,1.853205E1,2.5650654E1,5.1540108E1,6.476242E1,3.0652992E1,2.9552846E0,4.7070606E1,9.6E1,2.1965376E1,2.2690832E1,2.5650654E1,1.41131E-2,1.5874928E-2,2.633265E-2,1.1513202E2,2.0258589E1,4.7039894E1,4.735456E1,1E0,3E0,2.8E1,8.514369E0,8.815037E-3,1.6156303E1,-5.9406706E-3,-1.6821265E-3,4.9350872E1,2.4721802E1,-1.3178113E-2,7.424867E1,7.030459E1,3.1955335E0,3.5909092E1,3.15625E1,3.3001354E1,2.1119998E0,-1.1303584E-2,4.174783E1,1E0,5.2E1,-1.52421E-3,-9.472203E-3,8.664233E1,1.8253796E1,1E0,2.35664E1,9.363784E1,6E0,8.498943E1,1.0249253E-2,3.6142716E0,6.338148E-3,8.223953E-3,1.3947274E-2,3.5936832E-3,2.6363636E1,2.8772414E-2,7.034886E-3,-4.0039923E-2,-1.6265003E-2,-2.6804408E-2,-1.1809367E-2,-3.05616E-2,-2.1840287E-2,-1.0492304E-2,-6.0352087E-3,1.0123492E-3,1.2695789E-5,-1.7100506E-2,-1.2705718E-2,-1.1296979E-2,-6.639842E-3,-9.43564E-3,-5.7878504E-3,-5.7131085E-3,-1.2199257E-3,2.0066123E-4,4.6004527E-3,-7.4440213E-3,-7.586411E-4,-4.9211266E-3,4.9737893E-4,1.725172E-3,4.820287E-3,3.6173519E-3,9.573546E-3,-1.4734555E-3,9.020138E-4,1.1921461E-2,1.0943492E-3,3.699124E-2,1.8816445E-2,-5.820643E-3,-2.9130466E-3,-1.0562236E-3,1.6790243E-3,-1.8845581E-3,2.5630792E-4,7.5548823E-4,3.30723E-3,2.472669E-3,5.5411677E-3,8.307007E-3,2.0519376E-3,3.937459E-3,7.591472E-3,1.621008E-4,2.056074E-3,1.104236E-2,1.9591799E-2],"split_indices":[1,0,5,6,1,1,0,4,1,6,6,0,6,1,6,0,1,6,7,1,6,6,6,0,0,0,0,1,1,0,4,1,1,6,2,6,6,1,1,6,1,1,6,6,0,0,0,0,0,179,6,0,4,0,1,0,0,0,1,6,6,1,1,1,0,5,1,6,6,6,0,0,0,1,6,5,5,349,2,1,4,0,1,0,0,1,6,0,1,1,0,6,6,6,0,0,1,221,1,0,0,1,6,141,6,1,2,1,0,0,0,0,0,0,7,0,0,0,0,0,0,0,0,0,0,0,0,0,0,0,0,0,0,0,0,0,0,0,0,0,0,0,0,0,0,0,0,0,0,0,0,0,0,0,0,0,0,0,0,0,0,0,0,0,0,0,0,0,0],"split_type":[0,0,0,0,0,0,0,0,0,0,0,0,0,0,0,0,0,0,0,0,0,0,0,0,0,0,0,0,0,0,0,0,0,0,0,0,0,0,0,0,0,0,0,0,0,0,0,0,0,0,0,0,0,0,0,0,0,0,0,0,0,0,0,0,0,0,0,0,0,0,0,0,0,0,0,0,0,0,0,0,0,0,0,0,0,0,0,0,0,0,0,0,0,0,0,0,0,0,0,0,0,0,0,0,0,0,0,0,0,0,0,0,0,0,0,0,0,0,0,0,0,0,0,0,0,0,0,0,0,0,0,0,0,0,0,0,0,0,0,0,0,0,0,0,0,0,0,0,0,0,0,0,0,0,0,0,0,0,0,0,0,0,0,0,0,0,0,0,0],"sum_hessian":[1.695E3,1.469E3,2.26E2,2.32E2,1.237E3,7.9E1,1.47E2,5.1E1,1.81E2,8.37E2,4E2,6.1E1,1.8E1,6E0,1.41E2,5E0,4.6E1,1.56E2,2.5E1,6.06E2,2.31E2,2.43E2,1.57E2,1E0,1.7E1,3E0,3E0,1.04E2,3.7E1,1.2E1,3.4E1,1.43E2,1.3E1,1.4E1,1.1E1,2.85E2,3.21E2,1.67E2,6.4E1,9E1,1.53E2,1.13E2,4.4E1,5.6E1,4.8E1,1.6E1,2.1E1,3.2E1,2E0,4E1,1.03E2,2E0,1.1E1,5E0,9E0,8E0,3E0,2.5E1,2.6E2,9.7E1,2.24E2,8.3E1,8.4E1,1E1,5.4E1,1.2E1,7.8E1,7.4E1,7.9E1,7.5E1,3.8E1,3.8E1,6E0,1E1,4.6E1,3.7E1,1.1E1,3.3E1,7E0,8.3E1,2E1,8E0,3E0,8E0,1E0,6.8E1,1.92E2,2.2E1,7.5E1,1.46E2,7.8E1,4.8E1,3.5E1,3.5E1,4.9E1,2E0,8E0,4.4E1,1E1,1E0,1.1E1,4.6E1,3.2E1,2.2E1,5.2E1,5.3E1,2.6E1,2.2E1,5.3E1,6E0,4E0,6E0,4E1,1E0,3.6E1,1E1,1E0,3.1E1,2E0,4E0,3E0,2.8E1,5.5E1,8E0,1.2E1,2E0,1E0,4.7E1,2.1E1,5.7E1,1.35E2,3.6E1,3.9E1,4.7E1,9.9E1,3.7E1,4.1E1,4.2E1,6E0,1.2E1,2.3E1,2.4E1,1.1E1,1E1,3.9E1,4E0,4E0,4.2E1,2E0,2E0,8E0,1.4E1,3.2E1,1.2E1,2E1,2E1,2E0,3.5E1,1.7E1,1.5E1,3.8E1,2.5E1,1E0,6E0,1.6E1,2E0,4E0,6E0,3E1],"tree_param":{"num_deleted":"0","num_feature":"411","num_nodes":"169","size_leaf_vector":"1"}},{"base_weights":[3.304607E-3,-9.338621E-2,5.775642E-1,-4.7841918E-1,-2.0668743E-2,3.3440033E-1,9.501434E-1,-7.2752887E-1,-3.9920437E-1,-8.7877676E-2,1.0902022E-1,-3.4939688E-1,3.7006685E-1,7.9098564E-1,7.442384E-2,-8.9950675E-1,-5.1586634E-1,-4.5093596E-1,-9.531888E-3,-1.2432165E-1,1.416579E-1,5.8184117E-3,2.3744258E-1,-2.2182131E-2,-7.212025E-3,2.6527944E-1,5.2535146E-1,6.6610163E-1,4.6090752E-2,-1.0603535E0,-2.4393132E-2,-2.7664308E-2,-8.119041E-3,-4.8668796E-1,-4.8437696E-2,1.0160557E-1,-1.2990622E-1,-2.0963868E-1,-7.46891E-2,-2.914173E-2,2.1034203E-1,-8.828559E-2,3.5062887E-2,1.682676E-1,2.992536E-1,1.7116521E-1,1.7007103E-2,4.46725E-1,3.785542E-2,3.658724E-2,2.547974E-2,-5.683294E-2,-2.3548365E-2,-7.4435467E-1,-3.915211E-1,-2.4904018E-2,1.1947215E-1,6.0102465E-3,-2.5746822E-3,-6.816828E-3,-1.6400695E-3,-2.6392284E-1,-1.1212245E-1,-2.1456039E-1,-3.2061387E-2,-1.2185055E-1,5.4885097E-2,1.1237562E-1,2.8030905E-1,-1.6833559E-1,-6.262796E-2,-4.989396E-3,1.0773561E-1,8.00716E-2,1.8891768E-1,2.774393E-1,2.1623487E-2,5.6781854E-2,2.062314E-1,3.5193768E-1,2.6491186E-2,-4.8262276E-2,-6.6333914E-1,-4.5261714E-1,-1.8142512E-1,7.843641E-3,1.48028135E-2,-3.5622048E-1,-2.218642E-1,-2.331008E-1,-7.8366585E-2,-2.8787687E-1,-1.6977552E-1,-6.909668E-2,7.44112E-2,-1.4148675E-1,-1.3785124E-3,9.390277E-3,1.5780639E-2,3.584525E-2,8.746782E-3,2.217511E-1,4.1189834E-1,-4.300981E-3,-9.768137E-3,-1.0559474E-1,-1.4861432E-2,-4.373684E-2,2.0730596E-2,7.422308E-2,1.4817233E-1,2.5193244E-3,4.659452E-3,8.283051E-3,1.1765041E-2,3.4591318E-3,1.39528215E-2,3.3581734E-2,4.4493317E-3,1.1598639E-2,7.3071565E-3,1.0398404E-2,2.0546224E-2,-7.435477E-3,-3.3776823E-2,-2.4215499E-2,-1.5054283E-2,-1.1461778E-2,-5.7990607E-3,9.78605E-4,1.2373925E-5,-1.6513254E-2,-2.4575794E-2,-1.3441684E-2,-8.426514E-3,-4.8697414E-3,-1.256599E-2,-5.7628467E-3,-1.970698E-3,-1.6184615E-2,-1.0167905E-2,-9.95545E-3,-6.2236353E-3,-5.636401E-3,-9.142495E-4,1.2841132E-3,6.1831963E-3,-1.0926804E-2,-5.380544E-3,-1.9772291E-4,2.3021183E-3,4.5916015E-5,2.7406411E-3,5.742187E-3,1.2511431E-2,2.1487974E-2,4.9391272E-3,-7.070575E-3,-3.6234432E-3,-1.9434256E-3,4.1917563E-4,-3.023043E-3,-2.0141124E-4,-3.0334972E-5,2.6760127E-3,2.481438E-3,4.6323407E-3,4.618916E-3,8.118569E-3,4.725615E-4,2.0025016E-3],"categories":[],"categories_nodes":[],"categories_segments":[],"categories_sizes":[],"default_left":[0,0,0,0,0,0,0,0,0,0,0,0,0,0,0,0,0,0,0,0,0,0,0,0,0,0,0,0,0,0,0,0,0,0,0,0,0,0,0,0,0,0,0,0,0,0,0,0,0,0,0,0,0,0,0,0,0,0,0,0,0,0,0,0,0,0,0,0,0,0,0,0,0,0,0,0,0,0,0,0,0,0,0,0,0,0,0,0,0,0,0,0,0,0,0,0,0,0,0,0,0,0,0,0,0,0,0,0,0,0,0,0,0,0,0,0,0,0,0,0,0,0,0,0,0,0,0,0,0,0,0,0,0,0,0,0,0,0,0,0,0,0,0,0,0,0,0,0,0,0,0,0,0,0,0,0,0,0,0,0,0,0,0,0,0,0,0,0,0,0,0],"id":5,"left_children":[1,3,5,7,9,11,13,15,17,19,21,23,25,27,-1,29,31,33,35,37,39,41,43,-1,-1,45,47,49,-1,51,-1,-1,-1,53,55,57,59,61,63,65,67,69,71,73,75,77,-1,79,-1,-1,-1,-1,-1,81,83,-1,85,-1,-1,-1,-1,87,89,91,93,95,97,99,101,103,105,107,109,111,113,115,-1,117,119,121,-1,-1,123,125,127,-1,129,131,133,135,137,139,141,143,145,147,-1,-1,149,151,-1,153,155,-1,-1,157,159,161,163,165,167,-1,-1,-1,-1,-1,-1,169,-1,-1,-1,-1,-1,-1,-1,-1,-1,-1,-1,-1,-1,-1,-1,-1,-1,-1,-1,-1,-1,-1,-1,-1,-1,-1,-1,-1,-1,-1,-1,-1,-1,-1,-1,-1,-1,-1,-1,-1,-1,-1,-1,-1,-1,-1,-1,-1,-1,-1,-1,-1,-1],"loss_changes":[9.516934E1,4.1064095E1,2.2059921E1,4.307392E0,1.07741585E1,3.811987E0,7.1335907E0,1.5380421E0,3.6040516E0,6.826873E0,5.5915613E0,9.068966E-2,2.203785E0,6.4404297E-1,0E0,1.402832E0,2.6729584E-1,2.2500687E0,3.0751735E-1,2.961197E0,1.3200269E0,6.498208E-1,7.5349236E-1,0E0,0E0,5.6179523E-1,7.004461E-1,6.8870544E-2,0E0,3.6413765E-1,0E0,0E0,0E0,3.2641602E0,1.1164988E0,4.036034E-2,2.3965538E-3,1.336154E0,2.6523483E0,2.637587E-1,5.1685333E-1,1.0447547E-1,5.244651E-1,1.5060759E-1,1.6480541E-1,1.5274036E-1,0E0,1.6798687E-1,0E0,0E0,0E0,0E0,0E0,3.974724E-2,1.3041744E0,0E0,4.073955E-2,0E0,0E0,0E0,0E0,5.614834E-1,3.656031E-1,2.9260635E-1,1.3576739E0,2.572009E-2,9.059637E-2,1.6130039E-1,2.6311874E-1,1.2116909E-2,8.873516E-2,1.1750702E-1,7.573086E-2,2.7029887E-3,3.976631E-2,9.994507E-3,0E0,5.2303784E-3,1.40480995E-2,1.1835623E-1,0E0,0E0,9.413147E-2,2.5278473E-1,5.476433E-2,0E0,2.7283048E-4,1.3251781E-2,2.4528074E-1,2.4971366E-2,1.0323048E-1,4.9203396E-2,6.425178E-2,5.6326926E-1,2.104269E-1,1.04146E-2,0E0,0E0,9.140344E-3,1.1211811E-2,0E0,7.4774384E-2,3.0251026E-2,0E0,0E0,1.704067E-2,1.2602808E-2,3.0968562E-2,4.9707107E-2,1.2167454E-2,7.1826577E-3,0E0,0E0,0E0,0E0,0E0,0E0,8.70144E-4,0E0,0E0,0E0,0E0,0E0,0E0,0E0,0E0,0E0,0E0,0E0,0E0,0E0,0E0,0E0,0E0,0E0,0E0,0E0,0E0,0E0,0E0,0E0,0E0,0E0,0E0,0E0,0E0,0E0,0E0,0E0,0E0,0E0,0E0,0E0,0E0,0E0,0E0,0E0,0E0,0E0,0E0,0E0,0E0,0E0,0E0,0E0,0E0,0E0,0E0,0E0,0E0,0E0],"parents":[2147483647,0,0,1,1,2,2,3,3,4,4,5,5,6,6,7,7,8,8,9,9,10,10,11,11,12,12,13,13,15,15,16,16,17,17,18,18,19,19,20,20,21,21,22,22,25,25,26,26,27,27,29,29,33,33,34,34,35,35,36,36,37,37,38,38,39,39,40,40,41,41,42,42,43,43,44,44,45,45,47,47,53,53,54,54,56,56,61,61,62,62,63,63,64,64,65,65,66,66,67,67,68,68,69,69,70,70,71,71,72,72,73,73,74,74,75,75,77,77,78,78,79,79,82,82,83,83,84,84,86,86,87,87,88,88,89,89,90,90,91,91,92,92,93,93,94,94,95,95,98,98,99,99,101,101,102,102,105,105,106,106,107,107,108,108,109,109,110,110,117,117],"right_children":[2,4,6,8,10,12,14,16,18,20,22,24,26,28,-1,30,32,34,36,38,40,42,44,-1,-1,46,48,50,-1,52,-1,-1,-1,54,56,58,60,62,64,66,68,70,72,74,76,78,-1,80,-1,-1,-1,-1,-1,82,84,-1,86,-1,-1,-1,-1,88,90,92,94,96,98,100,102,104,106,108,110,112,114,116,-1,118,120,122,-1,-1,124,126,128,-1,130,132,134,136,138,140,142,144,146,148,-1,-1,150,152,-1,154,156,-1,-1,158,160,162,164,166,168,-1,-1,-1,-1,-1,-1,170,-1,-1,-1,-1,-1,-1,-1,-1,-1,-1,-1,-1,-1,-1,-1,-1,-1,-1,-1,-1,-1,-1,-1,-1,-1,-1,-1,-1,-1,-1,-1,-1,-1,-1,-1,-1,-1,-1,-1,-1,-1,-1,-1,-1,-1,-1,-1,-1,-1,-1,-1,-1,-1],"split_conditions":[1.0745601E2,1.7168576E0,2.7571428E1,2.501434E1,8E1,1.1783468E0,2.5E2,1.0374863E0,4.4E1,3.3835922E1,2.3993086E1,1.57311E2,5.3972945E0,5.914751E0,7.442384E-2,1E0,8.489065E0,8.136372E1,2E0,5.9642315E1,4.9969116E1,1.92E1,2.7325954E1,-2.2182131E-2,-7.212025E-3,2.1197184E1,2.2917308E2,4.6526154E1,4.6090752E-2,1E0,-2.4393132E-2,-2.7664308E-2,-8.119041E-3,2.1379267E1,1.195181E1,1E0,5.562121E1,2.9113142E1,2.2082245E1,7.586732E0,3.7898914E1,1.7346945E1,9.3E1,8.498943E1,3.4639427E1,1.8676407E1,1.7007103E-2,2.082353E1,3.785542E-2,3.658724E-2,2.547974E-2,-5.683294E-2,-2.3548365E-2,3.4507526E1,4.4047665E1,-2.4904018E-2,7.5938144E0,6.0102465E-3,-2.5746822E-3,-6.816828E-3,-1.6400695E-3,4.9350872E1,4.81021E1,1.9151272E1,2.7483978E1,1E0,4.729562E1,6.009292E1,3.012592E0,4.7417603E1,9.582245E1,2.1247934E1,2.2082245E1,2.4620037E1,9.582245E1,6.571441E0,2.1623487E-2,1.1513202E2,1E0,2.6363636E1,2.6491186E-2,-4.8262276E-2,9.556224E-1,3.3691032E1,8.514369E0,7.843641E-3,1.6156303E1,1E0,2.5510204E1,1E0,5.321518E1,7.557201E1,7.424867E1,7.030459E1,6.8E1,2.1119998E0,-1.3785124E-3,9.390277E-3,1E0,2.202208E1,8.746782E-3,5.426795E1,4.028905E0,-4.300981E-3,-9.768137E-3,8.664233E1,1.00894E2,8.9E1,8.561206E1,2.0258589E1,9.700501E1,2.5193244E-3,4.659452E-3,8.283051E-3,1.1765041E-2,3.4591318E-3,1.39528215E-2,3.5270317E0,4.4493317E-3,1.1598639E-2,7.3071565E-3,1.0398404E-2,2.0546224E-2,-7.435477E-3,-3.3776823E-2,-2.4215499E-2,-1.5054283E-2,-1.1461778E-2,-5.7990607E-3,9.78605E-4,1.2373925E-5,-1.6513254E-2,-2.4575794E-2,-1.3441684E-2,-8.426514E-3,-4.8697414E-3,-1.256599E-2,-5.7628467E-3,-1.970698E-3,-1.6184615E-2,-1.0167905E-2,-9.95545E-3,-6.2236353E-3,-5.636401E-3,-9.142495E-4,1.2841132E-3,6.1831963E-3,-1.0926804E-2,-5.380544E-3,-1.9772291E-4,2.3021183E-3,4.5916015E-5,2.7406411E-3,5.742187E-3,1.2511431E-2,2.1487974E-2,4.9391272E-3,-7.070575E-3,-3.6234432E-3,-1.9434256E-3,4.1917563E-4,-3.023043E-3,-2.0141124E-4,-3.0334972E-5,2.6760127E-3,2.481438E-3,4.6323407E-3,4.618916E-3,8.118569E-3,4.725615E-4,2.0025016E-3],"split_indices":[1,0,6,6,1,0,1,0,1,6,6,1,0,0,0,15,4,6,2,1,1,6,6,0,0,6,1,5,0,31,0,0,0,1,1,3,1,6,6,4,6,6,1,1,6,6,0,6,0,0,0,0,0,6,6,0,4,0,0,0,0,1,1,6,6,69,5,1,0,5,1,6,6,6,1,4,0,1,13,7,0,0,0,1,4,0,1,43,6,2,1,1,1,1,1,0,0,0,26,7,0,1,0,0,0,1,1,1,1,6,1,0,0,0,0,0,0,0,0,0,0,0,0,0,0,0,0,0,0,0,0,0,0,0,0,0,0,0,0,0,0,0,0,0,0,0,0,0,0,0,0,0,0,0,0,0,0,0,0,0,0,0,0,0,0,0,0,0,0,0,0],"split_type":[0,0,0,0,0,0,0,0,0,0,0,0,0,0,0,0,0,0,0,0,0,0,0,0,0,0,0,0,0,0,0,0,0,0,0,0,0,0,0,0,0,0,0,0,0,0,0,0,0,0,0,0,0,0,0,0,0,0,0,0,0,0,0,0,0,0,0,0,0,0,0,0,0,0,0,0,0,0,0,0,0,0,0,0,0,0,0,0,0,0,0,0,0,0,0,0,0,0,0,0,0,0,0,0,0,0,0,0,0,0,0,0,0,0,0,0,0,0,0,0,0,0,0,0,0,0,0,0,0,0,0,0,0,0,0,0,0,0,0,0,0,0,0,0,0,0,0,0,0,0,0,0,0,0,0,0,0,0,0,0,0,0,0,0,0,0,0,0,0,0,0],"sum_hessian":[1.712E3,1.466E3,2.46E2,2.32E2,1.234E3,1.5E2,9.6E1,5.4E1,1.78E2,8.13E2,4.21E2,7E0,1.43E2,7.6E1,2E1,2.8E1,2.6E1,1.57E2,2.1E1,7.02E2,1.11E2,2.34E2,1.87E2,4E0,3E0,8.7E1,5.6E1,4.2E1,3.4E1,1.9E1,9E0,2.3E1,3E0,1.44E2,1.3E1,1.1E1,1E1,2.57E2,4.45E2,3.2E1,7.9E1,5.5E1,1.79E2,9E1,9.7E1,4E1,4.7E1,4.4E1,1.2E1,2.7E1,1.5E1,1.6E1,3E0,3.7E1,1.07E2,3E0,1E1,1E1,1E0,9E0,1E0,1.64E2,9.3E1,1.03E2,3.42E2,1.5E1,1.7E1,3.4E1,4.5E1,1.2E1,4.3E1,1.16E2,6.3E1,1.8E1,7.2E1,8.6E1,1.1E1,1E1,3E1,2.3E1,2.1E1,7E0,3E1,8.2E1,2.5E1,7E0,3E0,4.9E1,1.15E2,1.9E1,7.4E1,3.7E1,6.6E1,2.54E2,8.8E1,1.2E1,3E0,3E0,1.4E1,1.6E1,1.8E1,3.3E1,1.2E1,4E0,8E0,2.2E1,2.1E1,4.6E1,7E1,3.6E1,2.7E1,7E0,1.1E1,5.1E1,2.1E1,1E0,8.5E1,7E0,3E0,1.9E1,1.1E1,8E0,1.5E1,1E0,2.9E1,6.6E1,1.6E1,1.3E1,1.2E1,2E0,1E0,4.4E1,5E0,5.9E1,5.6E1,3E0,1.6E1,3.7E1,3.7E1,2.4E1,1.3E1,3.8E1,2.8E1,1.36E2,1.18E2,4.5E1,4.3E1,2E0,1E1,9E0,5E0,6E0,1E1,8E0,2.5E1,1.1E1,1E0,9E0,1.3E1,1E1,1.1E1,3.2E1,1.4E1,4.3E1,2.7E1,1.7E1,1.9E1,7E0,2E1,2E0,5E0],"tree_param":{"num_deleted":"0","num_feature":"411","num_nodes":"171","size_leaf_vector":"1"}},{"base_weights":[-1.5900715E-3,-8.854543E-2,5.6362677E-1,-4.2958242E-1,-1.0340844E-2,3.160822E-1,9.2738974E-1,-5.8478767E-1,-3.4259087E-1,-7.177192E-2,1.1208642E-1,-3.594451E-1,3.4460956E-1,7.7559334E-1,7.137437E-2,-6.8922174E-1,-2.1881618E-1,-4.5758444E-1,-2.19784E-1,-1.5682638E-1,3.191038E-2,5.012672E-2,2.879513E-1,-2.2257406E-2,-6.2679686E-3,2.4902043E-1,4.805894E-1,2.5118852E-2,8.2186365E-1,-8.9179546E-1,-5.56695E-1,-2.7217505E-2,-8.908081E-3,-5.12558E-1,-1.6732495E-2,-3.0199724E-1,-9.830097E-2,-5.178916E-2,-1.483835E-1,-9.60567E-2,8.014255E-2,8.3243597E-4,2.4896075E-1,2.6095954E-1,2.5778888E-2,1.7686884E-1,1.6514424E-2,4.9822897E-1,6.9973767E-3,4.1402515E-2,1.1421263E-2,-5.040088E-2,-3.264157E-2,-3.237417E-2,-4.199685E-1,1.0695362E-1,-7.8300275E-3,-5.271841E-1,-1.4531053E-2,-3.654169E-1,-1.6190355E-1,-1.5371929E-1,4.6662245E-2,-3.1004712E-1,-1.2610513E-1,-1.9561326E-2,-7.619419E-2,1.305909E-2,1.256412E-1,-6.942554E-2,9.751586E-2,2.8348818E-2,2.090153E-1,2.2516495E-1,1.4253834E-2,5.911502E-2,2.0976365E-1,5.0649834E-1,2.3257495E-3,-2.2644317E-2,-7.930833E-3,7.544506E-3,1.4310479E-2,-5.3808033E-1,-1.2550682E-2,-1.3485729E-2,-4.0362185E-1,-1.0627351E-2,-5.5176714E-3,-9.575868E-3,-6.386223E-3,-5.7737487E-3,1.10740185E-1,-1.8534847E-2,-1.1756988E-2,-1.8698712E-1,-7.314331E-2,-1.5120122E-1,-4.5291487E-2,-1.3481109E-2,8.162831E-2,7.166557E-2,1.7734319E-1,-1.0220188E-1,-7.13833E-3,5.7804585E-2,1.3847874E-1,1.4390358E-1,1.246413E-2,9.034808E-3,1.4127343E-2,1.5243133E-2,9.31344E-2,5.23749E-3,1.0827362E-2,5.2207536E-1,1.003691E-2,9.4598933E-4,1.2063981E-5,-6.7931414E-3,-2.7160127E-2,-2.0635424E-2,-5.092895E-3,-1.1402686E-3,2.7999879E-4,6.141454E-3,1.5596151E-3,-1.253005E-2,-7.7474588E-3,-6.429492E-3,-1.7496443E-3,-8.677435E-3,-5.6892396E-3,-7.665433E-3,-1.4167026E-3,-3.0454786E-3,-6.109003E-5,2.5956668E-3,4.927711E-3,1.6681973E-3,5.2708345E-3,7.5464607E-3,1.0311854E-2,-6.4764223E-3,-2.116012E-3,-3.5184145E-3,8.824693E-4,1.6286304E-3,5.06211E-3,3.9726496E-3,7.879329E-3,3.3796933E-3,1.1050283E-2,2.0638705E-4,1.2491306E-3,2.0466724E-3,5.450076E-3,2.6711006E-2,8.496356E-3],"categories":[],"categories_nodes":[],"categories_segments":[],"categories_sizes":[],"default_left":[0,0,0,0,0,0,0,0,0,0,0,0,0,0,0,0,0,0,0,0,0,0,0,0,0,0,0,0,0,0,0,0,0,0,0,0,0,0,0,0,0,0,0,0,0,0,0,0,0,0,0,0,0,0,0,0,0,0,0,0,0,0,0,0,0,0,0,0,0,0,0,0,0,0,0,0,0,0,0,0,0,0,0,0,0,0,0,0,0,0,0,0,0,0,0,0,0,0,0,0,0,0,0,0,0,0,0,0,0,0,0,0,0,0,0,0,0,0,0,0,0,0,0,0,0,0,0,0,0,0,0,0,0,0,0,0,0,0,0,0,0,0,0,0,0,0,0,0,0,0,0,0,0,0,0,0,0,0,0],"id":6,"left_children":[1,3,5,7,9,11,13,15,17,19,21,23,25,27,-1,29,31,33,35,37,39,41,43,-1,-1,45,47,-1,49,51,53,-1,55,57,-1,59,61,-1,63,65,67,69,71,73,-1,75,-1,77,-1,-1,-1,-1,-1,-1,79,81,-1,83,-1,85,87,89,91,93,95,-1,97,99,101,103,105,-1,107,109,-1,111,113,115,-1,-1,-1,-1,117,119,-1,-1,121,-1,-1,-1,-1,123,125,-1,-1,127,129,131,133,135,137,139,141,143,145,147,149,151,-1,-1,-1,153,155,-1,-1,157,-1,-1,-1,-1,-1,-1,-1,-1,-1,-1,-1,-1,-1,-1,-1,-1,-1,-1,-1,-1,-1,-1,-1,-1,-1,-1,-1,-1,-1,-1,-1,-1,-1,-1,-1,-1,-1,-1,-1,-1,-1,-1,-1],"loss_changes":[8.3307686E1,3.917475E1,2.0057617E1,3.4990768E0,9.002968E0,2.7447233E0,5.800934E0,3.5565186E0,2.413147E0,7.033462E0,4.344179E0,6.4567566E-2,1.583086E0,4.973259E-1,0E0,1.517025E0,1.5667917E0,4.4346428E-1,8.4921455E-1,3.096673E0,2.2296653E0,2.9108028E0,5.044346E-1,0E0,0E0,4.0480804E-1,2.4873924E-1,0E0,3.1139374E-2,1.195755E-1,3.2390976E-1,0E0,2.734275E-1,4.4799805E-2,0E0,4.0284157E-1,3.0441672E-1,0E0,1.5275974E0,5.506093E-1,7.980374E-1,1.6302447E0,6.309867E-1,1.7820835E-2,0E0,1.5803325E-1,0E0,1.6320896E-1,0E0,0E0,0E0,0E0,0E0,0E0,1.1743355E-1,3.4474418E-2,0E0,3.345108E-2,0E0,1.9107819E-2,2.353689E-2,2.0675063E-3,3.759928E-2,1.4907694E-1,1.2245016E0,0E0,2.1103632E-1,1.9582339E-1,4.2263174E-1,2.8304547E-1,1.5629083E-1,0E0,1.0570836E-1,5.86679E-2,0E0,1.4997784E-2,1.5374422E-3,1.2857819E-1,0E0,0E0,0E0,0E0,2.5483203E-4,3.5391808E-2,0E0,0E0,2.1028757E-2,0E0,0E0,0E0,0E0,1.4837005E-3,9.769052E-4,0E0,0E0,3.2394361E-1,4.3336904E-1,2.829194E-3,1.2021133E-1,4.527791E-2,9.972304E-3,9.731528E-2,2.9165745E-2,1.4342701E-1,7.804095E-2,5.4791152E-2,4.274416E-2,1.2038505E-1,0E0,0E0,0E0,5.464271E-4,5.078614E-4,0E0,0E0,1.0595226E-1,0E0,0E0,0E0,0E0,0E0,0E0,0E0,0E0,0E0,0E0,0E0,0E0,0E0,0E0,0E0,0E0,0E0,0E0,0E0,0E0,0E0,0E0,0E0,0E0,0E0,0E0,0E0,0E0,0E0,0E0,0E0,0E0,0E0,0E0,0E0,0E0,0E0,0E0,0E0,0E0,0E0,0E0,0E0],"parents":[2147483647,0,0,1,1,2,2,3,3,4,4,5,5,6,6,7,7,8,8,9,9,10,10,11,11,12,12,13,13,15,15,16,16,17,17,18,18,19,19,20,20,21,21,22,22,25,25,26,26,28,28,29,29,30,30,32,32,33,33,35,35,36,36,38,38,39,39,40,40,41,41,42,42,43,43,45,45,47,47,54,54,55,55,57,57,59,59,60,60,61,61,62,62,63,63,64,64,66,66,67,67,68,68,69,69,70,70,72,72,73,73,75,75,76,76,77,77,82,82,83,83,86,86,91,91,92,92,95,95,96,96,97,97,98,98,99,99,100,100,101,101,102,102,103,103,104,104,105,105,106,106,107,107,111,111,112,112,115,115],"right_children":[2,4,6,8,10,12,14,16,18,20,22,24,26,28,-1,30,32,34,36,38,40,42,44,-1,-1,46,48,-1,50,52,54,-1,56,58,-1,60,62,-1,64,66,68,70,72,74,-1,76,-1,78,-1,-1,-1,-1,-1,-1,80,82,-1,84,-1,86,88,90,92,94,96,-1,98,100,102,104,106,-1,108,110,-1,112,114,116,-1,-1,-1,-1,118,120,-1,-1,122,-1,-1,-1,-1,124,126,-1,-1,128,130,132,134,136,138,140,142,144,146,148,150,152,-1,-1,-1,154,156,-1,-1,158,-1,-1,-1,-1,-1,-1,-1,-1,-1,-1,-1,-1,-1,-1,-1,-1,-1,-1,-1,-1,-1,-1,-1,-1,-1,-1,-1,-1,-1,-1,-1,-1,-1,-1,-1,-1,-1,-1,-1,-1,-1,-1,-1],"split_conditions":[1.0745601E2,4.7415672E1,2.7872341E1,2.8E1,2.7252747E1,1.1783468E0,2.5E2,6.297452E1,3.1010433E1,7.8E1,7.77606E1,1.57311E2,1.3380058E2,4.1026297E0,7.137437E-2,3.4507526E1,1.3630415E1,1.9697926E0,3.9201797E1,6.0240345E0,2.0006964E1,3.754583E1,3.6313892E1,-2.2257406E-2,-6.2679686E-3,2.2044231E1,1E0,2.5118852E-2,1E0,2.1379267E1,2.0526867E1,-2.7217505E-2,3E0,1E0,-1.6732495E-2,4.15625E1,3.6506283E1,-5.178916E-2,1.9503763E1,1.3440481E1,8.664233E1,6.186779E1,6.134393E0,8.561206E1,2.5778888E-2,1.8784424E1,1.6514424E-2,3.8875458E1,6.9973767E-3,4.1402515E-2,1.1421263E-2,-5.040088E-2,-3.264157E-2,-3.237417E-2,4.79875E1,7.5938144E0,-7.8300275E-3,1E0,-1.4531053E-2,7.58631E0,4.651456E1,3.2825256E1,8.5302305E0,6.891488E1,6.551651E1,-1.9561326E-2,8.591204E1,2.4105263E1,2.2857143E1,3.1978563E1,3.0473711E1,2.8348818E-2,5.601687E1,3.0961538E1,1.4253834E-2,1.8115942E1,1.1043908E2,1E0,2.3257495E-3,-2.2644317E-2,-7.930833E-3,7.544506E-3,1.6156303E1,6.602798E0,-1.2550682E-2,-1.3485729E-2,3.7998035E1,-1.0627351E-2,-5.5176714E-3,-9.575868E-3,-6.386223E-3,4.174783E1,1.0279828E0,-1.8534847E-2,-1.1756988E-2,5.601687E1,2.303854E1,1.8784424E1,1.6539408E1,2.1247934E1,2.501434E1,9.5E1,9.582245E1,5.601687E1,5.0981686E1,7.2047104E1,2.0116425E0,4.4047665E1,1.246413E-2,9.034808E-3,1.4127343E-2,3.6142716E0,1.09425835E2,5.23749E-3,1.0827362E-2,1E0,1.003691E-2,9.4598933E-4,1.2063981E-5,-6.7931414E-3,-2.7160127E-2,-2.0635424E-2,-5.092895E-3,-1.1402686E-3,2.7999879E-4,6.141454E-3,1.5596151E-3,-1.253005E-2,-7.7474588E-3,-6.429492E-3,-1.7496443E-3,-8.677435E-3,-5.6892396E-3,-7.665433E-3,-1.4167026E-3,-3.0454786E-3,-6.109003E-5,2.5956668E-3,4.927711E-3,1.6681973E-3,5.2708345E-3,7.5464607E-3,1.0311854E-2,-6.4764223E-3,-2.116012E-3,-3.5184145E-3,8.824693E-4,1.6286304E-3,5.06211E-3,3.9726496E-3,7.879329E-3,3.3796933E-3,1.1050283E-2,2.0638705E-4,1.2491306E-3,2.0466724E-3,5.450076E-3,2.6711006E-2,8.496356E-3],"split_indices":[1,1,6,1,6,0,1,6,6,1,1,1,1,0,0,6,1,0,1,6,6,6,6,0,0,6,212,0,166,1,1,0,2,105,0,6,6,0,6,6,1,1,4,1,0,6,0,7,0,0,0,0,0,0,6,4,0,205,0,4,5,6,4,1,1,0,1,6,6,6,6,0,1,6,0,6,1,257,0,0,0,0,1,4,0,0,1,0,0,0,0,1,0,0,0,1,6,6,6,6,6,1,1,1,1,1,0,6,0,0,0,0,1,0,0,157,0,0,0,0,0,0,0,0,0,0,0,0,0,0,0,0,0,0,0,0,0,0,0,0,0,0,0,0,0,0,0,0,0,0,0,0,0,0,0,0,0,0,0],"split_type":[0,0,0,0,0,0,0,0,0,0,0,0,0,0,0,0,0,0,0,0,0,0,0,0,0,0,0,0,0,0,0,0,0,0,0,0,0,0,0,0,0,0,0,0,0,0,0,0,0,0,0,0,0,0,0,0,0,0,0,0,0,0,0,0,0,0,0,0,0,0,0,0,0,0,0,0,0,0,0,0,0,0,0,0,0,0,0,0,0,0,0,0,0,0,0,0,0,0,0,0,0,0,0,0,0,0,0,0,0,0,0,0,0,0,0,0,0,0,0,0,0,0,0,0,0,0,0,0,0,0,0,0,0,0,0,0,0,0,0,0,0,0,0,0,0,0,0,0,0,0,0,0,0,0,0,0,0,0,0],"sum_hessian":[1.693E3,1.468E3,2.25E2,2.73E2,1.195E3,1.35E2,9E1,9.6E1,1.77E2,7.96E2,3.99E2,5E0,1.3E2,7.1E1,1.9E1,7.4E1,2.2E1,9E1,8.7E1,4.37E2,3.59E2,2.96E2,1.03E2,3E0,2E0,7.8E1,5.2E1,1.2E1,5.9E1,2.7E1,4.7E1,8E0,1.4E1,6E1,3E1,5.1E1,3.6E1,3E0,4.34E2,9.8E1,2.61E2,2.38E2,5.8E1,9.4E1,9E0,4.3E1,3.5E1,4.9E1,3E0,5.8E1,1E0,1.6E1,1.1E1,2.6E1,2.1E1,8E0,6E0,5.5E1,5E0,3.4E1,1.7E1,2.6E1,1E1,5.1E1,3.83E2,5E0,9.3E1,1.06E2,1.55E2,1.38E2,1E2,5E0,5.3E1,4.2E1,5.2E1,1E1,3.3E1,4.8E1,1E0,1.8E1,3E0,5E0,3E0,5.2E1,3E0,1.2E1,2.2E1,7E0,1E1,8E0,1.8E1,6E0,4E0,2.6E1,2.5E1,1.77E2,2.06E2,2.6E1,6.7E1,7.7E1,2.9E1,7.7E1,7.8E1,9E1,4.8E1,5.2E1,4.8E1,2.2E1,3.1E1,2.6E1,1.6E1,5E0,5E0,3E0,3E1,4.5E1,3E0,2E0,1E0,1E0,5.1E1,2.1E1,1E0,2E0,4E0,3E0,1E0,5.7E1,1.2E2,8.3E1,1.23E2,1.4E1,1.2E1,8E0,5.9E1,1.5E1,6.2E1,1.2E1,1.7E1,3.7E1,4E1,4.4E1,3.4E1,6.1E1,2.9E1,1.3E1,3.5E1,3.4E1,1.8E1,1.3E1,3.5E1,1.2E1,1E1,3E0,2E0,2E0,3E0,4.3E1,2E0],"tree_param":{"num_deleted":"0","num_feature":"411","num_nodes":"159","size_leaf_vector":"1"}},{"base_weights":[-1.1397407E-3,-8.3146796E-2,5.1789266E-1,-4.4393054E-1,-1.1972011E-2,8.7333405E-1,3.203958E-1,-6.530839E-1,-3.8104966E-1,-7.113922E-2,1.0511112E-1,7.62872E-1,7.0472375E-2,-2.731462E-1,3.509333E-1,-5.491018E-2,-5.8660793E-1,-4.3893155E-1,-9.237117E-2,-1.0758471E-1,1.4969924E-1,1.2380202E-2,2.3149203E-1,3.3951297E-2,4.449938E-2,-1.8360306E-2,-7.1634534E-3,2.7500352E-1,5.4337394E-1,-4.062589E-2,-4.563998E-1,-4.7268254E-1,1.1095484E-2,-1.8947503E-1,5.2946568E-2,-1.7322676E-1,-4.8341617E-2,-6.444702E-2,1.892859E-1,-6.1058827E-2,5.0638437E-2,2.1486777E-1,2.5804505E-2,2.0636891E-1,3.7467602E-1,2.3210982E-2,4.5727257E-2,-2.3281928E-2,-3.788042E-3,-6.1882305E-1,-3.5880566E-1,-2.076908E-2,1.3792905E-1,-1.1462971E-2,-1.1537642E-1,9.4971515E-2,-4.1692637E-2,-2.4024655E-1,-1.2267206E-1,-1.16558075E-1,3.742564E-2,-1.0266407E-1,1.5734196E-2,5.12482E-1,1.6292399E-1,-1.6578555E-1,-3.9241213E-2,1.6296715E-2,1.1711221E-1,1.5456727E-1,2.486797E-1,8.4258E-2,2.445223E-1,2.8961465E-1,4.624022E-1,-4.1929554E-2,-5.449115E-1,-4.4736356E-1,-1.9011243E-1,7.4314782E-3,1.0406136E-3,-6.1033815E-3,-1.5461684E-3,-2.0810247E-3,5.7386453E-3,-5.4363012E-2,2.2472143E-4,-1.9233981E-2,-2.1501341E-1,-2.63411E-1,-8.982856E-2,-1.9237393E-1,-7.6706745E-2,-1.0241395E-2,8.521607E-2,-6.199224E-3,-1.1848509E-3,1.1204481E-3,1.3207197E-3,3.3768576E-2,1.5612594E-2,8.579735E-2,2.1013033E-1,-3.5605729E-3,-9.255236E-3,-6.536062E-2,2.481649E-2,-1.1470847E-2,4.5352854E-2,8.3584614E-2,7.057407E-3,9.2769995E-2,1.7538866E-1,5.7771923E-3,1.2571784E-2,4.0960893E-2,5.909655E-3,2.0296596E-1,1.4513286E-2,7.08794E-3,1.5199325E-2,2.4390744E-2,8.213147E-3,-2.7674807E-2,-3.1066418E-3,-1.1456871E-2,-2.2999322E-2,-1.2316704E-2,-6.7911334E-3,-1.2385766E-3,-3.5784363E-3,-1.3399379E-2,-8.219997E-3,-1.4139311E-2,-5.970184E-3,-6.092492E-3,-1.8455972E-3,-1.1882899E-2,-7.672136E-3,-6.2051592E-3,-1.986924E-3,-2.72616E-3,1.5626978E-3,2.803296E-3,6.2788785E-3,2.7970475E-4,-3.075123E-4,1.1534542E-3,9.360157E-3,6.9243805E-3,1.2115365E-2,-5.3571644E-3,-2.5414254E-3,-4.114238E-5,2.4099892E-3,-1.1326347E-3,1.3198816E-3,1.1435994E-3,3.4358655E-3,2.7889253E-3,5.248057E-3,1.2265325E-3,4.7670547E-3,7.5601167E-3,1.0564393E-2,6.7696575E-4,2.6207566E-3,4.300475E-3,1.0422193E-2],"categories":[],"categories_nodes":[],"categories_segments":[],"categories_sizes":[],"default_left":[0,0,0,0,0,0,0,0,0,0,0,0,0,0,0,0,0,0,0,0,0,0,0,0,0,0,0,0,0,0,0,0,0,0,0,0,0,0,0,0,0,0,0,0,0,0,0,0,0,0,0,0,0,0,0,0,0,0,0,0,0,0,0,0,0,0,0,0,0,0,0,0,0,0,0,0,0,0,0,0,0,0,0,0,0,0,0,0,0,0,0,0,0,0,0,0,0,0,0,0,0,0,0,0,0,0,0,0,0,0,0,0,0,0,0,0,0,0,0,0,0,0,0,0,0,0,0,0,0,0,0,0,0,0,0,0,0,0,0,0,0,0,0,0,0,0,0,0,0,0,0,0,0,0,0,0,0,0,0,0,0,0,0,0,0,0,0,0,0],"id":7,"left_children":[1,3,5,7,9,11,13,15,17,19,21,23,-1,25,27,-1,29,31,33,35,37,39,41,-1,-1,-1,-1,43,45,-1,47,49,51,53,55,57,59,61,63,65,67,69,-1,71,73,-1,-1,-1,-1,75,77,-1,79,-1,81,83,85,87,89,91,93,95,97,99,101,103,105,107,109,111,113,115,117,119,121,-1,123,125,127,-1,-1,-1,-1,-1,-1,129,-1,-1,131,133,135,137,139,141,143,-1,-1,145,-1,-1,-1,147,149,-1,-1,151,153,155,157,159,-1,161,163,-1,-1,165,-1,167,-1,-1,-1,-1,-1,-1,-1,-1,-1,-1,-1,-1,-1,-1,-1,-1,-1,-1,-1,-1,-1,-1,-1,-1,-1,-1,-1,-1,-1,-1,-1,-1,-1,-1,-1,-1,-1,-1,-1,-1,-1,-1,-1,-1,-1,-1,-1,-1,-1,-1,-1],"loss_changes":[7.299831E1,3.802484E1,1.6146645E1,2.9601707E0,8.583699E0,3.8400497E0,2.8509016E0,9.8322296E-1,3.1342144E0,6.6400747E0,4.8724117E0,1.5240479E-1,0E0,4.5120597E-2,1.969307E0,0E0,1.0999317E0,2.4050808E0,4.756922E-1,2.7410345E0,1.0040472E0,6.802169E-1,7.218056E-1,0E0,0E0,0E0,0E0,6.478224E-1,7.506428E-1,0E0,8.42886E-2,2.2243423E0,7.063926E-1,3.2508194E-2,5.9640512E-2,1.1055632E0,2.186688E0,5.9836827E-2,7.5999117E-1,1.8314004E-1,3.6106047E-1,3.0409384E-1,0E0,2.822287E-1,1.7949057E-1,0E0,0E0,0E0,0E0,5.6637573E-1,1.1847763E0,0E0,9.438783E-3,0E0,1.3110936E-3,3.1824023E-2,3.1703683E-3,4.3845177E-1,8.6845326E-1,6.1368704E-1,3.790254E-1,1.8948883E-2,1.0629481E-3,1.7421603E-2,3.2057214E-1,1.2397736E-2,1.1874247E-1,8.604296E-2,3.171897E-2,6.479156E-2,9.840965E-3,2.0136662E-2,3.4231424E-2,7.9061985E-3,6.38237E-2,0E0,1.7283344E-1,4.6105385E-2,6.1162233E-2,0E0,0E0,0E0,0E0,0E0,0E0,2.63704E-4,0E0,0E0,2.884121E-1,6.668067E-2,2.6322663E-1,8.8703394E-2,2.3686707E-1,1.5605316E-1,9.061253E-2,0E0,0E0,1.645111E-4,0E0,0E0,0E0,2.3103875E-1,9.7842455E-2,0E0,0E0,2.4913594E-2,1.2629837E-2,2.3887148E-2,2.574145E-2,9.005383E-3,0E0,8.1934035E-4,7.993102E-3,0E0,0E0,2.1171737E-3,0E0,6.5147877E-4,0E0,0E0,0E0,0E0,0E0,0E0,0E0,0E0,0E0,0E0,0E0,0E0,0E0,0E0,0E0,0E0,0E0,0E0,0E0,0E0,0E0,0E0,0E0,0E0,0E0,0E0,0E0,0E0,0E0,0E0,0E0,0E0,0E0,0E0,0E0,0E0,0E0,0E0,0E0,0E0,0E0,0E0,0E0,0E0,0E0,0E0,0E0,0E0,0E0,0E0,0E0],"parents":[2147483647,0,0,1,1,2,2,3,3,4,4,5,5,6,6,7,7,8,8,9,9,10,10,11,11,13,13,14,14,16,16,17,17,18,18,19,19,20,20,21,21,22,22,27,27,28,28,30,30,31,31,32,32,33,33,34,34,35,35,36,36,37,37,38,38,39,39,40,40,41,41,43,43,44,44,49,49,50,50,52,52,54,54,55,55,56,56,57,57,58,58,59,59,60,60,61,61,62,62,63,63,64,64,65,65,66,66,67,67,68,68,69,69,70,70,71,71,72,72,73,73,74,74,76,76,77,77,78,78,85,85,88,88,89,89,90,90,91,91,92,92,93,93,94,94,97,97,101,101,102,102,105,105,106,106,107,107,108,108,109,109,111,111,112,112,115,115,117,117],"right_children":[2,4,6,8,10,12,14,16,18,20,22,24,-1,26,28,-1,30,32,34,36,38,40,42,-1,-1,-1,-1,44,46,-1,48,50,52,54,56,58,60,62,64,66,68,70,-1,72,74,-1,-1,-1,-1,76,78,-1,80,-1,82,84,86,88,90,92,94,96,98,100,102,104,106,108,110,112,114,116,118,120,122,-1,124,126,128,-1,-1,-1,-1,-1,-1,130,-1,-1,132,134,136,138,140,142,144,-1,-1,146,-1,-1,-1,148,150,-1,-1,152,154,156,158,160,-1,162,164,-1,-1,166,-1,168,-1,-1,-1,-1,-1,-1,-1,-1,-1,-1,-1,-1,-1,-1,-1,-1,-1,-1,-1,-1,-1,-1,-1,-1,-1,-1,-1,-1,-1,-1,-1,-1,-1,-1,-1,-1,-1,-1,-1,-1,-1,-1,-1,-1,-1,-1,-1,-1,-1,-1,-1],"split_conditions":[1.0745601E2,1.7168576E0,4.674273E1,2.4587687E1,8.059906E1,2.6278326E2,1.1783468E0,6.6194854E0,3.7E1,3.3951218E1,2.436541E1,1.75E2,7.0472375E-2,1.5054819E2,2.5183447E1,-5.491018E-2,3.597347E1,8.136372E1,4E1,6.397764E1,4.7415672E1,2.0006964E1,3.6313892E1,3.3951297E-2,4.449938E-2,-1.8360306E-2,-7.1634534E-3,4.7451344E0,5.914751E0,-4.062589E-2,2.36567E1,2.4232746E1,1.195181E1,1E0,2E0,2.6134268E1,2.421169E1,7.586732E0,6.134393E0,1.7346945E1,9.3323685E1,2.6574366E1,2.5804505E-2,1.9678394E1,1.691236E2,2.3210982E-2,4.5727257E-2,-2.3281928E-2,-3.788042E-3,3.4507526E1,3.8938877E1,-2.076908E-2,1.0374863E0,-1.1462971E-2,5.279374E1,8.5841805E-1,6.9160484E1,2.0181343E1,4.7415672E1,2.1247934E1,2.6666666E1,1E0,4.211188E1,5.2E1,5.5345158E1,4.7417603E1,9.995508E1,2.2286606E1,2.214047E1,8.8E1,8.122563E1,1.1513202E2,2.2044231E1,1.8676407E1,1E0,-4.1929554E-2,1E0,4.653777E1,4.5152805E1,7.4314782E-3,1.0406136E-3,-6.1033815E-3,-1.5461684E-3,-2.0810247E-3,5.7386453E-3,1.1783468E0,2.2472143E-4,-1.9233981E-2,5.7E1,3.1978563E1,5.7628784E1,1.889554E1,7.3E1,7.296291E1,7.323504E1,-6.199224E-3,-1.1848509E-3,4.5671047E1,1.3207197E-3,3.3768576E-2,1.5612594E-2,4.211188E1,3.6742065E1,-3.5605729E-3,-9.255236E-3,8.664233E1,1.8784424E1,9.099495E1,8.561206E1,9.941146E1,7.057407E-3,2.8419497E0,9.657644E1,5.7771923E-3,1.2571784E-2,1.7619047E1,5.909655E-3,1.1043908E2,1.4513286E-2,7.08794E-3,1.5199325E-2,2.4390744E-2,8.213147E-3,-2.7674807E-2,-3.1066418E-3,-1.1456871E-2,-2.2999322E-2,-1.2316704E-2,-6.7911334E-3,-1.2385766E-3,-3.5784363E-3,-1.3399379E-2,-8.219997E-3,-1.4139311E-2,-5.970184E-3,-6.092492E-3,-1.8455972E-3,-1.1882899E-2,-7.672136E-3,-6.2051592E-3,-1.986924E-3,-2.72616E-3,1.5626978E-3,2.803296E-3,6.2788785E-3,2.7970475E-4,-3.075123E-4,1.1534542E-3,9.360157E-3,6.9243805E-3,1.2115365E-2,-5.3571644E-3,-2.5414254E-3,-4.114238E-5,2.4099892E-3,-1.1326347E-3,1.3198816E-3,1.1435994E-3,3.4358655E-3,2.7889253E-3,5.248057E-3,1.2265325E-3,4.7670547E-3,7.5601167E-3,1.0564393E-2,6.7696575E-4,2.6207566E-3,4.300475E-3,1.0422193E-2],"split_indices":[1,0,5,6,1,1,0,4,1,6,6,1,0,1,6,0,1,6,7,1,1,6,6,0,0,0,0,0,0,0,6,1,1,44,2,6,6,4,4,6,1,6,0,6,1,0,0,0,0,6,6,0,0,0,1,0,1,6,1,6,6,69,6,1,1,5,1,6,6,1,1,1,6,6,40,0,17,5,6,0,0,0,0,0,0,0,0,0,1,6,1,6,1,1,1,0,0,1,0,0,0,6,6,0,0,1,6,1,1,1,0,0,1,0,0,6,0,1,0,0,0,0,0,0,0,0,0,0,0,0,0,0,0,0,0,0,0,0,0,0,0,0,0,0,0,0,0,0,0,0,0,0,0,0,0,0,0,0,0,0,0,0,0,0,0,0,0,0,0],"split_type":[0,0,0,0,0,0,0,0,0,0,0,0,0,0,0,0,0,0,0,0,0,0,0,0,0,0,0,0,0,0,0,0,0,0,0,0,0,0,0,0,0,0,0,0,0,0,0,0,0,0,0,0,0,0,0,0,0,0,0,0,0,0,0,0,0,0,0,0,0,0,0,0,0,0,0,0,0,0,0,0,0,0,0,0,0,0,0,0,0,0,0,0,0,0,0,0,0,0,0,0,0,0,0,0,0,0,0,0,0,0,0,0,0,0,0,0,0,0,0,0,0,0,0,0,0,0,0,0,0,0,0,0,0,0,0,0,0,0,0,0,0,0,0,0,0,0,0,0,0,0,0,0,0,0,0,0,0,0,0,0,0,0,0,0,0,0,0,0,0],"sum_hessian":[1.713E3,1.48E3,2.33E2,2.43E2,1.237E3,8.2E1,1.51E2,5.4E1,1.89E2,8.22E2,4.15E2,7E1,1.2E1,7E0,1.44E2,5E0,4.9E1,1.57E2,3.2E1,7.06E2,1.16E2,2.4E2,1.75E2,4.6E1,2.4E1,3E0,4E0,1.05E2,3.9E1,1.6E1,3.3E1,1.46E2,1.1E1,1.9E1,1.3E1,3.34E2,3.72E2,1.8E1,9.8E1,8.2E1,1.58E2,1.67E2,8E0,6.4E1,4.1E1,3.4E1,5E0,3.2E1,1E0,6.2E1,8.4E1,2E0,9E0,1.1E1,8E0,9E0,4E0,1.42E2,1.92E2,2.07E2,1.65E2,1.2E1,6E0,6E0,9.2E1,1.3E1,6.9E1,1.05E2,5.3E1,6.2E1,1.05E2,1.6E1,4.8E1,2.3E1,1.8E1,1.3E1,4.9E1,5.4E1,3E1,8E0,1E0,7E0,1E0,1E0,8E0,3E0,1E0,1.9E1,1.23E2,3.5E1,1.57E2,7E1,1.37E2,8.3E1,8.2E1,9E0,3E0,3E0,3E0,2E0,4E0,3.6E1,5.6E1,3E0,1E1,4.9E1,2E1,5.4E1,5.1E1,2.4E1,2.9E1,1.7E1,4.5E1,3E0,1.02E2,8E0,8E0,2.8E1,2E1,3E0,2E1,1.6E1,2E0,4.8E1,1E0,4E0,5E1,1.3E1,1.7E1,2E0,1E0,5.8E1,6.5E1,3E1,5E0,9.7E1,6E1,3E1,4E1,5.9E1,7.8E1,4E1,4.3E1,4.9E1,3.3E1,2E0,1E0,2.3E1,1.3E1,1.9E1,3.7E1,1.1E1,3.8E1,1E1,1E1,4.2E1,1.2E1,2.7E1,2.4E1,1.2E1,1.2E1,1E0,1.6E1,3E1,1.5E1,3E0,5E0,2E0,2.6E1],"tree_param":{"num_deleted":"0","num_feature":"411","num_nodes":"169","size_leaf_vector":"1"}},{"base_weights":[4.268678E-3,-7.781095E-2,4.8742458E-1,-4.108544E-1,-1.196055E-2,2.8071702E-1,8.0418146E-1,-5.708398E-1,-3.178051E-1,-6.705286E-2,1.0257806E-1,-2.9470348E-1,3.107354E-1,6.737117E-1,6.091707E-2,-9.331003E-1,-4.760614E-1,-3.5203156E-1,2.2828769E-2,-1.0329461E-1,1.2996922E-1,1.2586329E-2,2.2536564E-1,-2.0874208E-2,-6.876912E-3,2.2345164E-1,4.7035986E-1,2.2257878E-2,7.181408E-1,-5.4514553E-2,-2.3160107E-2,-5.9252983E-1,-2.6431543E-1,-5.3083974E-1,-2.559582E-1,-1.937375E-2,1.15758196E-1,-1.6854817E-1,-5.0790355E-2,1.0920571E-1,3.7316836E-2,-5.2550044E-2,5.1399812E-2,2.0580651E-1,2.4202004E-2,8.037088E-2,2.605349E-1,3.9857218E-1,3.220096E-2,3.6401685E-2,1.4045127E-2,-3.9597344E-2,-2.4800811E-2,-3.6670777E-1,-8.2044035E-2,-5.885336E-1,-2.5274977E-1,-3.050604E-1,-5.87672E-4,7.2951554E-3,1.145637E-2,-2.6935568E-1,-1.4005989E-1,-1.6030593E-1,-1.9726558E-3,-4.340181E-2,1.5785442E-1,-7.3629715E-3,-3.6695875E-2,1.6203031E-2,1.0976106E-1,1.4224185E-1,2.3249331E-1,3.4757398E-2,5.933896E-3,2.0188528E-1,2.951483E-1,2.6745263E-1,4.5605624E-1,-1.9019684E-2,-3.6933422E-3,-8.202088E-3,1.3627688E-2,-3.080417E-2,-1.6716452E-2,-5.070317E-3,-1.5156232E-2,-2.2540404E-1,-2.0075776E-2,-8.331781E-2,4.6278597E-3,1.0146023E-3,1.7471313E-3,-3.0388016E-1,-8.307114E-3,-2.2705017E-1,-9.756115E-2,-2.0592509E-1,-1.19238846E-1,-4.6377804E-2,5.5732943E-2,-9.639053E-2,4.8529547E-2,9.708676E-2,2.1784933E-1,-6.724515E-2,6.456122E-3,-5.025234E-3,4.463624E-2,8.424076E-2,7.1526193E-3,4.241451E-3,8.030894E-3,2.0920105E-1,1.3372122E-2,3.4650564E-3,2.3029447E-3,6.2438557E-3,1.0768608E-2,7.3854565E-3,1.510814E-2,9.1921715E-3,1.6239922E-2,5.6033256E-3,2.3285987E-2,-1.2337399E-3,5.128503E-3,-1.2219383E-2,-4.371878E-3,-4.4145556E-3,-1.0882855E-3,1.4528037E-4,-1.424551E-5,-1.4006781E-2,-2.0316398E-2,-1.6216952E-2,-9.757145E-3,-6.5646814E-3,-3.0908082E-3,-1.3427583E-2,-9.110127E-3,-8.241109E-3,-3.7729114E-3,-4.9651507E-3,-8.931832E-4,1.0128239E-3,5.143314E-3,-1.0001692E-2,-3.688081E-3,7.5588464E-3,6.441188E-4,1.6598791E-3,7.6163644E-3,6.6718212E-3,1.2148922E-2,-3.6229405E-3,1.50311E-4,-1.4876638E-3,1.6398467E-3,-8.0032693E-4,1.4997335E-3,1.4029135E-3,3.1209204E-3,2.3198572E-3,4.546602E-3,7.3880004E-3,1.1902253E-2,4.2735736E-4,-2.945304E-4],"categories":[],"categories_nodes":[],"categories_segments":[],"categories_sizes":[],"default_left":[0,0,0,0,0,0,0,0,0,0,0,0,0,0,0,0,0,0,0,0,0,0,0,0,0,0,0,0,0,0,0,0,0,0,0,0,0,0,0,0,0,0,0,0,0,0,0,0,0,0,0,0,0,0,0,0,0,0,0,0,0,0,0,0,0,0,0,0,0,0,0,0,0,0,0,0,0,0,0,0,0,0,0,0,0,0,0,0,0,0,0,0,0,0,0,0,0,0,0,0,0,0,0,0,0,0,0,0,0,0,0,0,0,0,0,0,0,0,0,0,0,0,0,0,0,0,0,0,0,0,0,0,0,0,0,0,0,0,0,0,0,0,0,0,0,0,0,0,0,0,0,0,0,0,0,0,0,0,0,0,0,0,0,0,0,0,0,0,0],"id":8,"left_children":[1,3,5,7,9,11,13,15,17,19,21,23,25,27,-1,29,31,33,35,37,39,41,43,-1,-1,45,47,-1,49,-1,-1,51,53,55,57,-1,59,61,63,65,-1,67,69,71,-1,73,75,77,-1,-1,-1,-1,-1,79,81,83,85,87,89,-1,91,93,95,97,99,101,103,-1,105,107,109,111,113,115,-1,117,119,121,123,-1,-1,-1,125,-1,-1,-1,-1,127,-1,129,-1,-1,131,133,-1,135,137,139,141,143,145,147,149,151,153,155,157,159,161,163,-1,-1,-1,165,-1,167,-1,-1,-1,-1,-1,-1,-1,-1,-1,-1,-1,-1,-1,-1,-1,-1,-1,-1,-1,-1,-1,-1,-1,-1,-1,-1,-1,-1,-1,-1,-1,-1,-1,-1,-1,-1,-1,-1,-1,-1,-1,-1,-1,-1,-1,-1,-1,-1,-1,-1,-1,-1,-1],"loss_changes":[6.745527E1,3.1882824E1,1.5946835E1,3.3913536E0,7.673767E0,2.6998272E0,4.420616E0,2.5428848E0,1.8034744E0,5.8757143E0,4.3618608E0,9.695476E-2,1.9011955E0,4.5204926E-1,0E0,7.506561E-1,1.594368E0,2.269146E0,6.1679286E-1,2.3691454E0,1.556634E0,5.816519E-1,7.453089E-1,0E0,0E0,4.831214E-1,3.66642E-1,0E0,6.367493E-2,0E0,0E0,4.7327232E-1,4.7381997E-1,6.2136364E-1,1.1659718E0,0E0,3.920269E-2,8.4967136E-1,2.063355E0,9.3487096E-1,0E0,1.2372851E-1,2.9401597E-1,2.3325491E-1,0E0,3.2568738E-2,9.266901E-2,1.6444397E-1,0E0,0E0,0E0,0E0,0E0,4.0034056E-2,8.852901E-2,6.715298E-2,4.550028E-2,5.0879097E-1,1.3100585E-1,0E0,3.076978E-4,1.8825912E-1,8.76214E-1,1.9838548E-1,6.893148E-1,1.5568885E-1,3.2519603E-1,0E0,9.930379E-2,5.5150785E-2,3.382784E-2,3.8071036E-2,3.27816E-2,3.730557E-3,0E0,5.3015947E-3,1.9073486E-3,7.4127913E-3,3.0911446E-2,0E0,0E0,0E0,2.297118E-2,0E0,0E0,0E0,0E0,9.649086E-2,0E0,8.3333626E-4,0E0,0E0,7.890052E-6,5.3691864E-3,0E0,1.8194103E-1,1.9083524E-1,3.2780647E-2,1.1728114E-1,2.2761184E-1,1.9355479E-1,3.2151878E-2,4.196155E-2,1.678774E-1,6.7275286E-2,1.633358E-2,3.149694E-2,2.0862017E-2,9.745538E-3,4.137352E-3,0E0,0E0,0E0,8.8881016E-2,0E0,2.4053323E-4,0E0,0E0,0E0,0E0,0E0,0E0,0E0,0E0,0E0,0E0,0E0,0E0,0E0,0E0,0E0,0E0,0E0,0E0,0E0,0E0,0E0,0E0,0E0,0E0,0E0,0E0,0E0,0E0,0E0,0E0,0E0,0E0,0E0,0E0,0E0,0E0,0E0,0E0,0E0,0E0,0E0,0E0,0E0,0E0,0E0,0E0,0E0,0E0,0E0,0E0,0E0,0E0,0E0],"parents":[2147483647,0,0,1,1,2,2,3,3,4,4,5,5,6,6,7,7,8,8,9,9,10,10,11,11,12,12,13,13,15,15,16,16,17,17,18,18,19,19,20,20,21,21,22,22,25,25,26,26,28,28,31,31,32,32,33,33,34,34,36,36,37,37,38,38,39,39,41,41,42,42,43,43,45,45,46,46,47,47,53,53,54,54,55,55,56,56,57,57,58,58,60,60,61,61,62,62,63,63,64,64,65,65,66,66,68,68,69,69,70,70,71,71,72,72,73,73,75,75,76,76,77,77,78,78,82,82,87,87,89,89,92,92,93,93,95,95,96,96,97,97,98,98,99,99,100,100,101,101,102,102,103,103,104,104,105,105,106,106,107,107,108,108,109,109,113,113,115,115],"right_children":[2,4,6,8,10,12,14,16,18,20,22,24,26,28,-1,30,32,34,36,38,40,42,44,-1,-1,46,48,-1,50,-1,-1,52,54,56,58,-1,60,62,64,66,-1,68,70,72,-1,74,76,78,-1,-1,-1,-1,-1,80,82,84,86,88,90,-1,92,94,96,98,100,102,104,-1,106,108,110,112,114,116,-1,118,120,122,124,-1,-1,-1,126,-1,-1,-1,-1,128,-1,130,-1,-1,132,134,-1,136,138,140,142,144,146,148,150,152,154,156,158,160,162,164,-1,-1,-1,166,-1,168,-1,-1,-1,-1,-1,-1,-1,-1,-1,-1,-1,-1,-1,-1,-1,-1,-1,-1,-1,-1,-1,-1,-1,-1,-1,-1,-1,-1,-1,-1,-1,-1,-1,-1,-1,-1,-1,-1,-1,-1,-1,-1,-1,-1,-1,-1,-1,-1,-1,-1,-1,-1,-1],"split_conditions":[1.0745601E2,1.7168576E0,2.7411242E1,2.9353952E1,8.122563E1,1.1783468E0,2.2917308E2,4.693121E1,8.136372E1,3.3125E1,2.428791E1,1.57311E2,5.3972945E0,4.4092155E0,6.091707E-2,1E0,4.3179237E1,2.4232746E1,1.195181E1,6.3557785E1,6.297452E1,2.0006964E1,3.6313892E1,-2.0874208E-2,-6.876912E-3,1.9678394E1,2.2917308E2,2.2257878E-2,1E0,-5.4514553E-2,-2.3160107E-2,2.7203798E1,2.4721802E1,1E0,1E0,-1.937375E-2,7.5938144E0,4.9350872E1,2.2338184E1,4.9350872E1,3.7316836E-2,1.6539408E1,9.363784E1,2.6110186E1,2.4202004E-2,1.1513202E2,2.1748577E1,1.9317173E1,3.220096E-2,3.6401685E-2,1.4045127E-2,-3.9597344E-2,-2.4800811E-2,1.4993932E0,5.562121E1,1.1783468E0,1E0,1E0,3.7998035E1,7.2951554E-3,1.5E1,2.9540882E1,2.501434E1,2.0006964E1,2.541096E1,7.586732E0,3.7898914E1,-7.3629715E-3,9.6E1,2.2286606E1,2.2690832E1,8.8E1,2.9540882E1,3.6142716E0,5.933896E-3,1.1658258E2,1.12724075E2,1E0,1.2639915E2,-1.9019684E-2,-3.6933422E-3,-8.202088E-3,7.296291E1,-3.080417E-2,-1.6716452E-2,-5.070317E-3,-1.5156232E-2,4.174783E1,-2.0075776E-2,1.5069458E0,4.6278597E-3,1.0146023E-3,1.0279828E0,1E0,-8.307114E-3,2.1133053E1,2.8693876E1,7.135189E1,7.2047104E1,7.135189E1,7.323504E1,3.0652992E1,4.729562E1,6.1394688E1,5.321518E1,1E0,1.8253796E1,3.6479073E0,8.664233E1,4.6938213E1,7.1526193E-3,4.241451E-3,8.030894E-3,8.9E1,1.3372122E-2,3.5270317E0,2.3029447E-3,6.2438557E-3,1.0768608E-2,7.3854565E-3,1.510814E-2,9.1921715E-3,1.6239922E-2,5.6033256E-3,2.3285987E-2,-1.2337399E-3,5.128503E-3,-1.2219383E-2,-4.371878E-3,-4.4145556E-3,-1.0882855E-3,1.4528037E-4,-1.424551E-5,-1.4006781E-2,-2.0316398E-2,-1.6216952E-2,-9.757145E-3,-6.5646814E-3,-3.0908082E-3,-1.3427583E-2,-9.110127E-3,-8.241109E-3,-3.7729114E-3,-4.9651507E-3,-8.931832E-4,1.0128239E-3,5.143314E-3,-1.0001692E-2,-3.688081E-3,7.5588464E-3,6.441188E-4,1.6598791E-3,7.6163644E-3,6.6718212E-3,1.2148922E-2,-3.6229405E-3,1.50311E-4,-1.4876638E-3,1.6398467E-3,-8.0032693E-4,1.4997335E-3,1.4029135E-3,3.1209204E-3,2.3198572E-3,4.546602E-3,7.3880004E-3,1.1902253E-2,4.2735736E-4,-2.945304E-4],"split_indices":[1,0,6,6,1,0,1,5,6,6,6,1,0,0,0,15,1,1,1,1,6,6,6,0,0,6,1,0,166,0,0,1,6,179,384,0,4,1,6,1,0,6,1,6,0,1,6,6,0,0,0,0,0,0,1,0,3,31,1,0,1,6,6,6,6,4,6,0,1,6,6,1,6,0,0,1,1,25,1,0,0,0,1,0,0,0,0,1,0,0,0,0,0,43,0,6,6,1,1,1,1,1,5,1,1,118,6,0,1,5,0,0,0,1,0,0,0,0,0,0,0,0,0,0,0,0,0,0,0,0,0,0,0,0,0,0,0,0,0,0,0,0,0,0,0,0,0,0,0,0,0,0,0,0,0,0,0,0,0,0,0,0,0,0,0,0,0,0,0],"split_type":[0,0,0,0,0,0,0,0,0,0,0,0,0,0,0,0,0,0,0,0,0,0,0,0,0,0,0,0,0,0,0,0,0,0,0,0,0,0,0,0,0,0,0,0,0,0,0,0,0,0,0,0,0,0,0,0,0,0,0,0,0,0,0,0,0,0,0,0,0,0,0,0,0,0,0,0,0,0,0,0,0,0,0,0,0,0,0,0,0,0,0,0,0,0,0,0,0,0,0,0,0,0,0,0,0,0,0,0,0,0,0,0,0,0,0,0,0,0,0,0,0,0,0,0,0,0,0,0,0,0,0,0,0,0,0,0,0,0,0,0,0,0,0,0,0,0,0,0,0,0,0,0,0,0,0,0,0,0,0,0,0,0,0,0,0,0,0,0,0],"sum_hessian":[1.699E3,1.453E3,2.46E2,2.39E2,1.214E3,1.5E2,9.6E1,8.6E1,1.53E2,8.2E2,3.94E2,7E0,1.43E2,7.5E1,2.1E1,1.6E1,7E1,1.39E2,1.4E1,6.93E2,1.27E2,2.28E2,1.66E2,3E0,4E0,9.4E1,4.9E1,1.4E1,6.1E1,1.1E1,5E0,4.4E1,2.6E1,4.7E1,9.2E1,2E0,1.2E1,3.08E2,3.85E2,1.24E2,3E0,8.5E1,1.43E2,1.56E2,1E1,2E1,7.4E1,3.7E1,1.2E1,5.9E1,2E0,1.2E1,3.2E1,1.6E1,1E1,3.8E1,9E0,7.7E1,1.5E1,9E0,3E0,6.6E1,2.42E2,1.18E2,2.67E2,3E1,9.4E1,1.1E1,7.4E1,9E1,5.3E1,4.8E1,1.08E2,1E1,1E1,3E1,4.4E1,1.3E1,2.4E1,1.5E1,1E0,5E0,5E0,3.3E1,5E0,3E0,6E0,4.4E1,3.3E1,8E0,7E0,1E0,2E0,4.8E1,1.8E1,7.8E1,1.64E2,5.4E1,6.4E1,1.51E2,1.16E2,1.9E1,1.1E1,4.8E1,4.6E1,4.3E1,3.1E1,5.2E1,3.8E1,3.2E1,2.1E1,1.3E1,3.5E1,6.9E1,3.9E1,3E0,7E0,6E0,2.4E1,3E0,4.1E1,7E0,6E0,1E0,2.3E1,4E0,1E0,3.8E1,6E0,7E0,1E0,1E0,1E0,4.2E1,6E0,1.7E1,6.1E1,8.3E1,8.1E1,1.2E1,4.2E1,3E1,3.4E1,5.2E1,9.9E1,6.7E1,4.9E1,2E0,1.7E1,2E0,9E0,2.3E1,2.5E1,1.2E1,3.4E1,4E1,3E0,1.3E1,1.8E1,4E1,1.2E1,2.1E1,1.7E1,6E0,2.6E1,2.4E1,4.5E1,2E0,1E0],"tree_param":{"num_deleted":"0","num_feature":"411","num_nodes":"169","size_leaf_vector":"1"}},{"base_weights":[2.7133075E-3,-7.1299955E-2,4.6038204E-1,-3.5506082E-1,-5.6075663E-3,2.6295435E-1,7.622492E-1,-4.8667523E-1,-2.839613E-1,-5.7608716E-2,1.0221103E-1,-3.0024496E-1,2.8981158E-1,6.43406E-1,6.2435504E-2,-5.587968E-1,-3.4637723E-2,-3.8683093E-1,-1.9301139E-1,-1.3403822E-1,2.85796E-2,3.7770215E-2,2.3650458E-1,-2.0091433E-2,-6.1800005E-3,2.1947291E-1,4.1165504E-1,2.6614884E-2,3.860266E-2,-4.2810008E-2,-4.8387375E-1,-2.1444095E-2,1.1187267E-1,-4.7491932E-1,-2.9795894E-1,-2.770833E-1,-9.767779E-2,-4.478253E-2,-1.2642941E-1,-4.6696547E-2,8.63222E-2,7.368824E-3,2.6211053E-1,2.136086E-1,1.9432079E-2,7.6689586E-2,2.5212052E-1,2.4233525E-1,4.6001995E-1,-4.9760416E-1,-7.160926E-3,7.4119987E-3,1.116991E-2,-2.4213595E-2,-9.907349E-3,-1.3476764E-2,-2.048467E-2,-1.7713923E-2,-1.892311E-1,-1.5176077E-1,1.6593039E-2,-2.855351E-1,-1.0930366E-1,-1.4379446E-1,-1.4998051E-2,2.2478677E-2,1.3057747E-1,-4.6349324E-2,7.523424E-2,2.1522354E-1,3.139906E-2,1.7007563E-1,2.4338594E-1,2.9126486E-2,5.591371E-3,2.0697062E-1,1.4461803E-2,1.613634E-2,8.537356E-3,4.9458894E-1,1.3644189E-2,-5.037411E-3,-5.08781E-1,9.892344E-4,1.7034212E-3,-1.1206031E-2,-5.549791E-3,-1.9717312E-1,-5.515582E-3,-1.9596934E-2,1.00130364E-1,-1.670003E-2,-1.071945E-2,-1.9551003E-1,-7.7280805E-2,-1.6560292E-2,-1.1377081E-1,-5.510091E-2,2.5993532E-2,-1.1298926E-2,4.8375636E-2,8.288386E-2,1.5825333E-1,-8.698329E-2,1.355944E-2,4.5425188E-2,1.452618E-1,2.265831E-1,2.0623207E-3,1.3759533E-1,1.1321827E-2,7.6392977E-3,1.2599132E-2,1.6756058E-3,1.8365112E-3,5.912586E-3,1.0873277E-2,2.5839055E-2,1.1057228E-2,-2.6813943E-2,-1.8809853E-2,1.4164449E-4,-1.3887882E-5,-1.0183754E-2,-2.8161884E-3,-1.9883055E-3,3.5999616E-4,5.5224E-3,1.4714956E-3,-1.0996751E-2,-7.690308E-3,-5.2388115E-3,-1.9274846E-3,-3.7834893E-3,-7.5951577E-3,-3.987539E-3,-1.7199107E-3,-7.421675E-4,2.289654E-3,-1.1884322E-3,4.0559174E-4,1.6314939E-3,3.6174362E-3,3.0787482E-3,5.9059593E-3,7.0218975E-3,1.01448E-2,-5.426781E-3,-1.8906518E-3,-1.8626966E-3,1.467014E-3,1.3852415E-3,3.645744E-3,3.0827343E-3,7.613398E-3,1.155434E-2,2.7371764E-3,3.9208694E-3,7.2681094E-3,4.128337E-4,-2.8716328E-4],"categories":[],"categories_nodes":[],"categories_segments":[],"categories_sizes":[],"default_left":[0,0,0,0,0,0,0,0,0,0,0,0,0,0,0,0,0,0,0,0,0,0,0,0,0,0,0,0,0,0,0,0,0,0,0,0,0,0,0,0,0,0,0,0,0,0,0,0,0,0,0,0,0,0,0,0,0,0,0,0,0,0,0,0,0,0,0,0,0,0,0,0,0,0,0,0,0,0,0,0,0,0,0,0,0,0,0,0,0,0,0,0,0,0,0,0,0,0,0,0,0,0,0,0,0,0,0,0,0,0,0,0,0,0,0,0,0,0,0,0,0,0,0,0,0,0,0,0,0,0,0,0,0,0,0,0,0,0,0,0,0,0,0,0,0,0,0,0,0,0,0,0,0,0,0,0,0,0,0,0,0],"id":9,"left_children":[1,3,5,7,9,11,13,15,17,19,21,23,25,27,-1,29,31,33,35,37,39,41,43,-1,-1,45,47,-1,-1,-1,49,-1,51,53,55,57,59,-1,61,63,65,67,69,71,-1,73,75,77,79,81,-1,-1,83,-1,-1,-1,-1,-1,85,87,89,91,93,95,97,99,101,103,105,107,-1,109,111,113,-1,115,-1,-1,-1,117,-1,-1,119,-1,121,-1,-1,123,-1,125,127,-1,-1,129,131,-1,133,135,137,139,141,143,145,147,149,151,153,155,-1,157,-1,-1,-1,159,-1,-1,-1,-1,-1,-1,-1,-1,-1,-1,-1,-1,-1,-1,-1,-1,-1,-1,-1,-1,-1,-1,-1,-1,-1,-1,-1,-1,-1,-1,-1,-1,-1,-1,-1,-1,-1,-1,-1,-1,-1,-1,-1,-1,-1,-1,-1],"loss_changes":[5.6940403E1,2.6971436E1,1.3745247E1,2.4071007E0,6.599357E0,2.2500296E0,4.5153275E0,3.0452003E0,1.6000576E0,5.234172E0,3.3055434E0,7.594371E-2,1.083785E0,6.7536736E-1,0E0,1.3905792E0,8.566323E-1,5.082655E-1,7.503784E-1,2.326447E0,1.6296747E0,1.7713355E0,3.489151E-1,0E0,0E0,3.955407E-1,2.8978825E-1,0E0,0E0,0E0,2.4211693E-1,0E0,3.862934E-2,7.584572E-3,2.9313087E-2,2.7882957E-1,2.9298317E-1,0E0,1.107758E0,4.9953422E-1,5.9605205E-1,8.419761E-1,3.966353E-1,1.0119915E-1,0E0,2.6825622E-2,6.079197E-2,1.9711375E-2,1.04391575E-1,2.3262024E-1,0E0,0E0,2.925052E-4,0E0,0E0,0E0,0E0,0E0,4.6092868E-2,3.8483262E-2,5.0333664E-2,6.631899E-2,1.0311489E0,1.873895E-1,2.0527333E-1,7.752347E-2,1.518786E-1,3.1520814E-1,2.063219E-1,4.7966957E-2,0E0,5.6713104E-2,1.056838E-2,1.8170178E-3,0E0,7.803917E-3,0E0,0E0,0E0,6.776619E-2,0E0,0E0,2.4290085E-2,0E0,7.4998934E-6,0E0,0E0,1.3493896E-3,0E0,6.771959E-3,3.9683282E-4,0E0,0E0,7.007146E-2,2.9201102E-1,0E0,4.0809214E-2,2.9406816E-2,5.080994E-2,9.632628E-3,1.6512983E-2,2.8766453E-2,3.3541083E-2,7.7495396E-2,4.3592557E-2,3.3540174E-2,8.18491E-3,8.2451105E-3,0E0,3.768742E-3,0E0,0E0,0E0,1.9389254E-4,0E0,0E0,0E0,0E0,0E0,0E0,0E0,0E0,0E0,0E0,0E0,0E0,0E0,0E0,0E0,0E0,0E0,0E0,0E0,0E0,0E0,0E0,0E0,0E0,0E0,0E0,0E0,0E0,0E0,0E0,0E0,0E0,0E0,0E0,0E0,0E0,0E0,0E0,0E0,0E0,0E0,0E0,0E0,0E0,0E0,0E0,0E0],"parents":[2147483647,0,0,1,1,2,2,3,3,4,4,5,5,6,6,7,7,8,8,9,9,10,10,11,11,12,12,13,13,15,15,16,16,17,17,18,18,19,19,20,20,21,21,22,22,25,25,26,26,30,30,32,32,33,33,34,34,35,35,36,36,38,38,39,39,40,40,41,41,42,42,43,43,45,45,46,46,47,47,48,48,49,49,52,52,58,58,59,59,60,60,61,61,62,62,63,63,64,64,65,65,66,66,67,67,68,68,69,69,71,71,72,72,73,73,75,75,79,79,82,82,84,84,87,87,89,89,90,90,93,93,94,94,96,96,97,97,98,98,99,99,100,100,101,101,102,102,103,103,104,104,105,105,106,106,107,107,109,109,113,113],"right_children":[2,4,6,8,10,12,14,16,18,20,22,24,26,28,-1,30,32,34,36,38,40,42,44,-1,-1,46,48,-1,-1,-1,50,-1,52,54,56,58,60,-1,62,64,66,68,70,72,-1,74,76,78,80,82,-1,-1,84,-1,-1,-1,-1,-1,86,88,90,92,94,96,98,100,102,104,106,108,-1,110,112,114,-1,116,-1,-1,-1,118,-1,-1,120,-1,122,-1,-1,124,-1,126,128,-1,-1,130,132,-1,134,136,138,140,142,144,146,148,150,152,154,156,-1,158,-1,-1,-1,160,-1,-1,-1,-1,-1,-1,-1,-1,-1,-1,-1,-1,-1,-1,-1,-1,-1,-1,-1,-1,-1,-1,-1,-1,-1,-1,-1,-1,-1,-1,-1,-1,-1,-1,-1,-1,-1,-1,-1,-1,-1,-1,-1,-1,-1,-1,-1],"split_conditions":[1.0745601E2,4.81021E1,2.7872341E1,2.8E1,2.7252747E1,1.1783468E0,2.5E2,8.136372E1,2.9540882E1,7.8E1,7.5E1,1.57311E2,5.3972945E0,5.914751E0,6.2435504E-2,3.021733E1,1.195181E1,1.7168576E0,3.3691032E1,6.0240345E0,2.1490408E1,4.15625E1,3.4639427E1,-2.0091433E-2,-6.1800005E-3,1.9503763E1,2.5417261E1,2.6614884E-2,3.860266E-2,-4.2810008E-2,1E0,-2.1444095E-2,7.5938144E0,1E0,1E0,3.754583E1,3.6506283E1,-4.478253E-2,1.9350649E1,1.8E1,8.607833E1,6.1101315E1,6.297452E1,8.431468E1,1.9432079E-2,1.1513202E2,2.2464664E1,4.6938587E1,9.281763E0,4.651456E1,-7.160926E-3,7.4119987E-3,1.5E1,-2.4213595E-2,-9.907349E-3,-1.3476764E-2,-2.048467E-2,-1.7713923E-2,4.5152805E1,4.3179237E1,8.5302305E0,6.718228E1,5.9642315E1,1.3440481E1,9.180837E1,2.303854E1,2.3172318E1,3.1978563E1,3.227306E1,1E0,3.139906E-2,3.0961538E1,2.0247395E1,3.6142716E0,5.591371E-3,1.1658258E2,1.4461803E-2,1.613634E-2,8.537356E-3,1E0,1.3644189E-2,-5.037411E-3,1.1783468E0,9.892344E-4,1.0279828E0,-1.1206031E-2,-5.549791E-3,4.7539104E1,-5.515582E-3,4.174783E1,1.0279828E0,-1.670003E-2,-1.071945E-2,2.5579916E1,7.2518394E1,-1.6560292E-2,4.7488853E1,8.431468E1,1.9317173E1,8.218681E1,2.4524265E1,9.700501E1,9.941146E1,5.601687E1,4.9969116E1,6.8634285E1,4.62029E1,1E0,2.0623207E-3,2.8156435E1,1.1321827E-2,7.6392977E-3,1.2599132E-2,3.5270317E0,1.8365112E-3,5.912586E-3,1.0873277E-2,2.5839055E-2,1.1057228E-2,-2.6813943E-2,-1.8809853E-2,1.4164449E-4,-1.3887882E-5,-1.0183754E-2,-2.8161884E-3,-1.9883055E-3,3.5999616E-4,5.5224E-3,1.4714956E-3,-1.0996751E-2,-7.690308E-3,-5.2388115E-3,-1.9274846E-3,-3.7834893E-3,-7.5951577E-3,-3.987539E-3,-1.7199107E-3,-7.421675E-4,2.289654E-3,-1.1884322E-3,4.0559174E-4,1.6314939E-3,3.6174362E-3,3.0787482E-3,5.9059593E-3,7.0218975E-3,1.01448E-2,-5.426781E-3,-1.8906518E-3,-1.8626966E-3,1.467014E-3,1.3852415E-3,3.645744E-3,3.0827343E-3,7.613398E-3,1.155434E-2,2.7371764E-3,3.9208694E-3,7.2681094E-3,4.128337E-4,-2.8716328E-4],"split_indices":[1,1,6,1,6,0,1,6,6,1,1,1,0,0,0,6,1,0,1,6,6,6,6,0,0,6,7,0,0,0,17,0,4,105,43,6,6,0,6,6,1,1,6,1,0,1,6,5,4,5,0,0,1,0,0,0,0,0,6,1,4,1,1,6,1,6,6,6,6,189,0,6,7,0,0,1,0,0,0,18,0,0,0,0,0,0,0,5,0,1,0,0,0,6,1,0,5,1,6,1,6,1,1,1,1,1,5,94,0,6,0,0,0,0,0,0,0,0,0,0,0,0,0,0,0,0,0,0,0,0,0,0,0,0,0,0,0,0,0,0,0,0,0,0,0,0,0,0,0,0,0,0,0,0,0,0,0,0,0,0,0],"split_type":[0,0,0,0,0,0,0,0,0,0,0,0,0,0,0,0,0,0,0,0,0,0,0,0,0,0,0,0,0,0,0,0,0,0,0,0,0,0,0,0,0,0,0,0,0,0,0,0,0,0,0,0,0,0,0,0,0,0,0,0,0,0,0,0,0,0,0,0,0,0,0,0,0,0,0,0,0,0,0,0,0,0,0,0,0,0,0,0,0,0,0,0,0,0,0,0,0,0,0,0,0,0,0,0,0,0,0,0,0,0,0,0,0,0,0,0,0,0,0,0,0,0,0,0,0,0,0,0,0,0,0,0,0,0,0,0,0,0,0,0,0,0,0,0,0,0,0,0,0,0,0,0,0,0,0,0,0,0,0,0,0],"sum_hessian":[1.679E3,1.446E3,2.33E2,2.71E2,1.175E3,1.42E2,9.1E1,9.3E1,1.78E2,7.93E2,3.82E2,6E0,1.36E2,7.5E1,1.6E1,8E1,1.3E1,8.2E1,9.6E1,4.2E2,3.73E2,2.59E2,1.23E2,3E0,3E0,8.8E1,4.8E1,4.3E1,3.2E1,1.4E1,6.6E1,3E0,1E1,3.9E1,4.3E1,5E1,4.6E1,3E0,4.17E2,1.62E2,2.11E2,2.29E2,3E1,1.09E2,1.4E1,1.7E1,7.1E1,1.2E1,3.6E1,6.3E1,3E0,7E0,3E0,3.7E1,2E0,3.7E1,6E0,2.5E1,2.5E1,3.1E1,1.5E1,3.9E1,3.78E2,3.9E1,1.23E2,8.7E1,1.24E2,1.28E2,1.01E2,2.8E1,2E0,4.7E1,6.2E1,8E0,9E0,3.5E1,3.6E1,4E0,8E0,2.9E1,7E0,2E0,6.1E1,1E0,2E0,1.6E1,9E0,1.3E1,1.8E1,1.1E1,4E0,2.1E1,1.8E1,1.01E2,2.77E2,4E0,3.5E1,6.2E1,6.1E1,3.8E1,4.9E1,4.7E1,7.7E1,7.6E1,5.2E1,7.2E1,2.9E1,2.6E1,2E0,3.2E1,1.5E1,7E0,5.5E1,2E0,6E0,5E0,3E1,2.6E1,3E0,4.8E1,1.3E1,1E0,1E0,1.2E1,1E0,6E0,5E0,3E0,1E0,6.1E1,4E1,1.61E2,1.16E2,1.9E1,1.6E1,2.7E1,3.5E1,2E1,4.1E1,2.3E1,1.5E1,3.1E1,1.8E1,3.1E1,1.6E1,5.8E1,1.9E1,5.2E1,2.4E1,1.2E1,4E1,4.5E1,2.7E1,3E0,2.6E1,2.5E1,1E0,5E0,2.7E1,1E0,1E0],"tree_param":{"num_deleted":"0","num_feature":"411","num_nodes":"161","size_leaf_vector":"1"}},{"base_weights":[6.647276E-3,-4.632693E-2,6.067153E-1,-3.6178613E-1,1.08028175E-2,5.164391E-1,5.8742523E-2,-4.8539698E-1,-2.8865504E-1,-5.8261015E-2,1.2796275E-1,6.629317E-1,3.6388177E-1,-6.470344E-1,-3.6415958E-1,-2.596671E-2,-2.3693286E-1,-8.928351E-2,1.15287215E-1,6.0625322E-2,2.70882E-1,3.0159086E-2,4.258332E-2,2.5306007E-1,4.0438712E-1,-7.514822E-1,-4.0443584E-1,-3.8535288E-1,5.5224258E-3,-3.0261755E-1,-5.0297346E-2,-1.4306688E-1,-3.6157656E-2,5.228994E-1,8.691591E-2,3.654283E-2,2.0285381E-1,2.3423907E-1,5.2276844E-1,1.4331268E-2,7.728655E-3,4.1420355E-1,6.7716837E-3,-8.5421085E-1,-2.1962423E-2,-2.4616176E-2,-1.6535091E-1,-4.0442294E-1,-6.4941645E-2,-4.1993612E-1,-1.8870012E-1,2.0724773E-2,-1.8223162E-1,-1.8149087E-1,-7.773924E-2,-9.4757155E-2,3.9201684E-2,3.4739982E-2,1.4039965E-2,-4.3670937E-2,1.3341436E-1,-2.4597973E-2,7.9016626E-2,1.6385496E-1,1.2937443E-2,2.0615384E-1,1.7952709E-2,1.6488032E-2,3.3174973E-2,4.2063415E-1,3.924489E-3,-4.436574E-2,-8.1137065E-3,-6.3083175E-4,-1.0019016E-2,-4.1658077E-1,-4.3623927E-3,2.9813053E-4,-4.5281965E-3,-2.1739734E-2,-1.0705428E-2,-2.3761798E-1,-3.4957007E-2,9.654914E-2,-8.750181E-2,-1.1654626E-2,-6.3832314E-3,-1.5463731E-2,-1.6491792E-1,-1.3656208E-1,-1.591047E-2,-1.5643169E-1,-5.807469E-2,1.1641937E-2,8.959973E-2,-8.607018E-2,2.491797E-2,8.401955E-2,1.961965E-1,-6.030865E-2,2.8736532E-2,2.8171143E-2,1.10524185E-1,8.4691895E-3,2.7895689E-3,1.8316732E-1,1.2087274E-2,1.0642576E-2,2.1586433E-2,-2.1237453E-2,-1.4294029E-3,-9.910228E-3,-1.5637921E-2,-4.176585E-3,2.9734422E-3,6.5625645E-3,-1.1509538E-3,-1.3542175E-5,-4.8582028E-3,-1.1177382E-2,-6.0839145E-3,-1.2435434E-2,-5.5046026E-3,-2.1024605E-3,1.0065879E-3,-8.877016E-3,-6.3188123E-3,-5.390571E-3,-1.6115265E-3,-1.0958791E-3,2.4194154E-3,1.7158112E-3,5.6714388E-3,-9.294764E-3,-3.2325492E-3,5.4031373E-3,4.4920048E-4,1.278105E-3,7.4359546E-3,1.0230205E-2,3.6790431E-3,-6.445627E-3,-1.98153E-3,-1.396294E-3,2.7669207E-3,1.336354E-4,3.2451611E-3,4.0148105E-3,6.904823E-3,7.871917E-3,1.2030265E-2],"categories":[],"categories_nodes":[],"categories_segments":[],"categories_sizes":[],"default_left":[0,0,0,0,0,0,0,0,0,0,0,0,0,0,0,0,0,0,0,0,0,0,0,0,0,0,0,0,0,0,0,0,0,0,0,0,0,0,0,0,0,0,0,0,0,0,0,0,0,0,0,0,0,0,0,0,0,0,0,0,0,0,0,0,0,0,0,0,0,0,0,0,0,0,0,0,0,0,0,0,0,0,0,0,0,0,0,0,0,0,0,0,0,0,0,0,0,0,0,0,0,0,0,0,0,0,0,0,0,0,0,0,0,0,0,0,0,0,0,0,0,0,0,0,0,0,0,0,0,0,0,0,0,0,0,0,0,0,0,0,0,0,0,0,0,0,0,0,0,0,0],"id":10,"left_children":[1,3,5,7,9,11,-1,13,15,17,19,21,23,25,27,-1,29,31,33,35,37,-1,-1,39,41,43,45,47,-1,49,51,53,55,57,59,61,63,65,67,-1,-1,69,-1,71,-1,-1,73,75,77,79,81,83,85,87,89,91,93,-1,-1,95,97,99,101,103,-1,105,-1,-1,-1,107,-1,-1,-1,-1,-1,109,-1,-1,-1,-1,-1,111,113,115,117,-1,-1,-1,119,121,123,125,127,129,131,133,135,137,139,141,143,145,147,-1,-1,149,-1,-1,-1,-1,-1,-1,-1,-1,-1,-1,-1,-1,-1,-1,-1,-1,-1,-1,-1,-1,-1,-1,-1,-1,-1,-1,-1,-1,-1,-1,-1,-1,-1,-1,-1,-1,-1,-1,-1,-1,-1,-1,-1,-1,-1],"loss_changes":[5.368647E1,2.7974215E1,6.4198685E0,2.0113583E0,1.0647797E1,2.4405937E0,0E0,1.4692726E0,1.6904984E0,4.4681625E0,4.6799994E0,1.6290283E-1,1.7148685E-1,6.0827255E-1,5.656042E-1,0E0,1.5294251E0,2.0034995E0,1.4116771E0,1.1331843E0,1.3174038E0,0E0,0E0,1.850462E-2,5.7430267E-2,3.94598E-1,1.9175768E-1,2.792487E-1,0E0,1.1636686E0,3.2236525E-1,8.6193323E-1,1.5714016E0,1.3783741E-1,7.284045E-1,7.446519E-1,6.2235236E-2,4.0973377E-1,2.9728556E-1,0E0,0E0,5.5497646E-2,0E0,2.4540997E-1,0E0,0E0,2.4222836E-2,1.4489365E-1,7.806912E-3,4.4529915E-2,3.602121E-1,1.9719109E-1,3.5462677E-3,4.1278362E-1,4.742669E-1,4.4339E-1,2.1563426E-1,0E0,0E0,9.520446E-2,2.5641358E-1,2.2647719E-1,2.6762736E-1,9.071231E-3,0E0,4.9804688E-2,0E0,0E0,0E0,3.1471252E-4,0E0,0E0,0E0,0E0,0E0,1.3047361E-1,0E0,0E0,0E0,0E0,0E0,4.758668E-2,6.4594716E-2,6.1111122E-2,8.402154E-3,0E0,0E0,0E0,4.6968412E-1,1.7151022E-1,6.208291E-2,2.4510741E-2,1.5977153E-1,1.2684599E-1,6.856197E-2,3.0745164E-2,1.6251896E-2,1.8908912E-1,2.4119258E-2,9.5611334E-2,7.389705E-2,6.1642833E-2,7.559049E-2,0E0,0E0,7.147813E-2,0E0,0E0,0E0,0E0,0E0,0E0,0E0,0E0,0E0,0E0,0E0,0E0,0E0,0E0,0E0,0E0,0E0,0E0,0E0,0E0,0E0,0E0,0E0,0E0,0E0,0E0,0E0,0E0,0E0,0E0,0E0,0E0,0E0,0E0,0E0,0E0,0E0,0E0,0E0,0E0,0E0,0E0,0E0,0E0,0E0],"parents":[2147483647,0,0,1,1,2,2,3,3,4,4,5,5,7,7,8,8,9,9,10,10,11,11,12,12,13,13,14,14,16,16,17,17,18,18,19,19,20,20,23,23,24,24,25,25,26,26,27,27,29,29,30,30,31,31,32,32,33,33,34,34,35,35,36,36,37,37,38,38,41,41,43,43,46,46,47,47,48,48,49,49,50,50,51,51,52,52,53,53,54,54,55,55,56,56,59,59,60,60,61,61,62,62,63,63,65,65,69,69,75,75,81,81,82,82,83,83,84,84,88,88,89,89,90,90,91,91,92,92,93,93,94,94,95,95,96,96,97,97,98,98,99,99,100,100,101,101,102,102,105,105],"right_children":[2,4,6,8,10,12,-1,14,16,18,20,22,24,26,28,-1,30,32,34,36,38,-1,-1,40,42,44,46,48,-1,50,52,54,56,58,60,62,64,66,68,-1,-1,70,-1,72,-1,-1,74,76,78,80,82,84,86,88,90,92,94,-1,-1,96,98,100,102,104,-1,106,-1,-1,-1,108,-1,-1,-1,-1,-1,110,-1,-1,-1,-1,-1,112,114,116,118,-1,-1,-1,120,122,124,126,128,130,132,134,136,138,140,142,144,146,148,-1,-1,150,-1,-1,-1,-1,-1,-1,-1,-1,-1,-1,-1,-1,-1,-1,-1,-1,-1,-1,-1,-1,-1,-1,-1,-1,-1,-1,-1,-1,-1,-1,-1,-1,-1,-1,-1,-1,-1,-1,-1,-1,-1,-1,-1,-1,-1],"split_conditions":[4.7451344E0,1.7168576E0,5.118243E1,2.9353952E1,8.122563E1,4.674273E1,5.8742523E-2,1.0374863E0,1.6E1,3.3125E1,2.5909304E1,3.244614E1,2.5417261E1,1E0,1E0,-2.596671E-2,4.9111225E1,6.502205E1,6.134393E0,1.1513202E2,3.4639427E1,3.0159086E-2,4.258332E-2,8.302841E0,1E0,1E0,4.3179237E1,1E0,5.5224258E-3,3E1,1E0,2.8156435E1,2.4051395E1,5.2E1,4.9969116E1,2.0757998E1,2.2044231E1,1.0362573E2,2.92E1,1.4331268E-2,7.728655E-3,1E0,6.7716837E-3,1E0,-2.1962423E-2,-2.4616176E-2,6.9160484E1,1E0,1.0801078E0,1E0,4.174783E1,2E0,1.0279828E0,2.1133053E1,5.4090836E1,2.1318962E1,2.822013E1,3.4739982E-2,1.4039965E-2,7.586732E0,3.7898914E1,9.747938E1,8.9E1,1.2834976E2,1.2937443E-2,9.3E1,1.7952709E-2,1.6488032E-2,3.3174973E-2,7.2690525E0,3.924489E-3,-4.436574E-2,-8.1137065E-3,-6.3083175E-4,-1.0019016E-2,1E0,-4.3623927E-3,2.9813053E-4,-4.5281965E-3,-2.1739734E-2,-1.0705428E-2,1E0,5.4090836E1,8.533073E0,1.9E1,-1.1654626E-2,-6.3832314E-3,-1.5463731E-2,5.562121E1,4.3179237E1,3.0612246E1,7.582946E1,7.3E1,7.4E1,6.767753E1,3.0652992E1,4.729562E1,6.1394688E1,1E0,1.7936508E1,1.7936508E1,2.35664E1,2.2857143E1,8.4691895E-3,2.7895689E-3,3.0837595E1,1.2087274E-2,1.0642576E-2,2.1586433E-2,-2.1237453E-2,-1.4294029E-3,-9.910228E-3,-1.5637921E-2,-4.176585E-3,2.9734422E-3,6.5625645E-3,-1.1509538E-3,-1.3542175E-5,-4.8582028E-3,-1.1177382E-2,-6.0839145E-3,-1.2435434E-2,-5.5046026E-3,-2.1024605E-3,1.0065879E-3,-8.877016E-3,-6.3188123E-3,-5.390571E-3,-1.6115265E-3,-1.0958791E-3,2.4194154E-3,1.7158112E-3,5.6714388E-3,-9.294764E-3,-3.2325492E-3,5.4031373E-3,4.4920048E-4,1.278105E-3,7.4359546E-3,1.0230205E-2,3.6790431E-3,-6.445627E-3,-1.98153E-3,-1.396294E-3,2.7669207E-3,1.336354E-4,3.2451611E-3,4.0148105E-3,6.904823E-3,7.871917E-3,1.2030265E-2],"split_indices":[0,0,6,6,1,5,0,0,7,6,6,7,7,3,23,0,6,1,4,1,6,0,0,4,157,15,1,152,0,1,3,6,6,1,1,6,6,1,7,0,0,212,0,31,0,0,1,204,0,17,1,2,0,6,1,6,6,0,0,4,6,1,1,1,0,1,0,0,0,4,0,0,0,0,0,35,0,0,0,0,0,31,1,4,1,0,0,0,1,1,6,1,1,1,1,1,5,1,94,6,6,6,6,0,0,6,0,0,0,0,0,0,0,0,0,0,0,0,0,0,0,0,0,0,0,0,0,0,0,0,0,0,0,0,0,0,0,0,0,0,0,0,0,0,0,0,0,0,0,0,0],"split_type":[0,0,0,0,0,0,0,0,0,0,0,0,0,0,0,0,0,0,0,0,0,0,0,0,0,0,0,0,0,0,0,0,0,0,0,0,0,0,0,0,0,0,0,0,0,0,0,0,0,0,0,0,0,0,0,0,0,0,0,0,0,0,0,0,0,0,0,0,0,0,0,0,0,0,0,0,0,0,0,0,0,0,0,0,0,0,0,0,0,0,0,0,0,0,0,0,0,0,0,0,0,0,0,0,0,0,0,0,0,0,0,0,0,0,0,0,0,0,0,0,0,0,0,0,0,0,0,0,0,0,0,0,0,0,0,0,0,0,0,0,0,0,0,0,0,0,0,0,0,0,0],"sum_hessian":[1.687E3,1.551E3,1.36E2,2.37E2,1.314E3,1.19E2,1.7E1,8.6E1,1.51E2,8.27E2,4.87E2,5.9E1,6E1,3.5E1,5.1E1,2.6E1,1.25E2,7.02E2,1.25E2,3.32E2,1.55E2,4.8E1,1.1E1,1.8E1,4.2E1,2.3E1,1.2E1,4.9E1,2E0,9.2E1,3.3E1,3.48E2,3.54E2,7E0,1.18E2,2.85E2,4.7E1,1.37E2,1.8E1,1.2E1,6E0,4E1,2E0,1.6E1,7E0,8E0,4E0,4.6E1,3E0,4.4E1,4.8E1,2.2E1,1.1E1,2.18E2,1.3E2,1.99E2,1.55E2,3E0,4E0,3.1E1,8.7E1,1.17E2,1.68E2,3E1,1.7E1,1.14E2,2.3E1,9E0,9E0,3.9E1,1E0,1.5E1,1E0,1E0,3E0,4.4E1,2E0,1E0,2E0,4E1,4E0,3.6E1,1.2E1,1.3E1,9E0,4E0,7E0,2.3E1,1.95E2,6.6E1,6.4E1,7.3E1,1.26E2,1.01E2,5.4E1,1.9E1,1.2E1,5E1,3.7E1,7E1,4.7E1,6.5E1,1.03E2,2.8E1,2E0,7.3E1,4.1E1,3E0,3.6E1,4.3E1,1E0,2.6E1,1E1,8E0,4E0,1E1,3E0,1E0,8E0,8.1E1,1.14E2,1.1E1,5.5E1,3.7E1,2.7E1,4E1,3.3E1,4.2E1,8.4E1,5.3E1,4.8E1,1.7E1,3.7E1,2E0,1.7E1,1E0,1.1E1,2.7E1,2.3E1,3.4E1,3E0,1.5E1,5.5E1,1.5E1,3.2E1,3.9E1,