{"learner":{"attributes":{"scikit_learn":"{\"_estimator_type\": \"regressor\"}"},"feature_names":[],"feature_types":[],"gradient_booster":{"model":{"gbtree_model_param":{"num_parallel_tree":"1","num_trees":"200"},"iteration_indptr":[0,1,2,3,4,5,6,7,8,9,10,11,12,13,14,15,16,17,18,19,20,21,22,23,24,25,26,27,28,29,30,31,32,33,34,35,36,37,38,39,40,41,42,43,44,45,46,47,48,49,50,51,52,53,54,55,56,57,58,59,60,61,62,63,64,65,66,67,68,69,70,71,72,73,74,75,76,77,78,79,80,81,82,83,84,85,86,87,88,89,90,91,92,93,94,95,96,97,98,99,100,101,102,103,104,105,106,107,108,109,110,111,112,113,114,115,116,117,118,119,120,121,122,123,124,125,126,127,128,129,130,131,132,133,134,135,136,137,138,139,140,141,142,143,144,145,146,147,148,149,150,151,152,153,154,155,156,157,158,159,160,161,162,163,164,165,166,167,168,169,170,171,172,173,174,175,176,177,178,179,180,181,182,183,184,185,186,187,188,189,190,191,192,193,194,195,196,197,198,199,200],"tree_info":[0,0,0,0,0,0,0,0,0,0,0,0,0,0,0,0,0,0,0,0,0,0,0,0,0,0,0,0,0,0,0,0,0,0,0,0,0,0,0,0,0,0,0,0,0,0,0,0,0,0,0,0,0,0,0,0,0,0,0,0,0,0,0,0,0,0,0,0,0,0,0,0,0,0,0,0,0,0,0,0,0,0,0,0,0,0,0,0,0,0,0,0,0,0,0,0,0,0,0,0,0,0,0,0,0,0,0,0,0,0,0,0,0,0,0,0,0,0,0,0,0,0,0,0,0,0,0,0,0,0,0,0,0,0,0,0,0,0,0,0,0,0,0,0,0,0,0,0,0,0,0,0,0,0,0,0,0,0,0,0,0,0,0,0,0,0,0,0,0,0,0,0,0,0,0,0,0,0,0,0,0,0,0,0,0,0,0,0,0,0,0,0,0,0,0,0,0,0,0,0],"trees":[{"base_weights":[3.77858E-3,-4.1483837E-1,1.3509297E-1,-9.015468E-1,-3.055631E-2,-2.7553388E-1,2.4626288E-1,-1.7795981E0,-7.5161195E-1,-1.499939E-1,1.9323481E-2,-6.5772027E-1,-1.6456451E-2,1.4391598E-1,3.558494E-1,-9.251162E-2,-2.1533871E-2,-5.4184586E-2,-6.101494E-1,-4.910444E-1,-3.7315246E-2,-1.0816765E0,-4.0384924E-1,-4.0898708E-1,1.739327E-1,-5.1577594E-2,3.0955917E-1,1.9049598E-1,3.79759E-1,-6.240758E-1,-5.9476853E-3,-2.5504777E-2,-8.454323E-4,-1.162441E-1,1.3150653E-1,-6.0834315E-2,-2.4818389E-2,-4.6955568E-1,-1.2932721E-2,-1.0094464E0,-1.9179285E-1,2.3615757E-1,-4.507904E-2,-2.3577839E-1,3.427938E-2,2.6307136E-1,5.4260814E-1,-8.595835E-2,2.4677612E-1,3.6028716E-1,2.403163E-2,-3.2632485E-2,-1.5316541E-2,-2.0470047E-1,-8.3013374E-4,-5.8661974E-3,2.5876337E-1,-2.4074456E-2,-3.9821626E-3,-3.408274E-2,-8.259969E-2,-2.9065073E-1,1.8757964E-2,1.1846183E-1,3.4911484E-1,-1.7336118E-1,8.883798E-2,-3.0346188E-1,-1.2115436E-1,-1.4580711E-2,1.22368984E-1,1.8821E-1,3.172843E-1,2.3152312E-2,3.6532007E-2,-4.984236E-3,-9.000301E-5,1.8830222E-1,1.6798696E-2,3.202776E-1,2.1091886E-2,-1.4042613E-1,-1.3406321E-2,-6.876482E-2,2.563503E-2,7.845719E-3,-1.5416861E-2,2.4304152E-3,1.3611281E-2,-2.3324529E-2,-1.1989665E-1,4.930584E-2,1.7421654E-1,1.0453286E-2,1.9116871E-2,-9.272079E-3,-2.2199631E-3,1.098806E-2,8.570035E-3,-1.5660075E-2,-6.0572308E-3,-8.779649E-3,-7.930231E-2,-5.041179E-2,3.697047E-2,3.76084E-2,1.7982097E-1,7.103725E-2,2.4502043E-1,3.2756436E-1,8.310999E-3,1.989174E-3,9.68695E-3,2.4266654E-1,1.86461E-2,-3.9160866E-3,-8.359055E-3,-1.6356827E-3,-4.3812394E-3,-2.7010177E-4,2.5502443E-3,8.2466606E-4,-3.1498272E-4,-1.5823841E-3,-4.288537E-4,-8.830993E-3,1.26014715E-2,2.7119876E-3,-2.475262E-4,5.154403E-3,1.0113907E-2,2.2268295E-3,-1.0273695E-3,-4.1841115E-3,-7.7807903E-4,8.204287E-4,-3.78839E-3,-1.5274525E-3,3.433816E-3,3.0324936E-3,-3.5310586E-4,6.3379565E-3,1.1529499E-2,-3.6757786E-4,4.799661E-3,7.267038E-3,1.2755389E-2,1.6769882E-2,7.775955E-3,-4.1635038E-4,1.2373439E-2],"categories":[],"categories_nodes":[],"categories_segments":[],"categories_sizes":[],"default_left":[0,0,0,0,0,0,0,0,0,0,0,0,0,0,0,0,0,0,0,0,0,0,0,0,0,0,0,0,0,0,0,0,0,0,0,0,0,0,0,0,0,0,0,0,0,0,0,0,0,0,0,0,0,0,0,0,0,0,0,0,0,0,0,0,0,0,0,0,0,0,0,0,0,0,0,0,0,0,0,0,0,0,0,0,0,0,0,0,0,0,0,0,0,0,0,0,0,0,0,0,0,0,0,0,0,0,0,0,0,0,0,0,0,0,0,0,0,0,0,0,0,0,0,0,0,0,0,0,0,0,0,0,0,0,0,0,0,0,0,0,0,0,0,0,0,0,0,0,0,0,0],"id":0,"left_children":[1,3,5,7,9,11,13,15,17,19,-1,21,23,25,27,-1,-1,-1,29,31,33,35,37,39,41,43,45,47,49,51,-1,-1,-1,53,55,-1,-1,57,-1,59,61,63,65,67,69,71,73,75,77,79,-1,-1,-1,81,83,85,87,-1,-1,-1,-1,89,-1,91,93,95,97,99,101,103,105,107,109,-1,-1,-1,-1,111,-1,113,-1,115,-1,117,119,121,123,-1,-1,-1,125,127,129,-1,-1,-1,-1,-1,131,-1,-1,-1,133,135,137,139,141,143,145,147,-1,-1,-1,149,-1,-1,-1,-1,-1,-1,-1,-1,-1,-1,-1,-1,-1,-1,-1,-1,-1,-1,-1,-1,-1,-1,-1,-1,-1,-1,-1,-1,-1,-1,-1,-1,-1,-1,-1,-1,-1],"loss_changes":[5.2717716E1,4.2803078E1,3.339188E1,1.1959137E1,6.483274E0,1.5435652E1,6.397892E0,5.370598E-1,3.472744E0,3.8630166E0,0E0,6.3438663E0,7.096092E0,9.698238E0,1.0227852E0,0E0,0E0,0E0,3.6356163E-1,2.1719503E-1,1.041305E0,1.2135925E0,2.696967E-1,3.8493009E0,8.828362E-1,2.1905417E0,1.6123524E0,5.968913E-1,3.0020523E-1,3.629837E-1,0E0,0E0,0E0,5.4091245E-1,4.385585E-1,0E0,0E0,8.728409E-2,0E0,5.588827E-1,1.4541848E0,6.2337255E-1,2.730885E-1,3.045931E-1,4.1067046E-1,4.962921E-1,5.0644398E-2,7.9068765E-3,9.842324E-2,3.721943E-1,0E0,0E0,0E0,8.4647775E-2,4.491245E-2,1.8234091E-3,2.3546576E-2,0E0,0E0,0E0,0E0,5.746021E-1,0E0,9.166014E-2,3.638649E-2,4.229814E-3,8.218815E-2,1.0001183E-2,2.7085692E-2,1.1638609E-1,1.5880579E-1,3.8199258E-1,6.668234E-2,0E0,0E0,0E0,0E0,9.249091E-3,0E0,4.3657112E-1,0E0,1.5153289E-2,0E0,1.8929392E-3,1.4448836E-2,8.378435E-4,6.166784E-4,0E0,0E0,0E0,2.976756E-1,3.7485622E-3,7.091254E-3,0E0,0E0,0E0,0E0,0E0,7.1986318E-3,0E0,0E0,0E0,2.0479187E-3,6.3932255E-2,5.7757847E-2,1.5867434E-2,2.4648547E-2,4.1787356E-2,3.1425953E-3,4.4871807E-2,0E0,0E0,0E0,6.835365E-2,0E0,0E0,0E0,0E0,0E0,0E0,0E0,0E0,0E0,0E0,0E0,0E0,0E0,0E0,0E0,0E0,0E0,0E0,0E0,0E0,0E0,0E0,0E0,0E0,0E0,0E0,0E0,0E0,0E0,0E0,0E0,0E0,0E0,0E0,0E0,0E0,0E0],"parents":[2147483647,0,0,1,1,2,2,3,3,4,4,5,5,6,6,7,7,8,8,9,9,11,11,12,12,13,13,14,14,18,18,19,19,20,20,21,21,22,22,23,23,24,24,25,25,26,26,27,27,28,28,29,29,33,33,34,34,37,37,39,39,40,40,41,41,42,42,43,43,44,44,45,45,46,46,47,47,48,48,49,49,53,53,54,54,55,55,56,56,61,61,63,63,64,64,65,65,66,66,67,67,68,68,69,69,70,70,71,71,72,72,77,77,79,79,81,81,83,83,84,84,85,85,86,86,90,90,91,91,92,92,98,98,102,102,103,103,104,104,105,105,106,106,107,107,108,108,109,109,113,113],"right_children":[2,4,6,8,10,12,14,16,18,20,-1,22,24,26,28,-1,-1,-1,30,32,34,36,38,40,42,44,46,48,50,52,-1,-1,-1,54,56,-1,-1,58,-1,60,62,64,66,68,70,72,74,76,78,80,-1,-1,-1,82,84,86,88,-1,-1,-1,-1,90,-1,92,94,96,98,100,102,104,106,108,110,-1,-1,-1,-1,112,-1,114,-1,116,-1,118,120,122,124,-1,-1,-1,126,128,130,-1,-1,-1,-1,-1,132,-1,-1,-1,134,136,138,140,142,144,146,148,-1,-1,-1,150,-1,-1,-1,-1,-1,-1,-1,-1,-1,-1,-1,-1,-1,-1,-1,-1,-1,-1,-1,-1,-1,-1,-1,-1,-1,-1,-1,-1,-1,-1,-1,-1,-1,-1,-1,-1,-1],"split_conditions":[7.939335E1,6.8125E3,4.0548555E3,3.2323943E3,1.2686371E4,1.578048E2,1.1781468E2,7.7152306E1,4.3E1,2.3585675E0,1.9323481E-2,2.8333333E3,1.6467163E3,6.976744E3,4.715366E3,-9.251162E-2,-2.1533871E-2,-5.4184586E-2,6.503425E3,5.8027966E1,9.852047E3,8.209578E0,4.823382E0,2.65E2,4.737078E1,5.4259814E3,1.0272671E4,1.340899E2,1.749322E2,6E0,-5.9476853E-3,-2.5504777E-2,-8.454323E-4,1E0,5.7423466E1,-6.0834315E-2,-2.4818389E-2,1.2494216E2,-1.2932721E-2,6.520696E0,7.9949822E0,2.45E2,2.4907449E3,9.8E1,1.0180818E2,7.583556E3,9.581357E1,5.507589E0,1.81E2,6.460981E3,2.403163E-2,-3.2632485E-2,-1.5316541E-2,1E0,6.950648E1,7.612316E0,0E0,-2.4074456E-2,-3.9821626E-3,-3.408274E-2,-8.259969E-2,8.1678357E2,1.8757964E-2,2.8371433E1,4.6330353E1,6.5523057E0,1.1155902E0,1E0,4.715366E3,6.5635093E3,6.0832227E3,9.5E1,4.7559036E1,2.3152312E-2,3.6532007E-2,-4.984236E-3,-9.000301E-5,6.1538696E0,1.6798696E-2,1.4285527E2,2.1091886E-2,1E0,-1.3406321E-2,1E0,1E0,5.6E1,2.476523E0,2.4304152E-3,1.3611281E-2,-2.3324529E-2,6E2,4.70109E1,5.3124237E0,1.0453286E-2,1.9116871E-2,-9.272079E-3,-2.2199631E-3,1.098806E-2,6.2281055E0,-1.5660075E-2,-6.0572308E-3,-8.779649E-3,1.17E2,7.6328583E0,8.9015366E1,3E0,1.1360085E2,8.320114E1,9.95423E1,1E0,8.310999E-3,1.989174E-3,9.68695E-3,3.4101045E0,1.86461E-2,-3.9160866E-3,-8.359055E-3,-1.6356827E-3,-4.3812394E-3,-2.7010177E-4,2.5502443E-3,8.2466606E-4,-3.1498272E-4,-1.5823841E-3,-4.288537E-4,-8.830993E-3,1.26014715E-2,2.7119876E-3,-2.475262E-4,5.154403E-3,1.0113907E-2,2.2268295E-3,-1.0273695E-3,-4.1841115E-3,-7.7807903E-4,8.204287E-4,-3.78839E-3,-1.5274525E-3,3.433816E-3,3.0324936E-3,-3.5310586E-4,6.3379565E-3,1.1529499E-2,-3.6757786E-4,4.799661E-3,7.267038E-3,1.2755389E-2,1.6769882E-2,7.775955E-3,-4.1635038E-4,1.2373439E-2],"split_indices":[1,6,6,6,6,1,1,1,1,0,0,6,6,6,6,0,0,0,6,1,6,4,0,1,5,6,6,1,1,2,0,0,0,3,1,0,0,1,0,0,0,1,6,1,1,6,1,0,1,6,0,0,0,45,1,4,2,0,0,0,0,6,0,7,5,0,0,12,6,6,6,1,5,0,0,0,0,4,0,1,0,26,0,2,27,1,0,0,0,0,1,5,0,0,0,0,0,0,0,0,0,0,1,4,1,2,1,1,1,222,0,0,0,0,0,0,0,0,0,0,0,0,0,0,0,0,0,0,0,0,0,0,0,0,0,0,0,0,0,0,0,0,0,0,0,0,0,0,0,0,0],"split_type":[0,0,0,0,0,0,0,0,0,0,0,0,0,0,0,0,0,0,0,0,0,0,0,0,0,0,0,0,0,0,0,0,0,0,0,0,0,0,0,0,0,0,0,0,0,0,0,0,0,0,0,0,0,0,0,0,0,0,0,0,0,0,0,0,0,0,0,0,0,0,0,0,0,0,0,0,0,0,0,0,0,0,0,0,0,0,0,0,0,0,0,0,0,0,0,0,0,0,0,0,0,0,0,0,0,0,0,0,0,0,0,0,0,0,0,0,0,0,0,0,0,0,0,0,0,0,0,0,0,0,0,0,0,0,0,0,0,0,0,0,0,0,0,0,0,0,0,0,0,0,0],"sum_hessian":[9.57E2,2.28E2,7.29E2,1E2,1.28E2,1.55E2,5.74E2,1.3E1,8.7E1,1E2,2.8E1,6.2E1,9.3E1,2.98E2,2.76E2,1.2E1,1E0,2.4E1,6.3E1,2.4E1,7.6E1,2.2E1,4E1,3E1,6.3E1,1.37E2,1.61E2,3.6E1,2.4E2,6.1E1,2E0,2.3E1,1E0,5.2E1,2.4E1,1.7E1,5E0,2.6E1,1.4E1,7E0,2.3E1,4.9E1,1.4E1,4.3E1,9.4E1,1.36E2,2.5E1,6E0,3E1,2.05E2,3.5E1,5.5E1,6E0,2.9E1,2.3E1,1.2E1,1.2E1,2.5E1,1E0,6E0,1E0,2E1,3E0,2.5E1,2.4E1,7E0,7E0,2.6E1,1.7E1,6.1E1,3.3E1,5.9E1,7.7E1,2E1,5E0,5E0,1E0,2E1,1E1,1.28E2,7.7E1,1.6E1,1.3E1,6E0,1.7E1,5E0,7E0,1E0,1.1E1,9E0,1.1E1,1.2E1,1.3E1,6E0,1.8E1,6E0,1E0,2E0,5E0,2.4E1,2E0,6E0,1.1E1,3.6E1,2.5E1,1.4E1,1.9E1,2E1,3.9E1,7.1E1,6E0,1E0,1.9E1,5.4E1,7.4E1,6E0,1E1,3E0,3E0,8E0,9E0,3E0,2E0,1E0,6E0,1E1,1E0,1.1E1,1E0,5E0,8E0,2E0,3E0,1E1,1E0,1E1,2.6E1,8E0,1.7E1,9E0,5E0,1.1E1,8E0,5E0,1.5E1,5E0,3.4E1,6.7E1,4E0,1E0,5.3E1],"tree_param":{"num_deleted":"0","num_feature":"425","num_nodes":"151","size_leaf_vector":"1"}},{"base_weights":[4.8192036E-3,-4.1578472E-1,1.20038874E-1,-8.3724236E-1,-4.46447E-2,-9.033433E-1,1.6000338E-1,-8.481874E-2,-6.9259214E-1,-1.7503703E-1,1.8916996E-2,-1.5269165E0,-3.4023112E-1,-6.376651E-2,2.5590444E-1,-4.9897637E-2,-5.6610227E-1,-2.50307E-2,-5.856511E-2,-9.480367E-2,-3.9011065E-2,-4.4252983E-1,-1.3333989E-3,-3.722415E-1,1.6561629E-1,1.6308972E-1,3.5261542E-1,-6.0644025E-1,-1.3282813E-2,-2.215288E-1,6.4764437E-3,-2.2953667E-2,-6.5137865E-3,-5.894837E-1,-2.868989E-1,2.354453E-1,-1.1617024E-2,-3.1099854E-2,2.849623E-1,3.2027942E-1,4.008082E-1,-6.2520134E-1,-1.5064669E-2,-1.5073023E-2,-1.08101524E-1,-7.425221E-2,9.0433456E-2,-4.0371086E-2,-2.2993663E-2,-4.0132448E-1,-1.6754554E-1,8.529342E-2,3.1824473E-1,-2.2026758E-1,1.6631679E-1,-1.8673545E-1,1.2635376E-2,1.7211874E-1,3.5415134E-1,2.409475E-1,1.9769855E-2,2.0861147E-2,1.473549E-2,-3.157432E-2,-8.087945E-3,-6.679758E-3,-2.1417856E-3,-1.4757481E-1,-2.042033E-2,3.342247E-2,1.0798482E-2,-2.2864373E-2,-1.3030918E-2,-1.2273412E-2,-8.031474E-2,-2.5692448E-2,1.4052354E-1,3.1301898E-3,3.4162167E-1,-1.4070386E-2,-1.4932871E-1,2.2993684E-2,1.2086102E-2,-1.2363754E-2,-7.181433E-2,-2.8945176E-2,6.8519786E-2,6.933988E-2,1.1345681E-2,3.111264E-1,4.7205523E-1,-2.6292802E-4,2.4430037E-1,-8.120942E-3,-2.9399553E-3,-2.1587277E-3,-4.1105528E-4,-3.9322037E-4,2.8328765E-3,-5.074245E-3,2.968216E-3,2.4494927E-3,9.420879E-3,1.7917E-2,7.686218E-3,-8.134836E-3,-3.1952222E-3,2.6305772E-3,-9.88853E-4,-3.8611651E-3,-7.13563E-4,-2.709117E-3,8.646824E-4,1.3458388E-3,6.301502E-3,-3.4892219E-4,4.8343125E-3,1.6284145E-2,8.490462E-3,2.4709223E-2,1.1893153E-2,1.2522151E-2,3.6328675E-3],"categories":[],"categories_nodes":[],"categories_segments":[],"categories_sizes":[],"default_left":[0,0,0,0,0,0,0,0,0,0,0,0,0,0,0,0,0,0,0,0,0,0,0,0,0,0,0,0,0,0,0,0,0,0,0,0,0,0,0,0,0,0,0,0,0,0,0,0,0,0,0,0,0,0,0,0,0,0,0,0,0,0,0,0,0,0,0,0,0,0,0,0,0,0,0,0,0,0,0,0,0,0,0,0,0,0,0,0,0,0,0,0,0,0,0,0,0,0,0,0,0,0,0,0,0,0,0,0,0,0,0,0,0,0,0,0,0,0,0,0,0,0,0],"id":1,"left_children":[1,3,5,7,9,11,13,-1,15,17,-1,19,21,23,25,-1,27,-1,29,-1,-1,31,-1,33,35,37,39,41,-1,43,45,-1,-1,47,49,51,53,55,57,59,61,63,-1,-1,65,67,69,-1,-1,71,73,75,77,79,81,83,85,87,89,91,-1,-1,-1,-1,-1,-1,-1,93,95,97,-1,-1,-1,-1,99,-1,101,-1,103,-1,105,107,-1,-1,109,111,113,115,-1,117,119,-1,121,-1,-1,-1,-1,-1,-1,-1,-1,-1,-1,-1,-1,-1,-1,-1,-1,-1,-1,-1,-1,-1,-1,-1,-1,-1,-1,-1,-1,-1,-1],"loss_changes":[4.5749428E1,3.171584E1,3.0450676E1,1.0631111E1,6.0780034E0,9.312462E0,1.5338591E1,0E0,2.6409302E0,3.1560094E0,0E0,2.1040611E0,5.0143266E-1,1.5274803E1,4.4305954E0,0E0,5.781765E-1,0E0,6.691977E-1,0E0,0E0,2.1829605E-3,0E0,1.5365582E0,1.5373626E0,6.091122E0,2.518692E-1,1.1504936E-1,0E0,1.3060737E-1,3.1849077E-1,0E0,0E0,3.3486462E-1,8.6144114E-1,1.0793476E0,1.3731698E0,6.830354E-1,1.1726351E0,8.04574E-1,4.0747643E-2,4.0576935E-2,0E0,0E0,9.252109E-3,9.171672E-2,1.573914E-1,0E0,0E0,1.4854956E-1,2.1818942E-1,1.164201E0,3.1925106E-1,3.1710327E-2,2.1058822E-1,1.353023E-1,1.85556E-1,3.3343482E-1,3.451929E-1,6.402254E-2,0E0,0E0,0E0,0E0,0E0,0E0,0E0,3.627807E-3,3.808815E-3,1.6753731E-2,0E0,0E0,0E0,0E0,5.9251063E-2,0E0,1.2667096E-1,0E0,1.08263016E-1,0E0,1.022473E-3,1.1174725E-2,0E0,0E0,1.6991682E-3,5.4616105E-2,7.7956066E-2,4.86764E-2,0E0,9.692049E-2,6.831169E-3,0E0,6.0878754E-2,0E0,0E0,0E0,0E0,0E0,0E0,0E0,0E0,0E0,0E0,0E0,0E0,0E0,0E0,0E0,0E0,0E0,0E0,0E0,0E0,0E0,0E0,0E0,0E0,0E0,0E0,0E0,0E0,0E0,0E0],"parents":[2147483647,0,0,1,1,2,2,3,3,4,4,5,5,6,6,8,8,9,9,11,11,12,12,13,13,14,14,16,16,18,18,21,21,23,23,24,24,25,25,26,26,27,27,29,29,30,30,33,33,34,34,35,35,36,36,37,37,38,38,39,39,40,40,41,41,44,44,45,45,46,46,49,49,50,50,51,51,52,52,53,53,54,54,55,55,56,56,57,57,58,58,59,59,67,67,68,68,69,69,74,74,76,76,78,78,80,80,81,81,84,84,85,85,86,86,87,87,89,89,90,90,92,92],"right_children":[2,4,6,8,10,12,14,-1,16,18,-1,20,22,24,26,-1,28,-1,30,-1,-1,32,-1,34,36,38,40,42,-1,44,46,-1,-1,48,50,52,54,56,58,60,62,64,-1,-1,66,68,70,-1,-1,72,74,76,78,80,82,84,86,88,90,92,-1,-1,-1,-1,-1,-1,-1,94,96,98,-1,-1,-1,-1,100,-1,102,-1,104,-1,106,108,-1,-1,110,112,114,116,-1,118,120,-1,122,-1,-1,-1,-1,-1,-1,-1,-1,-1,-1,-1,-1,-1,-1,-1,-1,-1,-1,-1,-1,-1,-1,-1,-1,-1,-1,-1,-1,-1,-1],"split_conditions":[7.7152306E1,6.8125E3,1.4220958E3,3.3299343E3,1.2686371E4,2.65E2,4.925E3,-8.481874E-2,4.3E1,2.1599405E0,1.8916996E-2,1.2040668E3,1E0,1.578048E2,1.1360085E2,-4.9897637E-2,2.5077961E1,-2.50307E-2,8.239964E3,-9.480367E-2,-3.9011065E-2,5.7666726E0,-1.3333989E-3,9.1E1,4.737078E1,7.0357144E3,1.4285527E2,7.4220024E1,-1.3282813E-2,6.401135E1,3.0517478E0,-2.2953667E-2,-6.5137865E-3,1E0,3.9821995E3,1.9691621E2,2.4907449E3,5.4491626E3,7.930737E3,6.778066E3,1E0,7E0,-1.5064669E-2,-1.5073023E-2,4.682468E1,1E0,1E0,-4.0371086E-2,-2.2993663E-2,4.823382E0,1.0712762E2,1.6E3,1.8723991E1,7.0218153E0,6.1538696E0,9.734786E1,9.9379105E1,9.5E1,1.0272671E4,5.003141E3,1.9769855E-2,2.0861147E-2,1.473549E-2,-3.157432E-2,-8.087945E-3,-6.679758E-3,-2.1417856E-3,2.7485807E0,4.737445E1,5.475983E1,1.0798482E-2,-2.2864373E-2,-1.3030918E-2,-1.2273412E-2,1.2804964E2,-2.5692448E-2,3.9821995E3,3.1301898E-3,1E0,-1.4070386E-2,5.3124237E0,6.2281055E0,1.2086102E-2,-1.2363754E-2,3.581986E0,6.7612007E3,6.222663E3,8.194537E1,1.1345681E-2,1E0,3E0,-2.6292802E-4,1E0,-8.120942E-3,-2.9399553E-3,-2.1587277E-3,-4.1105528E-4,-3.9322037E-4,2.8328765E-3,-5.074245E-3,2.968216E-3,2.4494927E-3,9.420879E-3,1.7917E-2,7.686218E-3,-8.134836E-3,-3.1952222E-3,2.6305772E-3,-9.88853E-4,-3.8611651E-3,-7.13563E-4,-2.709117E-3,8.646824E-4,1.3458388E-3,6.301502E-3,-3.4892219E-4,4.8343125E-3,1.6284145E-2,8.490462E-3,2.4709223E-2,1.1893153E-2,1.2522151E-2,3.6328675E-3],"split_indices":[1,6,6,6,6,1,6,0,1,0,0,6,30,1,1,0,7,0,6,0,0,0,0,1,5,6,1,1,0,1,0,0,0,3,6,1,6,6,6,6,43,2,0,0,5,12,45,0,0,0,1,6,7,4,4,1,1,1,6,6,0,0,0,0,0,0,0,0,5,1,0,0,0,0,1,0,6,0,123,0,0,0,0,0,0,6,6,1,0,222,2,0,90,0,0,0,0,0,0,0,0,0,0,0,0,0,0,0,0,0,0,0,0,0,0,0,0,0,0,0,0,0,0],"split_type":[0,0,0,0,0,0,0,0,0,0,0,0,0,0,0,0,0,0,0,0,0,0,0,0,0,0,0,0,0,0,0,0,0,0,0,0,0,0,0,0,0,0,0,0,0,0,0,0,0,0,0,0,0,0,0,0,0,0,0,0,0,0,0,0,0,0,0,0,0,0,0,0,0,0,0,0,0,0,0,0,0,0,0,0,0,0,0,0,0,0,0,0,0,0,0,0,0,0,0,0,0,0,0,0,0,0,0,0,0,0,0,0,0,0,0,0,0,0,0,0,0,0,0],"sum_hessian":[9.42E2,2.02E2,7.4E2,9.4E1,1.08E2,2.7E1,7.13E2,1.2E1,8.2E1,8.3E1,2.5E1,1.2E1,1.5E1,2.14E2,4.99E2,2.2E1,6E1,2.1E1,6.2E1,7E0,5E0,1.1E1,4E0,9.1E1,1.23E2,2.56E2,2.43E2,5.2E1,8E0,1.7E1,4.5E1,1E1,1E0,2.4E1,6.7E1,8.8E1,3.5E1,9.9E1,1.57E2,1.5E2,9.3E1,4.8E1,4E0,9E0,8E0,2.3E1,2.2E1,7E0,1.7E1,3.3E1,3.4E1,3.2E1,5.6E1,1.6E1,1.9E1,2.1E1,7.8E1,6.1E1,9.6E1,7.5E1,7.5E1,7.8E1,1.5E1,4.7E1,1E0,5E0,3E0,9E0,1.4E1,1.6E1,6E0,2.2E1,1.1E1,1.7E1,1.7E1,2E0,3E1,5E0,5.1E1,7E0,9E0,7E0,1.2E1,1.3E1,8E0,4.5E1,3.3E1,2.2E1,3.9E1,7.3E1,2.3E1,1E0,7.4E1,7E0,2E0,4E0,1E1,6E0,1E1,1.5E1,2E0,1.1E1,1.9E1,4.6E1,5E0,7E0,2E0,4E0,3E0,7E0,1E0,2.9E1,1.6E1,2E1,1.3E1,6E0,1.6E1,6.5E1,8E0,2E1,3E0,7.1E1,3E0],"tree_param":{"num_deleted":"0","num_feature":"425","num_nodes":"123","size_leaf_vector":"1"}},{"base_weights":[-1.1900462E-2,-4.120166E-1,1.1517249E-1,-8.3859456E-1,-3.4509595E-2,-2.464241E-1,2.1763442E-1,-1.6508702E0,-6.7763543E-1,-1.4112176E-1,3.4583402E-1,-5.5261266E-1,-3.973146E-2,1.3213752E-1,3.1299406E-1,-8.52042E-2,-1.9986248E-2,-4.8837595E-2,-5.4953444E-1,-4.793914E-1,-4.0014382E-2,1.0300382E-2,1.841244E-2,-9.187005E-1,-3.776267E-1,-3.9759302E-1,1.454117E-1,-5.1092803E-2,2.8308204E-1,1.9404228E-1,3.3786362E-1,-5.7626134E-1,-1.4186597E-2,-5.13435E-1,-1.304781E-2,-1.1175453E-1,1.1708987E-1,-5.211406E-2,-2.2831608E-2,-4.1587186E-1,-8.921899E-3,-9.1562176E-1,-1.9519894E-1,2.015063E-2,2.4862371E-1,-2.1229413E-1,4.028602E-2,2.4619366E-1,5.0831246E-1,-5.2314334E-2,2.4462147E-1,3.4105092E-1,-3.180186E-3,-3.0145505E-2,-1.8061135E-2,-1.7199738E-2,-2.9499417E-2,-1.9577217E-1,2.6925958E-3,-7.5140735E-3,2.4231999E-1,-2.2289123E-2,-1.2586159E-2,-3.198808E-2,-7.806259E-2,-2.8316957E-1,1.6871965E-2,-7.5812E-3,6.9411956E-2,2.7740052E-1,-7.539797E-3,-2.8176573E-1,-1.062479E-1,-1.8986512E-2,1.0137853E-1,1.7427424E-1,2.8965682E-1,2.0897761E-2,3.398029E-2,-2.6390553E-3,-3.8356066E-3,1.8602552E-1,1.6493985E-2,3.4630525E-1,6.772484E-3,1.783371E-5,-2.5634767E-4,-1.2788624E-1,-1.3735435E-2,-5.1811885E-2,4.143204E-2,-1.5105883E-3,-6.4069574E-4,2.298856E-3,1.2799479E-2,1.1838508E-2,-3.1920338E-1,3.652864E-2,1.4405306E-1,2.8867504E-1,-2.084589E-3,-1.6747368E-2,-1.1226149E-2,-8.042872E-3,-6.745332E-2,-3.3482656E-2,4.271836E-2,3.1288464E-2,1.6096604E-1,6.356642E-2,2.209016E-1,2.1819393E-1,3.149532E-1,-2.940178E-4,1.7712117E-4,1.873684E-3,9.523432E-3,3.3025083E-1,2.1554416E-2,-3.4073764E-3,-7.6038325E-3,-3.4583646E-3,-1.0311509E-3,2.397283E-3,7.834435E-5,3.9948462E-4,-3.3568655E-4,-2.1538144E-2,-8.931268E-3,-6.0758594E-4,2.1686584E-3,4.419012E-3,9.44117E-3,9.224645E-3,1.6723065E-2,-3.8864564E-3,-1.6705514E-3,9.196341E-4,-2.3099994E-3,-3.3915837E-4,2.8915338E-3,2.8555798E-3,-4.744053E-4,5.3016143E-3,9.753323E-3,-4.9192907E-4,4.6277964E-3,1.2351829E-2,8.394638E-3,1.1164839E-2,2.2655725E-3,1.6407194E-2,6.857499E-3,1.46221435E-2,1.8964138E-2],"categories":[],"categories_nodes":[],"categories_segments":[],"categories_sizes":[],"default_left":[0,0,0,0,0,0,0,0,0,0,0,0,0,0,0,0,0,0,0,0,0,0,0,0,0,0,0,0,0,0,0,0,0,0,0,0,0,0,0,0,0,0,0,0,0,0,0,0,0,0,0,0,0,0,0,0,0,0,0,0,0,0,0,0,0,0,0,0,0,0,0,0,0,0,0,0,0,0,0,0,0,0,0,0,0,0,0,0,0,0,0,0,0,0,0,0,0,0,0,0,0,0,0,0,0,0,0,0,0,0,0,0,0,0,0,0,0,0,0,0,0,0,0,0,0,0,0,0,0,0,0,0,0,0,0,0,0,0,0,0,0,0,0,0,0,0,0,0,0,0,0,0,0,0,0],"id":2,"left_children":[1,3,5,7,9,11,13,15,17,19,21,23,25,27,29,-1,-1,-1,31,33,35,-1,-1,37,39,41,43,45,47,49,51,53,-1,55,-1,57,59,-1,-1,61,-1,63,65,67,69,71,73,75,77,79,81,83,85,-1,-1,-1,-1,87,89,91,93,-1,-1,-1,-1,95,-1,-1,97,99,-1,101,103,105,107,109,111,-1,-1,113,-1,115,-1,117,-1,-1,-1,119,-1,121,123,-1,125,-1,-1,-1,127,129,131,133,-1,-1,-1,-1,135,137,139,141,143,145,147,149,151,-1,-1,-1,-1,153,-1,-1,-1,-1,-1,-1,-1,-1,-1,-1,-1,-1,-1,-1,-1,-1,-1,-1,-1,-1,-1,-1,-1,-1,-1,-1,-1,-1,-1,-1,-1,-1,-1,-1,-1,-1,-1],"loss_changes":[4.8094982E1,3.6687305E1,2.6655447E1,1.2870834E1,4.9958143E0,1.0040665E1,4.524296E0,4.5066452E-1,2.9501E0,3.2641668E0,8.760691E-3,3.7529297E0,6.418354E0,8.228775E0,7.154255E-1,0E0,0E0,0E0,3.053646E-1,2.9615402E-2,8.5838646E-1,0E0,0E0,6.661148E-1,2.6860332E-1,3.2811875E0,8.2241094E-1,1.997155E0,1.2291231E0,6.1090195E-1,2.3696518E-1,1.2031555E-1,0E0,3.0529022E-2,0E0,5.005372E-1,3.7632078E-1,0E0,0E0,6.9447994E-2,0E0,6.0410357E-1,1.2669656E0,2.643799E-1,4.4412184E-1,3.3105588E-1,3.1696117E-1,3.9339066E-1,5.6462288E-2,1.0705259E-2,1.384654E-1,1.8535805E-1,2.2484981E-5,0E0,0E0,0E0,0E0,1.2562883E-1,5.071056E-2,2.008771E-3,2.0437539E-2,0E0,0E0,0E0,0E0,4.8775685E-1,0E0,0E0,5.3644665E-2,1.3075614E-1,0E0,1.30803585E-2,3.3639267E-2,4.1682042E-2,1.7455283E-1,2.7503085E-1,8.855343E-2,0E0,0E0,1.0097482E-4,0E0,1.0023415E-2,0E0,1.4211082E-1,0E0,0E0,0E0,1.5648216E-2,0E0,3.986517E-3,3.560204E-3,0E0,6.301798E-4,0E0,0E0,0E0,2.5239372E-1,6.5245517E-3,7.5916946E-4,9.093785E-2,0E0,0E0,0E0,0E0,2.3003593E-3,2.5259238E-2,7.125018E-3,2.2654431E-2,2.240175E-2,3.9214164E-2,1.2554288E-2,1.2819052E-2,1.0040617E-1,0E0,0E0,0E0,0E0,2.2276497E-1,0E0,0E0,0E0,0E0,0E0,0E0,0E0,0E0,0E0,0E0,0E0,0E0,0E0,0E0,0E0,0E0,0E0,0E0,0E0,0E0,0E0,0E0,0E0,0E0,0E0,0E0,0E0,0E0,0E0,0E0,0E0,0E0,0E0,0E0,0E0,0E0,0E0],"parents":[2147483647,0,0,1,1,2,2,3,3,4,4,5,5,6,6,7,7,8,8,9,9,10,10,11,11,12,12,13,13,14,14,18,18,19,19,20,20,23,23,24,24,25,25,26,26,27,27,28,28,29,29,30,30,31,31,33,33,35,35,36,36,39,39,41,41,42,42,43,43,44,44,45,45,46,46,47,47,48,48,49,49,50,50,51,51,52,52,57,57,58,58,59,59,60,60,65,65,68,68,69,69,71,71,72,72,73,73,74,74,75,75,76,76,79,79,81,81,83,83,87,87,89,89,90,90,92,92,96,96,97,97,98,98,99,99,104,104,105,105,106,106,107,107,108,108,109,109,110,110,111,111,112,112,117,117],"right_children":[2,4,6,8,10,12,14,16,18,20,22,24,26,28,30,-1,-1,-1,32,34,36,-1,-1,38,40,42,44,46,48,50,52,54,-1,56,-1,58,60,-1,-1,62,-1,64,66,68,70,72,74,76,78,80,82,84,86,-1,-1,-1,-1,88,90,92,94,-1,-1,-1,-1,96,-1,-1,98,100,-1,102,104,106,108,110,112,-1,-1,114,-1,116,-1,118,-1,-1,-1,120,-1,122,124,-1,126,-1,-1,-1,128,130,132,134,-1,-1,-1,-1,136,138,140,142,144,146,148,150,152,-1,-1,-1,-1,154,-1,-1,-1,-1,-1,-1,-1,-1,-1,-1,-1,-1,-1,-1,-1,-1,-1,-1,-1,-1,-1,-1,-1,-1,-1,-1,-1,-1,-1,-1,-1,-1,-1,-1,-1,-1,-1],"split_conditions":[7.939335E1,6.6362397E3,4.0548555E3,3.2323943E3,1.2686371E4,1.578048E2,1.1811086E2,7.7152306E1,4.3E1,2.3585675E0,2.2626224E0,2.8333333E3,1.6467163E3,7.0357144E3,4.925E3,-8.52042E-2,-1.9986248E-2,-4.8837595E-2,6E0,1E0,9.852047E3,1.0300382E-2,1.841244E-2,8.209578E0,1.2494216E2,2.65E2,2.2133778E2,5.4491626E3,1.0272671E4,1.340899E2,1E0,1E0,-1.4186597E-2,1.9211626E1,-1.304781E-2,1E0,5.911888E1,-5.211406E-2,-2.2831608E-2,4.823382E0,-8.921899E-3,6.8751025E0,7.9949822E0,2.4907449E3,4.7442383E1,9.703002E1,1.0101342E2,7.5475776E3,9.5E1,1E0,1.81E2,1E0,3.459679E0,-3.0145505E-2,-1.8061135E-2,-1.7199738E-2,-2.9499417E-2,1E0,2.8985243E0,1.0237189E4,0E0,-2.2289123E-2,-1.2586159E-2,-3.198808E-2,-7.806259E-2,6.868208E0,1.6871965E-2,-7.5812E-3,1E0,2E0,-7.539797E-3,4.8387095E3,4.715366E3,6.8421055E3,6.1248804E3,9.5E1,8.8019325E1,2.0897761E-2,3.398029E-2,6.5E0,-3.8356066E-3,6.1538696E0,1.6493985E-2,1.749322E2,6.772484E-3,1.783371E-5,-2.5634767E-4,1E0,-1.3735435E-2,6.078287E1,3.6820107E0,-1.5105883E-3,2.547562E0,2.298856E-3,1.2799479E-2,1.1838508E-2,8.1678357E2,4.482481E-1,5.0077276E0,4.6330353E1,-2.084589E-3,-1.6747368E-2,-1.1226149E-2,-8.042872E-3,4.206105E0,7.6328583E0,8.5766525E1,1E0,2.2978445E1,8.320114E1,8.042874E0,3.7098563E0,4.7540653E1,-2.940178E-4,1.7712117E-4,1.873684E-3,9.523432E-3,6.3953486E3,2.1554416E-2,-3.4073764E-3,-7.6038325E-3,-3.4583646E-3,-1.0311509E-3,2.397283E-3,7.834435E-5,3.9948462E-4,-3.3568655E-4,-2.1538144E-2,-8.931268E-3,-6.0758594E-4,2.1686584E-3,4.419012E-3,9.44117E-3,9.224645E-3,1.6723065E-2,-3.8864564E-3,-1.6705514E-3,9.196341E-4,-2.3099994E-3,-3.3915837E-4,2.8915338E-3,2.8555798E-3,-4.744053E-4,5.3016143E-3,9.753323E-3,-4.9192907E-4,4.6277964E-3,1.2351829E-2,8.394638E-3,1.1164839E-2,2.2655725E-3,1.6407194E-2,6.857499E-3,1.46221435E-2,1.8964138E-2],"split_indices":[1,6,6,6,6,1,1,1,1,0,0,6,6,6,6,0,0,0,2,32,6,0,0,4,1,1,1,6,6,1,188,13,0,7,0,3,1,0,0,0,0,0,0,6,5,1,1,6,1,413,1,71,0,0,0,0,0,45,0,6,2,0,0,0,0,4,0,0,9,2,0,6,6,6,6,1,1,0,0,0,0,4,0,1,0,0,0,26,0,1,0,0,0,0,0,0,6,4,0,5,0,0,0,0,0,4,1,13,7,1,4,0,5,0,0,0,0,6,0,0,0,0,0,0,0,0,0,0,0,0,0,0,0,0,0,0,0,0,0,0,0,0,0,0,0,0,0,0,0,0,0,0,0,0,0],"split_type":[0,0,0,0,0,0,0,0,0,0,0,0,0,0,0,0,0,0,0,0,0,0,0,0,0,0,0,0,0,0,0,0,0,0,0,0,0,0,0,0,0,0,0,0,0,0,0,0,0,0,0,0,0,0,0,0,0,0,0,0,0,0,0,0,0,0,0,0,0,0,0,0,0,0,0,0,0,0,0,0,0,0,0,0,0,0,0,0,0,0,0,0,0,0,0,0,0,0,0,0,0,0,0,0,0,0,0,0,0,0,0,0,0,0,0,0,0,0,0,0,0,0,0,0,0,0,0,0,0,0,0,0,0,0,0,0,0,0,0,0,0,0,0,0,0,0,0,0,0,0,0,0,0,0,0],"sum_hessian":[9.44E2,2.27E2,7.17E2,1.06E2,1.21E2,1.58E2,5.59E2,1.6E1,9E1,9.5E1,2.6E1,6.3E1,9.5E1,2.96E2,2.63E2,1.5E1,1E0,2.5E1,6.5E1,2.1E1,7.4E1,5E0,2.1E1,1.9E1,4.4E1,3.2E1,6.3E1,1.34E2,1.62E2,4.7E1,2.16E2,5.8E1,7E0,1.7E1,4E0,5.1E1,2.3E1,1.4E1,5E0,3.6E1,8E0,8E0,2.4E1,2.9E1,3.4E1,4.8E1,8.6E1,1.41E2,2.1E1,8E0,3.9E1,2.14E2,2E0,5E1,8E0,7E0,1E1,2.9E1,2.2E1,1.2E1,1.1E1,2.9E1,7E0,7E0,1E0,2.1E1,3E0,6E0,2.3E1,3.2E1,2E0,2.8E1,2E1,4.4E1,4.2E1,5.5E1,8.6E1,1.6E1,5E0,3E0,5E0,2.5E1,1.4E1,2.08E2,6E0,1E0,1E0,1.7E1,1.2E1,9E0,1.3E1,2E0,1E1,1E0,1E1,1E0,2E1,1.7E1,6E0,3.1E1,1E0,1.2E1,1.6E1,7E0,1.3E1,3.6E1,8E0,2E1,2.2E1,1.7E1,3.8E1,2.5E1,6.1E1,2E0,1E0,1E0,2.4E1,1.79E2,2.9E1,6E0,1.1E1,5E0,4E0,1.1E1,2E0,4E0,6E0,1E1,1E1,2E0,1.5E1,4E0,2E0,1.1E1,2E1,9E0,4E0,7E0,2.9E1,2E0,6E0,1.2E1,8E0,1E1,1.2E1,5E0,1.2E1,2.3E1,1.5E1,2.4E1,1E0,5.6E1,5E0,1.05E2,7.4E1],"tree_param":{"num_deleted":"0","num_feature":"425","num_nodes":"155","size_leaf_vector":"1"}},{"base_weights":[-1.1905953E-2,-3.9414173E-1,1.072014E-1,-8.036658E-1,-4.6988364E-2,-8.2378143E-1,1.4523718E-1,-1.5933399E0,-6.543497E-1,-1.5042056E-1,3.3400333E-1,-1.3194832E0,-3.38556E-1,-5.8466747E-2,2.3437297E-1,-8.237992E-2,-1.9486595E-2,-4.79678E-2,-5.2890265E-1,-4.5214725E-1,-4.7839392E-2,9.871189E-3,1.7803518E-2,-8.92669E-2,-3.7346244E-2,-2.0549247E-2,-9.261489E-4,-3.4537143E-1,1.4147845E-1,1.561673E-1,3.3114916E-1,-5.59399E-1,-3.4505224E-1,-2.8159415E-2,-1.8338194E-2,-1.8974987E-1,2.2662593E-2,-6.5386707E-1,-2.687989E-1,-1.5733637E-1,1.7955513E-1,5.076346E-3,2.7562436E-1,2.9617065E-1,3.6766696E-1,-2.9027103E-2,-1.1593036E-2,-7.1374574E-3,-1.8561898E-2,-1.6083553E-2,-1.3116048E-1,-6.1081227E-2,1.0553478E-1,-3.9580088E-2,-2.2174025E-2,-3.4623125E-1,-1.7959806E-1,-3.777153E-1,1.7948227E-2,1.9906849E-1,-7.3579377E-3,-1.1437373E-1,4.88183E-2,2.3829727E-1,4.572071E-1,2.2467181E-1,1.837455E-2,3.82674E-1,1.3461933E-2,-1.5363729E-1,-8.463144E-3,-1.1740147E-1,-1.8543482E-2,3.2161824E-2,1.0985766E-2,-4.0134156E-1,-1.1748635E-2,-1.3007178E-2,-1.0215449E-1,-2.79636E-2,-9.70363E-3,1.2413142E-1,2.569493E-1,-9.639098E-3,-6.038893E-2,-1.3234732E-2,1.0846109E-1,1.6416311E-1,2.7605766E-1,1.9809825E-2,3.1100512E-2,-2.499342E-4,2.2858296E-1,1.9422999E-2,1.0504647E-2,-3.4375787E-3,-8.396886E-3,-6.4096454E-4,1.1513233E-4,-3.5278003E-3,-7.234001E-3,-2.2577047E-3,-1.1714156E-4,-1.7662844E-4,2.3664436E-3,-2.0445934E-2,-5.676699E-3,-6.339203E-3,-1.9150939E-3,1.9377995E-3,8.845533E-3,1.4618859E-2,1.1852529E-3,-3.7505247E-3,-1.021501E-3,-2.451821E-3,1.0067463E-3,2.9210655E-3,8.529588E-3,3.2293766E-3,1.0513069E-2,1.4277254E-2,7.511705E-3,9.025335E-3,1.2679483E-2],"categories":[],"categories_nodes":[],"categories_segments":[],"categories_sizes":[],"default_left":[0,0,0,0,0,0,0,0,0,0,0,0,0,0,0,0,0,0,0,0,0,0,0,0,0,0,0,0,0,0,0,0,0,0,0,0,0,0,0,0,0,0,0,0,0,0,0,0,0,0,0,0,0,0,0,0,0,0,0,0,0,0,0,0,0,0,0,0,0,0,0,0,0,0,0,0,0,0,0,0,0,0,0,0,0,0,0,0,0,0,0,0,0,0,0,0,0,0,0,0,0,0,0,0,0,0,0,0,0,0,0,0,0,0,0,0,0,0,0,0,0,0,0,0,0],"id":3,"left_children":[1,3,5,7,9,11,13,15,17,19,21,23,25,27,29,-1,-1,-1,31,33,35,-1,-1,-1,-1,-1,-1,37,39,41,43,45,47,-1,-1,49,51,53,55,57,59,61,63,65,67,-1,-1,-1,-1,-1,69,71,73,-1,-1,75,77,79,-1,81,-1,83,85,87,89,91,-1,93,-1,95,97,99,101,103,-1,105,-1,-1,107,-1,-1,109,111,-1,113,115,117,119,121,-1,-1,-1,123,-1,-1,-1,-1,-1,-1,-1,-1,-1,-1,-1,-1,-1,-1,-1,-1,-1,-1,-1,-1,-1,-1,-1,-1,-1,-1,-1,-1,-1,-1,-1,-1],"loss_changes":[4.3884842E1,3.2518627E1,2.6146479E1,1.1338066E1,4.976093E0,6.5285683E0,1.2850921E1,4.02771E-1,2.936184E0,3.0425658E0,1.1078596E-2,2.4006958E0,3.6326158E-1,1.2439748E1,3.6719608E0,0E0,0E0,0E0,1.7702484E-1,3.0469418E-2,7.54673E-1,0E0,0E0,0E0,0E0,0E0,0E0,1.9266262E0,1.4846196E0,4.943995E0,1.7084503E-1,2.4627876E-1,1.0575533E-2,0E0,0E0,1.5103906E-1,3.6038786E-1,1.4155817E-1,4.4203138E-1,1.842314E0,7.560773E-1,6.4303106E-1,9.280758E-1,5.140562E-1,4.9113274E-2,0E0,0E0,0E0,0E0,0E0,5.1098764E-2,6.011212E-2,2.1075541E-1,0E0,0E0,1.386919E-1,1.979835E-1,2.582178E-1,0E0,4.3654537E-1,0E0,1.2804225E-1,3.345269E-1,3.157959E-1,4.9300194E-3,5.593753E-2,0E0,5.2604675E-3,0E0,7.876486E-3,2.1710774E-4,3.8485974E-3,6.7919604E-3,9.370625E-3,0E0,5.911827E-3,0E0,0E0,2.6597172E-2,0E0,0E0,2.1394008E-1,4.888699E-1,0E0,1.0737024E-2,5.474839E-2,1.33048E-1,1.9757175E-1,5.7375908E-2,0E0,0E0,0E0,2.6359081E-2,0E0,0E0,0E0,0E0,0E0,0E0,0E0,0E0,0E0,0E0,0E0,0E0,0E0,0E0,0E0,0E0,0E0,0E0,0E0,0E0,0E0,0E0,0E0,0E0,0E0,0E0,0E0,0E0,0E0,0E0,0E0,0E0],"parents":[2147483647,0,0,1,1,2,2,3,3,4,4,5,5,6,6,7,7,8,8,9,9,10,10,11,11,12,12,13,13,14,14,18,18,19,19,20,20,27,27,28,28,29,29,30,30,31,31,32,32,35,35,36,36,37,37,38,38,39,39,40,40,41,41,42,42,43,43,44,44,50,50,51,51,52,52,55,55,56,56,57,57,59,59,61,61,62,62,63,63,64,64,65,65,67,67,69,69,70,70,71,71,72,72,73,73,75,75,78,78,81,81,82,82,84,84,85,85,86,86,87,87,88,88,92,92],"right_children":[2,4,6,8,10,12,14,16,18,20,22,24,26,28,30,-1,-1,-1,32,34,36,-1,-1,-1,-1,-1,-1,38,40,42,44,46,48,-1,-1,50,52,54,56,58,60,62,64,66,68,-1,-1,-1,-1,-1,70,72,74,-1,-1,76,78,80,-1,82,-1,84,86,88,90,92,-1,94,-1,96,98,100,102,104,-1,106,-1,-1,108,-1,-1,110,112,-1,114,116,118,120,122,-1,-1,-1,124,-1,-1,-1,-1,-1,-1,-1,-1,-1,-1,-1,-1,-1,-1,-1,-1,-1,-1,-1,-1,-1,-1,-1,-1,-1,-1,-1,-1,-1,-1,-1,-1],"split_conditions":[7.939335E1,6.6362397E3,1.4220958E3,3.2323943E3,1.2686371E4,2.65E2,4.925E3,7.7152306E1,4.3E1,2.1599405E0,2.2626224E0,1.2040668E3,1E0,1.5485796E2,1.1781468E2,-8.237992E-2,-1.9486595E-2,-4.79678E-2,1E0,1.8374568E0,8.239964E3,9.871189E-3,1.7803518E-2,-8.92669E-2,-3.7346244E-2,-2.0549247E-2,-9.261489E-4,3.2E3,1.6467163E3,7.0357144E3,1.4332361E2,6E0,2.2626224E0,-2.8159415E-2,-1.8338194E-2,5.6547028E1,6.607676E1,9.1E1,1.06E2,3.3145712E2,1E0,5.6281567E3,1.0272671E4,6.9111177E3,1E0,-2.9027103E-2,-1.1593036E-2,-7.1374574E-3,-1.8561898E-2,-1.6083553E-2,1E0,9.410482E3,9.249717E3,-3.9580088E-2,-2.2174025E-2,4.591943E3,3.9821995E3,3.9490268E0,1.7948227E-2,1.9691621E2,-7.3579377E-3,9.734786E1,9.9057335E1,7.5150356E3,9.581357E1,5.003141E3,1.837455E-2,1E0,1.3461933E-2,1E0,2.8985243E0,2E0,1.0237189E4,2.6577609E0,1.0985766E-2,1E0,-1.1748635E-2,-1.3007178E-2,4.715366E3,-2.79636E-2,-9.70363E-3,3.9821995E3,2E0,-9.639098E-3,3.581986E0,8.849378E1,6.3953486E3,9.5E1,1E0,1.9809825E-2,3.1100512E-2,-2.499342E-4,5.9387886E3,1.9422999E-2,1.0504647E-2,-3.4375787E-3,-8.396886E-3,-6.4096454E-4,1.1513233E-4,-3.5278003E-3,-7.234001E-3,-2.2577047E-3,-1.1714156E-4,-1.7662844E-4,2.3664436E-3,-2.0445934E-2,-5.676699E-3,-6.339203E-3,-1.9150939E-3,1.9377995E-3,8.845533E-3,1.4618859E-2,1.1852529E-3,-3.7505247E-3,-1.021501E-3,-2.451821E-3,1.0067463E-3,2.9210655E-3,8.529588E-3,3.2293766E-3,1.0513069E-2,1.4277254E-2,7.511705E-3,9.025335E-3,1.2679483E-2],"split_indices":[1,6,6,6,6,1,6,1,1,0,0,6,30,1,1,0,0,0,13,0,6,0,0,0,0,0,0,6,6,6,1,2,0,0,0,1,1,1,1,1,139,6,6,6,43,0,0,0,0,0,3,6,6,0,0,6,6,0,0,1,0,1,1,6,1,6,0,79,0,26,0,2,6,0,0,28,0,0,6,0,0,6,2,0,0,1,6,1,222,0,0,0,6,0,0,0,0,0,0,0,0,0,0,0,0,0,0,0,0,0,0,0,0,0,0,0,0,0,0,0,0,0,0,0,0],"split_type":[0,0,0,0,0,0,0,0,0,0,0,0,0,0,0,0,0,0,0,0,0,0,0,0,0,0,0,0,0,0,0,0,0,0,0,0,0,0,0,0,0,0,0,0,0,0,0,0,0,0,0,0,0,0,0,0,0,0,0,0,0,0,0,0,0,0,0,0,0,0,0,0,0,0,0,0,0,0,0,0,0,0,0,0,0,0,0,0,0,0,0,0,0,0,0,0,0,0,0,0,0,0,0,0,0,0,0,0,0,0,0,0,0,0,0,0,0,0,0,0,0,0,0,0,0],"sum_hessian":[9.62E2,2.28E2,7.34E2,1.04E2,1.24E2,2.8E1,7.06E2,1.5E1,8.9E1,9.8E1,2.6E1,1.3E1,1.5E1,2.15E2,4.91E2,1.4E1,1E0,2.4E1,6.5E1,2.4E1,7.4E1,5E0,2.1E1,6E0,7E0,1.2E1,3E0,8.8E1,1.27E2,2.73E2,2.18E2,5.4E1,1.1E1,8E0,1.6E1,2.4E1,5E1,1.6E1,7.2E1,1.4E1,1.13E2,1.21E2,1.52E2,1.16E2,1.02E2,5E1,4E0,2E0,9E0,6E0,1.8E1,2.5E1,2.5E1,8E0,8E0,3.7E1,3.5E1,1E1,4E0,1.07E2,6E0,3.2E1,8.9E1,1.28E2,2.4E1,6E1,5.6E1,8.6E1,1.6E1,1.5E1,3E0,1E1,1.5E1,1.6E1,9E0,2.3E1,1.4E1,1.6E1,1.9E1,4E0,6E0,4.8E1,5.9E1,1.2E1,2E1,4.4E1,4.5E1,4.5E1,8.3E1,2E1,4E0,1E0,5.9E1,8.2E1,4E0,3E0,1.2E1,2E0,1E0,5E0,5E0,5E0,1E1,5E0,1.1E1,2.2E1,1E0,1.3E1,6E0,1.9E1,2.9E1,5.1E1,8E0,1.4E1,6E0,2.1E1,2.3E1,2.6E1,1.9E1,1.5E1,3E1,7.6E1,7E0,2.3E1,3.6E1],"tree_param":{"num_deleted":"0","num_feature":"425","num_nodes":"125","size_leaf_vector":"1"}},{"base_weights":[-3.7098173E-3,-3.6922953E-1,1.0350771E-1,-7.345202E-1,-6.836879E-2,-1.5793486E-1,2.123264E-1,-7.0723176E-2,-6.1245203E-1,-1.694162E-1,1.5917307E-2,-4.3548447E-1,3.628272E-2,1.20197654E-1,3.0470347E-1,-4.3728013E-2,-4.9303278E-1,-4.4691798E-1,-6.392387E-2,-9.446893E-1,-3.10937E-1,-3.7746635E-1,1.6129473E-1,-3.7183113E-2,2.4441662E-1,2.8916094E-1,1.9773493E-2,-5.2424365E-1,-1.1231589E-2,-5.248412E-1,-1.643112E-2,-2.19566E-1,-1.37416525E-2,-5.1979393E-2,-1.8818581E-2,-3.9492273E-1,-2.1854751E-1,-8.8005877E-1,-1.8624003E-1,1.8230262E-1,-7.0426124E-3,-1.7729416E-1,9.412386E-3,1.412774E-1,3.1473148E-1,2.2303385E-1,3.1596017E-1,-5.360825E-1,-1.2259818E-2,-2.7964637E-2,-1.0604397E-2,-1.5394251E-2,-1.4340244E-1,-8.105804E-2,7.378125E-2,-2.2145396E-2,-1.2061947E-2,-2.9467532E-1,-1.1165153E-1,-2.918069E-2,-7.387934E-2,-4.0597168E-1,4.901163E-2,9.9455334E-2,2.3526503E-1,-1.1553094E-2,-4.0934044E-3,-2.2670811E-2,7.21956E-2,1.9503783E-2,1.7713542E-1,2.6773614E-1,2.0644234E-2,5.246393E-2,2.5503042E-1,2.8865615E-1,3.564201E-1,-2.705559E-2,-7.241249E-3,-8.0946125E-3,-2.0066104E-3,-2.9322863E-2,-8.026425E-3,2.591451E-2,9.316349E-3,-1.6098911E-2,-8.637754E-3,-1.1863941E-1,3.862381E-6,-8.531968E-3,-2.1798711E-2,-1.4186132E-1,1.72303E-2,2.4666151E-2,1.420546E-1,2.626059E-1,6.3638687E-3,-5.8409493E-2,1.784722E-3,1.9879136E-2,1.1103293E-1,-9.826554E-3,2.7213981E-3,5.9858323E-3,1.0015467E-2,9.677007E-3,3.0185053E-1,-1.6509851E-2,5.204473E-3,9.24817E-3,1.3893119E-2,1.0548601E-2,1.6484916E-2,1.7982278E-2,4.2336225E-3,-3.36238E-3,7.821322E-5,-3.3435822E-4,2.3634478E-3,-6.5943277E-3,-3.155918E-3,-6.9829624E-4,-9.108273E-3,-9.634113E-4,2.1196974E-3,1.6057015E-3,7.271918E-3,1.3650896E-2,-6.1895847E-3,-3.0587516E-3,2.2807217E-3,-3.611946E-4,-3.4142712E-3,-3.1003633E-3,1.6166745E-3,2.145952E-3,-4.646029E-4,3.417651E-3,6.1560078E-3,-7.715623E-4,5.185604E-5,1.5266676E-2,4.150343E-3,-1.4863332E-3,-1.234889E-4],"categories":[],"categories_nodes":[],"categories_segments":[],"categories_sizes":[],"default_left":[0,0,0,0,0,0,0,0,0,0,0,0,0,0,0,0,0,0,0,0,0,0,0,0,0,0,0,0,0,0,0,0,0,0,0,0,0,0,0,0,0,0,0,0,0,0,0,0,0,0,0,0,0,0,0,0,0,0,0,0,0,0,0,0,0,0,0,0,0,0,0,0,0,0,0,0,0,0,0,0,0,0,0,0,0,0,0,0,0,0,0,0,0,0,0,0,0,0,0,0,0,0,0,0,0,0,0,0,0,0,0,0,0,0,0,0,0,0,0,0,0,0,0,0,0,0,0,0,0,0,0,0,0,0,0,0,0,0,0,0,0,0,0,0,0],"id":4,"left_children":[1,3,5,7,9,11,13,-1,15,17,-1,19,21,23,25,-1,27,29,31,33,35,37,39,41,43,45,-1,47,-1,49,-1,51,53,-1,-1,55,57,59,61,63,-1,65,67,69,71,73,75,77,-1,-1,-1,-1,79,81,83,-1,-1,85,87,-1,-1,89,91,93,95,-1,-1,97,99,101,103,105,-1,107,109,111,113,-1,-1,-1,-1,115,-1,117,-1,-1,-1,119,-1,-1,-1,121,-1,123,125,127,129,131,133,135,137,139,-1,-1,-1,-1,141,143,-1,-1,-1,-1,-1,-1,-1,-1,-1,-1,-1,-1,-1,-1,-1,-1,-1,-1,-1,-1,-1,-1,-1,-1,-1,-1,-1,-1,-1,-1,-1,-1,-1,-1,-1,-1,-1],"loss_changes":[3.715126E1,2.357863E1,2.0887268E1,7.184654E0,4.704041E0,1.1659284E1,4.3718567E0,0E0,2.1980782E0,2.7524905E0,0E0,5.3506565E0,6.681505E0,5.111554E0,2.4961662E-1,0E0,3.8485909E-1,6.7192554E-2,5.437156E-1,5.2558327E-1,4.8012686E-1,2.7193642E0,6.5407753E-1,7.589799E-1,1.0143585E0,3.2649422E-1,0E0,4.364586E-2,0E0,3.222847E-2,0E0,7.020229E-2,3.2413375E-1,0E0,0E0,1.6601181E-1,2.681961E-1,5.547333E-1,1.2088188E0,3.846662E-1,0E0,1.2987787E-1,1.7889391E-1,2.6290548E-1,2.861519E-1,3.5774064E-1,7.055855E-2,2.0019531E-2,0E0,0E0,0E0,0E0,1.4506802E-2,1.2274681E-1,1.2446417E-1,0E0,0E0,1.42810345E-2,1.3281867E-2,0E0,0E0,1.0332346E-2,7.2593796E-1,1.1756271E-1,3.4879684E-1,0E0,0E0,5.1670752E-2,5.8747724E-2,1.589991E-2,3.855872E-2,9.598017E-2,0E0,4.44482E-2,3.97923E-2,2.4608707E-1,2.1261692E-2,0E0,0E0,0E0,0E0,2.3532916E-2,0E0,1.2847525E-2,0E0,0E0,0E0,3.4434795E-3,0E0,0E0,0E0,3.8693607E-2,0E0,1.249975E-2,4.257679E-3,2.3495626E-1,2.1347044E-2,1.1638835E-2,7.216051E-2,9.808227E-3,3.543347E-4,5.6399195E-4,0E0,0E0,0E0,0E0,5.1443577E-3,1.039972E-3,0E0,0E0,0E0,0E0,0E0,0E0,0E0,0E0,0E0,0E0,0E0,0E0,0E0,0E0,0E0,0E0,0E0,0E0,0E0,0E0,0E0,0E0,0E0,0E0,0E0,0E0,0E0,0E0,0E0,0E0,0E0,0E0,0E0,0E0,0E0,0E0,0E0],"parents":[2147483647,0,0,1,1,2,2,3,3,4,4,5,5,6,6,8,8,9,9,11,11,12,12,13,13,14,14,16,16,17,17,18,18,19,19,20,20,21,21,22,22,23,23,24,24,25,25,27,27,29,29,31,31,32,32,35,35,36,36,37,37,38,38,39,39,41,41,42,42,43,43,44,44,45,45,46,46,47,47,52,52,53,53,54,54,57,57,58,58,61,61,62,62,63,63,64,64,67,67,68,68,69,69,70,70,71,71,73,73,74,74,75,75,76,76,81,81,83,83,87,87,91,91,93,93,94,94,95,95,96,96,97,97,98,98,99,99,100,100,101,101,106,106,107,107],"right_children":[2,4,6,8,10,12,14,-1,16,18,-1,20,22,24,26,-1,28,30,32,34,36,38,40,42,44,46,-1,48,-1,50,-1,52,54,-1,-1,56,58,60,62,64,-1,66,68,70,72,74,76,78,-1,-1,-1,-1,80,82,84,-1,-1,86,88,-1,-1,90,92,94,96,-1,-1,98,100,102,104,106,-1,108,110,112,114,-1,-1,-1,-1,116,-1,118,-1,-1,-1,120,-1,-1,-1,122,-1,124,126,128,130,132,134,136,138,140,-1,-1,-1,-1,142,144,-1,-1,-1,-1,-1,-1,-1,-1,-1,-1,-1,-1,-1,-1,-1,-1,-1,-1,-1,-1,-1,-1,-1,-1,-1,-1,-1,-1,-1,-1,-1,-1,-1,-1,-1,-1,-1],"split_conditions":[7.7152306E1,6.8125E3,4.7932085E3,3.3299343E3,1.2686371E4,1.578048E2,1.1360085E2,-7.0723176E-2,4.3E1,2.1599405E0,1.5917307E-2,2.8333333E3,1.6467163E3,7.0357144E3,1.749322E2,-4.3728013E-2,2.5077961E1,1E0,7.8493325E3,1.514465E2,1.06E2,2.65E2,1E0,5.4491626E3,8.0796733E3,5.669643E3,1.9773493E-2,7.4220024E1,-1.1231589E-2,7.935244E0,-1.643112E-2,2.5882144E0,3.0517478E0,-5.1979393E-2,-1.8818581E-2,4.3937217E3,3.9821995E3,6.520696E0,8.1678357E2,1.9691621E2,-7.0426124E-3,9.581357E1,1.0101342E2,9.0173996E1,1.0373644E4,1.3059796E2,1.3E2,7E0,-1.2259818E-2,-2.7964637E-2,-1.0604397E-2,-1.5394251E-2,3.5264647E0,1E0,1E0,-2.2145396E-2,-1.2061947E-2,1.2494216E2,5.5737004E0,-2.918069E-2,-7.387934E-2,5.1342E0,6E2,3.9526875E3,2E0,-1.1553094E-2,-4.0934044E-3,8.849378E1,6.0244346E3,8.320114E1,9.9057335E1,8.8019325E1,2.0644234E-2,5.003141E3,1.4429694E2,6.8421055E3,1E0,-2.705559E-2,-7.241249E-3,-8.0946125E-3,-2.0066104E-3,4.737445E1,-8.026425E-3,5.475983E1,9.316349E-3,-1.6098911E-2,-8.637754E-3,1E0,3.862381E-6,-8.531968E-3,-2.1798711E-2,5.5253496E0,1.72303E-2,3.7205918E3,6.1538696E0,4.7476475E1,9.92755E0,1E0,5.9255776E3,1E0,7.2133236E0,7.457774E3,2.7213981E-3,5.9858323E-3,1.0015467E-2,9.677007E-3,4.7540653E1,1.1781468E2,5.204473E-3,9.24817E-3,1.3893119E-2,1.0548601E-2,1.6484916E-2,1.7982278E-2,4.2336225E-3,-3.36238E-3,7.821322E-5,-3.3435822E-4,2.3634478E-3,-6.5943277E-3,-3.155918E-3,-6.9829624E-4,-9.108273E-3,-9.634113E-4,2.1196974E-3,1.6057015E-3,7.271918E-3,1.3650896E-2,-6.1895847E-3,-3.0587516E-3,2.2807217E-3,-3.611946E-4,-3.4142712E-3,-3.1003633E-3,1.6166745E-3,2.145952E-3,-4.646029E-4,3.417651E-3,6.1560078E-3,-7.715623E-4,5.185604E-5,1.5266676E-2,4.150343E-3,-1.4863332E-3,-1.234889E-4],"split_indices":[1,6,6,6,6,1,1,0,1,0,0,6,6,6,1,0,7,30,6,1,1,1,139,6,6,6,0,1,0,4,0,0,0,0,0,6,6,0,6,1,0,1,1,1,6,1,1,2,0,0,0,0,0,9,45,0,0,1,0,0,0,0,1,6,2,0,0,1,6,1,1,1,0,6,1,6,71,0,0,0,0,5,0,1,0,0,0,423,0,0,0,0,0,6,4,5,0,2,6,13,4,6,0,0,0,0,5,1,0,0,0,0,0,0,0,0,0,0,0,0,0,0,0,0,0,0,0,0,0,0,0,0,0,0,0,0,0,0,0,0,0,0,0,0,0],"split_type":[0,0,0,0,0,0,0,0,0,0,0,0,0,0,0,0,0,0,0,0,0,0,0,0,0,0,0,0,0,0,0,0,0,0,0,0,0,0,0,0,0,0,0,0,0,0,0,0,0,0,0,0,0,0,0,0,0,0,0,0,0,0,0,0,0,0,0,0,0,0,0,0,0,0,0,0,0,0,0,0,0,0,0,0,0,0,0,0,0,0,0,0,0,0,0,0,0,0,0,0,0,0,0,0,0,0,0,0,0,0,0,0,0,0,0,0,0,0,0,0,0,0,0,0,0,0,0,0,0,0,0,0,0,0,0,0,0,0,0,0,0,0,0,0,0],"sum_hessian":[9.46E2,2.14E2,7.32E2,9.6E1,1.18E2,2.15E2,5.17E2,1.3E1,8.3E1,9.4E1,2.4E1,8.8E1,1.27E2,2.6E2,2.57E2,2.4E1,5.9E1,2.5E1,6.9E1,1.6E1,7.2E1,2.9E1,9.8E1,1.15E2,1.45E2,2.23E2,3.4E1,5.2E1,7E0,1.3E1,1.2E1,1.6E1,5.3E1,1.3E1,3E0,3.6E1,3.6E1,7E0,2.2E1,9.2E1,6E0,2.8E1,8.7E1,6E1,8.5E1,6.7E1,1.56E2,4.9E1,3E0,1.1E1,2E0,6E0,1E1,3E1,2.3E1,2.6E1,1E1,2E1,1.6E1,6E0,1E0,1.1E1,1.1E1,3.7E1,5.5E1,1.7E1,1.1E1,5.8E1,2.9E1,1.4E1,4.6E1,6E1,2.5E1,1.1E1,5.6E1,9.8E1,5.8E1,4.8E1,1E0,8E0,2E0,1.9E1,1.1E1,1.7E1,6E0,1.5E1,5E0,1.5E1,1E0,2E0,9E0,7E0,4E0,1.4E1,2.3E1,4.9E1,6E0,2.3E1,3.5E1,1.3E1,1.6E1,8E0,6E0,1.5E1,3.1E1,2.1E1,3.9E1,5E0,6E0,1.6E1,4E1,3.6E1,6.2E1,5.7E1,1E0,8E0,1.1E1,7E0,1E1,1.1E1,4E0,2E0,5E0,4E0,1E1,1E0,2.2E1,4.8E1,1E0,2E0,4E0,4E0,1.9E1,1.1E1,2.4E1,7E0,6E0,5E0,1.1E1,5E0,3E0,3.8E1,1E0,2E0,3E0],"tree_param":{"num_deleted":"0","num_feature":"425","num_nodes":"145","size_leaf_vector":"1"}},{"base_weights":[1.0721762E-2,-3.347223E-1,1.1484537E-1,-6.9245374E-1,-4.7591615E-2,-2.1760306E-1,1.865119E-1,-1.3728654E0,-5.578137E-1,-1.412107E-1,3.043758E-1,-5.43871E-1,-2.3120724E-2,1.1285418E-1,2.7103102E-1,-4.6345618E-2,-8.514772E-2,-4.166391E-2,-4.5599782E-1,-4.2270792E-1,-4.3050993E-2,8.430882E-3,1.6032735E-2,-8.950655E-1,-3.1835327E-1,-5.9444886E-1,6.0982347E-2,-4.5312032E-2,2.5083774E-1,1.5433179E-1,2.9200688E-1,-4.807097E-1,-1.0991854E-2,-2.7731976E-2,-1.6662918E-2,-1.03281595E-1,9.175205E-2,-4.8580434E-2,-1.825633E-2,-1.8833483E-2,-1.0207352E-2,-1.8288216E-2,-7.2032355E-2,-2.6175175E-2,1.01284415E-1,-2.0371176E-1,3.3565093E-2,2.189577E-1,4.2879197E-1,-7.985759E-2,1.984134E-1,2.9579026E-1,-3.9987566E-4,-4.997582E-1,-1.3526678E-2,-1.9145153E-1,-3.453353E-2,-2.2804895E-3,1.1181283E-2,2.2013818E-1,-8.910309E-2,-2.806615E-1,-1.0937962E-1,-1.0508787E-2,1.0261966E-1,1.5431933E-1,2.578869E-1,1.7856143E-2,3.0408422E-2,-9.128734E-2,3.7670136E-6,1.4130718E-1,1.2859347E-2,2.8052917E-1,1.8723864E-2,-2.5200998E-2,-7.060218E-3,-1.0304327E-1,-2.4092518E-1,-1.0118266E-1,1.9223213E-2,-7.893835E-3,1.9076586E-3,7.186014E-2,3.0230206E-1,-1.550109E-1,6.725904E-2,-1.8175488E-2,-1.0721983E-2,-1.3240682E-1,-4.389596E-2,-3.965635E-2,2.4818579E-2,5.9390385E-2,8.679553E-3,5.3729374E-2,2.0327108E-1,1.989148E-1,2.798915E-1,-1.3629914E-3,-4.8707644E-3,3.670349E-3,7.6158973E-3,2.4395277E-1,3.273345E-1,-5.902022E-3,-1.4351527E-3,-1.4459896E-2,-8.428544E-3,-3.469664E-3,-6.1529367E-3,-3.894594E-4,2.0806026E-3,-1.3302485E-3,-1.2791157E-4,1.7928282E-3,4.9939635E-3,7.6404894E-3,1.6407823E-2,-9.4463825E-3,-7.7375415E-4,8.719174E-3,5.87007E-4,-7.3908875E-3,-3.1387426E-3,-2.358028E-3,-5.2609446E-4,4.7558872E-4,-2.9466501E-3,-1.3687202E-3,3.317056E-3,4.327526E-3,1.3994047E-3,-5.340713E-4,4.0102894E-3,1.1028597E-2,6.8803877E-3,6.3491203E-3,1.1246762E-2,1.4432415E-2,5.7664397E-3,9.031372E-3,1.4285006E-2,9.722527E-3,1.6653292E-2],"categories":[],"categories_nodes":[],"categories_segments":[],"categories_sizes":[],"default_left":[0,0,0,0,0,0,0,0,0,0,0,0,0,0,0,0,0,0,0,0,0,0,0,0,0,0,0,0,0,0,0,0,0,0,0,0,0,0,0,0,0,0,0,0,0,0,0,0,0,0,0,0,0,0,0,0,0,0,0,0,0,0,0,0,0,0,0,0,0,0,0,0,0,0,0,0,0,0,0,0,0,0,0,0,0,0,0,0,0,0,0,0,0,0,0,0,0,0,0,0,0,0,0,0,0,0,0,0,0,0,0,0,0,0,0,0,0,0,0,0,0,0,0,0,0,0,0,0,0,0,0,0,0,0,0,0,0,0,0,0,0,0,0,0,0],"id":5,"left_children":[1,3,5,7,9,11,13,15,17,19,21,23,25,27,29,-1,-1,-1,31,33,35,-1,-1,37,39,41,43,45,47,49,51,53,-1,-1,-1,55,57,-1,-1,-1,-1,-1,-1,-1,59,61,63,65,67,69,71,73,-1,75,-1,77,79,81,-1,83,85,87,89,91,93,95,97,-1,-1,99,-1,101,-1,103,-1,-1,-1,105,107,109,111,113,-1,115,117,119,121,-1,-1,123,125,127,129,131,-1,133,135,137,139,-1,-1,-1,-1,141,143,-1,-1,-1,-1,-1,-1,-1,-1,-1,-1,-1,-1,-1,-1,-1,-1,-1,-1,-1,-1,-1,-1,-1,-1,-1,-1,-1,-1,-1,-1,-1,-1,-1,-1,-1,-1,-1,-1,-1,-1],"loss_changes":[3.525198E1,2.3283504E1,1.798113E1,8.48687E0,4.2277412E0,8.490173E0,3.829214E0,7.767792E-1,2.0320396E0,2.7726028E0,5.601883E-3,3.6750822E0,4.120539E0,7.27887E0,6.5991974E-1,0E0,0E0,0E0,2.7366066E-1,1.21993065E-1,6.2654066E-1,0E0,0E0,4.1594028E-1,1.3622713E-1,1.6016996E0,1.8197219E0,1.9559197E0,9.1594124E-1,4.9072337E-1,2.7817726E-1,9.700298E-2,0E0,0E0,0E0,3.1464863E-1,2.9811984E-1,0E0,0E0,0E0,0E0,0E0,0E0,0E0,1.6262221E0,3.4676075E-1,3.2064617E-1,3.4519958E-1,1.1705828E-1,7.3157847E-3,9.455478E-2,1.8315125E-1,0E0,8.289337E-3,0E0,7.577354E-2,1.1301312E-1,3.7056964E-3,0E0,5.143328E-1,2.9897946E-1,7.566738E-2,3.1885505E-2,6.791514E-2,1.15480095E-1,2.8452158E-1,6.630516E-2,0E0,0E0,9.097904E-5,0E0,5.266726E-3,0E0,2.71101E-1,0E0,0E0,0E0,7.760808E-3,1.4805794E-4,1.1965185E-3,1.1210099E-2,1.3296311E-3,0E0,1.3568081E-2,5.8075428E-2,9.172839E-2,5.147959E-2,0E0,0E0,1.00364685E-2,3.7540589E-4,3.4681246E-2,6.683161E-2,2.0605654E-2,0E0,3.6669426E-2,1.5088797E-2,2.571702E-2,6.1819553E-2,0E0,0E0,0E0,0E0,2.6299047E-1,1.4944077E-3,0E0,0E0,0E0,0E0,0E0,0E0,0E0,0E0,0E0,0E0,0E0,0E0,0E0,0E0,0E0,0E0,0E0,0E0,0E0,0E0,0E0,0E0,0E0,0E0,0E0,0E0,0E0,0E0,0E0,0E0,0E0,0E0,0E0,0E0,0E0,0E0,0E0,0E0,0E0,0E0],"parents":[2147483647,0,0,1,1,2,2,3,3,4,4,5,5,6,6,7,7,8,8,9,9,10,10,11,11,12,12,13,13,14,14,18,18,19,19,20,20,23,23,24,24,25,25,26,26,27,27,28,28,29,29,30,30,31,31,35,35,36,36,44,44,45,45,46,46,47,47,48,48,49,49,50,50,51,51,53,53,55,55,56,56,57,57,59,59,60,60,61,61,62,62,63,63,64,64,65,65,66,66,69,69,71,71,73,73,77,77,78,78,79,79,80,80,81,81,83,83,84,84,85,85,86,86,89,89,90,90,91,91,92,92,93,93,95,95,96,96,97,97,98,98,103,103,104,104],"right_children":[2,4,6,8,10,12,14,16,18,20,22,24,26,28,30,-1,-1,-1,32,34,36,-1,-1,38,40,42,44,46,48,50,52,54,-1,-1,-1,56,58,-1,-1,-1,-1,-1,-1,-1,60,62,64,66,68,70,72,74,-1,76,-1,78,80,82,-1,84,86,88,90,92,94,96,98,-1,-1,100,-1,102,-1,104,-1,-1,-1,106,108,110,112,114,-1,116,118,120,122,-1,-1,124,126,128,130,132,-1,134,136,138,140,-1,-1,-1,-1,142,144,-1,-1,-1,-1,-1,-1,-1,-1,-1,-1,-1,-1,-1,-1,-1,-1,-1,-1,-1,-1,-1,-1,-1,-1,-1,-1,-1,-1,-1,-1,-1,-1,-1,-1,-1,-1,-1,-1,-1,-1],"split_conditions":[7.939335E1,6.6362397E3,4.0146565E3,3.3299343E3,1.2686371E4,1.578048E2,1.1811086E2,4.6236176E1,4.3E1,2.1599405E0,2.2626224E0,2.8333333E3,8.1678357E2,7.0565693E3,4.715366E3,-4.6345618E-2,-8.514772E-2,-4.166391E-2,2.5077961E1,1.8374568E0,9.768845E3,8.430882E-3,1.6032735E-2,4E0,4.823382E0,5.7666726E0,4.6213024E1,5.4491626E3,1.0272671E4,1.340899E2,1E0,1E0,-1.0991854E-2,-2.7731976E-2,-1.6662918E-2,6.1605385E1,6.696029E1,-4.8580434E-2,-1.825633E-2,-1.8833483E-2,-1.0207352E-2,-1.8288216E-2,-7.2032355E-2,-2.6175175E-2,4.737078E1,9.4755066E1,1.0180818E2,7.583556E3,9.581357E1,5.507589E0,1.81E2,1.749322E2,-3.9987566E-4,6E0,-1.3526678E-2,1E0,1E0,5.911888E1,1.1181283E-2,2.45E2,2.4907449E3,4.591943E3,1E0,6.6362397E3,6.3953486E3,9.703002E1,8.8019325E1,1.7856143E-2,3.0408422E-2,1.1908727E2,3.7670136E-6,7.767434E0,1.2859347E-2,6.3912266E3,1.8723864E-2,-2.5200998E-2,-7.060218E-3,7.6301365E0,7.70692E0,1E0,1E0,1.0237189E4,1.9076586E-3,2.7777779E1,4.63107E1,3.3145712E2,1.1155902E0,-1.8175488E-2,-1.0721983E-2,4.7381874E1,4.9803984E3,7.6328583E0,8.9015366E1,1E0,8.679553E-3,8.320114E1,8.042874E0,9.214286E3,4.7540653E1,-1.3629914E-3,-4.8707644E-3,3.670349E-3,7.6158973E-3,1.4285527E2,4.6231174E1,-5.902022E-3,-1.4351527E-3,-1.4459896E-2,-8.428544E-3,-3.469664E-3,-6.1529367E-3,-3.894594E-4,2.0806026E-3,-1.3302485E-3,-1.2791157E-4,1.7928282E-3,4.9939635E-3,7.6404894E-3,1.6407823E-2,-9.4463825E-3,-7.7375415E-4,8.719174E-3,5.87007E-4,-7.3908875E-3,-3.1387426E-3,-2.358028E-3,-5.2609446E-4,4.7558872E-4,-2.9466501E-3,-1.3687202E-3,3.317056E-3,4.327526E-3,1.3994047E-3,-5.340713E-4,4.0102894E-3,1.1028597E-2,6.8803877E-3,6.3491203E-3,1.1246762E-2,1.4432415E-2,5.7664397E-3,9.031372E-3,1.4285006E-2,9.722527E-3,1.6653292E-2],"split_indices":[1,6,6,6,6,1,1,5,1,0,0,6,6,6,6,0,0,0,7,0,6,0,0,2,0,0,5,6,6,1,188,113,0,0,0,1,1,0,0,0,0,0,0,0,5,1,1,6,1,0,1,1,0,2,0,43,3,1,0,1,6,6,423,6,6,1,1,0,0,1,0,4,0,6,0,0,0,4,4,26,27,6,0,7,5,1,0,0,0,5,6,4,1,43,0,1,4,6,5,0,0,0,0,1,5,0,0,0,0,0,0,0,0,0,0,0,0,0,0,0,0,0,0,0,0,0,0,0,0,0,0,0,0,0,0,0,0,0,0,0,0,0,0,0,0],"split_type":[0,0,0,0,0,0,0,0,0,0,0,0,0,0,0,0,0,0,0,0,0,0,0,0,0,0,0,0,0,0,0,0,0,0,0,0,0,0,0,0,0,0,0,0,0,0,0,0,0,0,0,0,0,0,0,0,0,0,0,0,0,0,0,0,0,0,0,0,0,0,0,0,0,0,0,0,0,0,0,0,0,0,0,0,0,0,0,0,0,0,0,0,0,0,0,0,0,0,0,0,0,0,0,0,0,0,0,0,0,0,0,0,0,0,0,0,0,0,0,0,0,0,0,0,0,0,0,0,0,0,0,0,0,0,0,0,0,0,0,0,0,0,0,0,0],"sum_hessian":[9.78E2,2.26E2,7.52E2,1E2,1.26E2,1.33E2,6.19E2,1.5E1,8.5E1,1E2,2.6E1,4.9E1,8.4E1,3.32E2,2.87E2,8E0,7E0,2.1E1,6.4E1,2.5E1,7.5E1,4E0,2.2E1,1.8E1,3.1E1,1E1,7.4E1,1.55E2,1.77E2,4.5E1,2.42E2,5.7E1,7E0,8E0,1.7E1,5.2E1,2.3E1,1.5E1,3E0,1.9E1,1.2E1,9E0,1E0,4E0,7E1,5.1E1,1.04E2,1.52E2,2.5E1,7E0,3.8E1,2.39E2,3E0,5.1E1,6E0,2.2E1,3E1,1.4E1,9E0,4.3E1,2.7E1,2.7E1,2.4E1,6.4E1,4E1,5.9E1,9.3E1,2E1,5E0,6E0,1E0,2.1E1,1.7E1,2.04E2,3.5E1,5E1,1E0,9E0,1.3E1,1.3E1,1.7E1,1.3E1,1E0,1.6E1,2.7E1,1.9E1,8E0,1E1,1.7E1,1.7E1,7E0,3.5E1,2.9E1,2.6E1,1.4E1,2E1,3.9E1,2.8E1,6.5E1,1E0,5E0,4E0,1.7E1,1.18E2,8.6E1,7E0,2E0,6E0,7E0,7E0,6E0,8E0,9E0,2E0,1.1E1,8E0,8E0,5E0,2.2E1,1.5E1,4E0,2E0,6E0,1.3E1,4E0,6E0,1E0,1E1,2.5E1,1.3E1,1.6E1,1.3E1,1.3E1,6E0,1.4E1,2.9E1,1E1,9E0,1.9E1,6.1E1,4E0,4.9E1,6.9E1,5E0,8.1E1],"tree_param":{"num_deleted":"0","num_feature":"425","num_nodes":"145","size_leaf_vector":"1"}},{"base_weights":[-5.489286E-3,-3.314025E-1,9.701238E-2,-6.628101E-1,-6.262319E-2,-7.633773E-1,1.3267133E-1,-1.3000689E0,-5.551199E-1,-1.4392297E-1,1.4614259E-2,-1.228884E0,-2.4697882E-1,-3.7821215E-2,2.0232247E-1,-6.734415E-2,-1.728716E-2,-4.219663E-2,-4.591751E-1,-4.0927765E-1,-4.556123E-2,-7.8326106E-2,-3.0961147E-2,-3.3003643E-1,-1.48563385E-2,-2.764027E-1,1.2950101E-1,1.2616292E-1,2.7585542E-1,-4.7631595E-1,-1.1965554E-2,-2.576767E-2,-1.6085798E-2,-1.1905012E-1,2.9095894E-2,-1.7853826E-2,-6.9451965E-3,-8.3624123E-4,-1.8455983E-4,-3.7544563E-1,-1.6842063E-1,-1.4789838E-1,1.7053805E-1,2.5291411E-2,2.7466744E-1,1.4885797E-1,2.8444558E-1,-2.5169244E-2,-1.5966205E-2,-5.9165955E-2,-1.1088001E-2,-1.5677882E-2,9.004191E-3,-4.2284748E-1,-9.955432E-3,-2.542755E-1,-7.0457414E-2,-3.268014E-1,1.5552426E-2,1.7983335E-1,-5.4563284E-3,-1.04021534E-1,6.217868E-2,2.3411058E-1,3.9850274E-1,-3.7266416E-4,1.688627E-1,2.8722525E-1,2.6404024E-3,-1.0728017E-1,-1.6730182E-2,-9.961929E-2,2.3189934E-2,-2.6479999E-2,-1.8037433E-2,-1.5478167E-2,-9.609337E-3,-8.626305E-2,5.3130787E-2,-2.539714E-2,-8.636892E-3,1.10390685E-1,2.3271984E-1,-8.446173E-3,-5.338912E-2,-2.3957824E-2,9.1503285E-2,2.4227232E-1,5.8941366E-3,1.6724182E-2,2.8103733E-2,5.179208E-3,9.8835705E-3,2.9170206E-1,7.2193146E-3,-6.0698935E-3,-2.4347664E-3,7.763068E-4,-1.1443505E-3,-5.5421772E-3,-1.8240771E-3,-2.8957365E-4,2.1849743E-3,-4.7955317E-3,-1.4195443E-4,3.981137E-3,3.6716463E-6,1.976495E-3,7.939581E-3,1.2454824E-2,-7.254585E-3,-3.211724E-3,-8.6887676E-4,-1.8821392E-3,1.8527905E-3,2.1290302E-3,6.5596364E-3,8.623592E-3,1.2894452E-2,1.4656104E-2,-5.886078E-4],"categories":[],"categories_nodes":[],"categories_segments":[],"categories_sizes":[],"default_left":[0,0,0,0,0,0,0,0,0,0,0,0,0,0,0,0,0,0,0,0,0,0,0,0,0,0,0,0,0,0,0,0,0,0,0,0,0,0,0,0,0,0,0,0,0,0,0,0,0,0,0,0,0,0,0,0,0,0,0,0,0,0,0,0,0,0,0,0,0,0,0,0,0,0,0,0,0,0,0,0,0,0,0,0,0,0,0,0,0,0,0,0,0,0,0,0,0,0,0,0,0,0,0,0,0,0,0,0,0,0,0,0,0,0,0,0,0,0,0,0,0],"id":6,"left_children":[1,3,5,7,9,11,13,15,17,19,-1,21,23,25,27,-1,-1,-1,29,31,33,-1,-1,35,37,39,41,43,45,47,-1,-1,-1,49,51,-1,-1,-1,-1,53,55,57,59,61,63,65,67,-1,-1,69,-1,71,-1,73,-1,75,77,79,-1,81,-1,83,85,87,89,-1,91,93,-1,95,97,99,101,-1,-1,-1,-1,103,105,-1,-1,107,109,-1,111,113,115,117,-1,-1,-1,-1,-1,119,-1,-1,-1,-1,-1,-1,-1,-1,-1,-1,-1,-1,-1,-1,-1,-1,-1,-1,-1,-1,-1,-1,-1,-1,-1,-1,-1],"loss_changes":[3.1835281E1,2.0267706E1,2.234471E1,6.2782173E0,3.7065208E0,6.667713E0,8.284528E0,1.5978813E-1,2.078682E0,2.69583E0,0E0,2.1176472E0,2.842899E-1,8.139552E0,2.7373142E0,0E0,0E0,0E0,1.4604855E-1,9.427166E-2,4.2592198E-1,0E0,0E0,7.251382E-3,4.2574946E-5,8.3513546E-1,1.3912604E0,3.6631227E0,2.3148155E-1,1.06983185E-1,0E0,0E0,0E0,2.2675651E-1,2.6647502E-1,0E0,0E0,0E0,0E0,2.7523136E-1,3.353305E-1,1.4153627E0,2.9257894E-1,7.076581E-1,4.0392065E-1,5.7543963E-2,1.3549805E-1,0E0,0E0,5.1291063E-2,0E0,1.03451364E-1,0E0,2.7711391E-2,0E0,1.6026616E-2,4.5604423E-2,2.4714649E-1,0E0,3.4891295E-1,0E0,9.9423945E-2,2.926729E-1,4.4484615E-2,5.2845E-2,0E0,9.613812E-3,1.0559654E-1,0E0,4.0134788E-3,3.334296E-3,3.042996E-3,1.332979E-2,0E0,0E0,0E0,0E0,1.5019655E-2,4.210933E-3,0E0,0E0,1.5149057E-1,3.888166E-1,0E0,6.6949353E-3,2.644396E-2,1.6140115E-1,3.2915115E-2,0E0,0E0,0E0,0E0,0E0,9.9552155E-2,0E0,0E0,0E0,0E0,0E0,0E0,0E0,0E0,0E0,0E0,0E0,0E0,0E0,0E0,0E0,0E0,0E0,0E0,0E0,0E0,0E0,0E0,0E0,0E0,0E0,0E0,0E0],"parents":[2147483647,0,0,1,1,2,2,3,3,4,4,5,5,6,6,7,7,8,8,9,9,11,11,12,12,13,13,14,14,18,18,19,19,20,20,23,23,24,24,25,25,26,26,27,27,28,28,29,29,33,33,34,34,39,39,40,40,41,41,42,42,43,43,44,44,45,45,46,46,49,49,51,51,53,53,55,55,56,56,57,57,59,59,61,61,62,62,63,63,64,64,66,66,67,67,69,69,70,70,71,71,72,72,77,77,78,78,81,81,82,82,84,84,85,85,86,86,87,87,93,93],"right_children":[2,4,6,8,10,12,14,16,18,20,-1,22,24,26,28,-1,-1,-1,30,32,34,-1,-1,36,38,40,42,44,46,48,-1,-1,-1,50,52,-1,-1,-1,-1,54,56,58,60,62,64,66,68,-1,-1,70,-1,72,-1,74,-1,76,78,80,-1,82,-1,84,86,88,90,-1,92,94,-1,96,98,100,102,-1,-1,-1,-1,104,106,-1,-1,108,110,-1,112,114,116,118,-1,-1,-1,-1,-1,120,-1,-1,-1,-1,-1,-1,-1,-1,-1,-1,-1,-1,-1,-1,-1,-1,-1,-1,-1,-1,-1,-1,-1,-1,-1,-1,-1],"split_conditions":[7.939335E1,6.5170547E3,1.4220958E3,3.2323943E3,1.2686371E4,2.65E2,4.925E3,7.7152306E1,4.3E1,2.1599405E0,1.4614259E-2,1.2040668E3,1E0,1.578048E2,1.1360085E2,-6.734415E-2,-1.728716E-2,-4.219663E-2,6E0,1.8374568E0,3.0517478E0,-7.8326106E-2,-3.0961147E-2,5.7666726E0,5.5253496E0,3.9821995E3,1.6467163E3,7.671765E3,4.6148254E1,1E0,-1.1965554E-2,-2.576767E-2,-1.6085798E-2,1E0,1E0,-1.7853826E-2,-6.9451965E-3,-8.3624123E-4,-1.8455983E-4,4.823382E0,1.02040054E2,7.9949822E0,1E0,5.6281567E3,1.0272671E4,3.501167E0,1E0,-2.5169244E-2,-1.5966205E-2,1E0,-1.1088001E-2,7.5E3,9.004191E-3,2.8333333E3,-9.955432E-3,9.1E1,1.2804964E2,6.45217E0,1.5552426E-2,1.9691621E2,-5.4563284E-3,9.734786E1,8.998613E1,4.7559036E1,9.581357E1,-3.7266416E-4,1.340899E2,1E0,2.6404024E-3,2.7485807E0,5.6E1,6.9960137E3,4.7487133E1,-2.6479999E-2,-1.8037433E-2,-1.5478167E-2,-9.609337E-3,4.849287E3,5.0649137E0,-2.539714E-2,-8.636892E-3,4.0354612E3,4.7476475E1,-8.446173E-3,3.581986E0,7.286822E3,6.8533745E3,8.281655E1,5.8941366E-3,1.6724182E-2,2.8103733E-2,5.179208E-3,9.8835705E-3,1E0,7.2193146E-3,-6.0698935E-3,-2.4347664E-3,7.763068E-4,-1.1443505E-3,-5.5421772E-3,-1.8240771E-3,-2.8957365E-4,2.1849743E-3,-4.7955317E-3,-1.4195443E-4,3.981137E-3,3.6716463E-6,1.976495E-3,7.939581E-3,1.2454824E-2,-7.254585E-3,-3.211724E-3,-8.6887676E-4,-1.8821392E-3,1.8527905E-3,2.1290302E-3,6.5596364E-3,8.623592E-3,1.2894452E-2,1.4656104E-2,-5.886078E-4],"split_indices":[1,6,6,6,6,1,6,1,1,0,0,6,30,1,1,0,0,0,2,0,0,0,0,0,0,6,6,6,5,13,0,0,0,43,45,0,0,0,0,0,1,0,139,6,6,0,90,0,0,25,0,6,0,6,0,1,1,0,0,1,0,1,1,5,1,0,1,21,0,0,1,6,5,0,0,0,0,6,0,0,0,6,5,0,0,6,6,1,0,0,0,0,0,76,0,0,0,0,0,0,0,0,0,0,0,0,0,0,0,0,0,0,0,0,0,0,0,0,0,0,0],"split_type":[0,0,0,0,0,0,0,0,0,0,0,0,0,0,0,0,0,0,0,0,0,0,0,0,0,0,0,0,0,0,0,0,0,0,0,0,0,0,0,0,0,0,0,0,0,0,0,0,0,0,0,0,0,0,0,0,0,0,0,0,0,0,0,0,0,0,0,0,0,0,0,0,0,0,0,0,0,0,0,0,0,0,0,0,0,0,0,0,0,0,0,0,0,0,0,0,0,0,0,0,0,0,0,0,0,0,0,0,0,0,0,0,0,0,0,0,0,0,0,0,0],"sum_hessian":[9.51E2,2.27E2,7.24E2,1.01E2,1.26E2,2.8E1,6.96E2,1.3E1,8.8E1,1.03E2,2.3E1,1.4E1,1.4E1,2.02E2,4.94E2,1.2E1,1E0,2E1,6.8E1,2.7E1,7.6E1,8E0,6E0,1E1,4E0,8.3E1,1.19E2,2.44E2,2.5E2,6.2E1,6E0,1E1,1.7E1,3.8E1,3.8E1,8E0,2E0,3E0,1E0,4.2E1,4.1E1,1.5E1,1.04E2,1.46E2,9.8E1,1.7E1,2.33E2,5.1E1,1.1E1,2.5E1,1.3E1,3E1,8E0,3.2E1,1E1,2.1E1,2E1,1.1E1,4E0,1.01E2,3E0,3.2E1,1.14E2,7.6E1,2.2E1,2E0,1.5E1,2.3E2,3E0,1.1E1,1.4E1,9E0,2.1E1,9E0,2.3E1,9E0,1.2E1,1.8E1,2E0,4E0,7E0,4.5E1,5.6E1,1.3E1,1.9E1,2.9E1,8.5E1,7E1,6E0,1.8E1,4E0,6E0,9E0,2.22E2,8E0,8E0,3E0,2E0,1.2E1,7E0,2E0,9E0,1.2E1,1.6E1,2E0,1E0,1E0,1.9E1,2.6E1,5.4E1,2E0,1.4E1,5E0,2.4E1,5E0,3.9E1,4.6E1,1.5E1,5.5E1,2.21E2,1E0],"tree_param":{"num_deleted":"0","num_feature":"425","num_nodes":"121","size_leaf_vector":"1"}},{"base_weights":[4.25839E-3,-9.38434E-1,3.669054E-2,-1.4153405E0,-3.0358392E-1,-2.0974004E-1,1.4425714E-1,-1.476636E0,-9.3329195E-3,-3.745533E-1,-1.4779806E-2,-5.6155545E-1,-2.0337533E-2,-1.3745313E-2,2.1380877E-1,-8.1038706E-2,-3.0149711E-2,-2.3040105E-2,-1.0575208E-2,-8.653641E-4,-1.799345E-4,-7.6313865E-1,-4.6285057E-1,-1.0466531E-1,2.0944077E-1,-2.4245079E-1,1.2953979E-1,1.5464544E-1,2.6922923E-1,-4.9149953E-2,-3.0581689E-2,-3.4107443E-2,-3.7207568E-1,-4.3477157E-1,-3.3627998E-2,2.4560954E-1,-4.782595E-2,-3.2367668E-1,-1.5500821E-1,1.4197628E-1,-2.0762285E-2,6.809513E-2,2.8617528E-1,2.5461036E-1,1.7067112E-2,-4.0384552E-1,-1.0991786E-2,-4.612899E-1,-9.3428735E-3,-8.463734E-2,1.1031907E-1,9.072163E-3,1.4815367E-2,-6.584573E-3,-1.1899789E-2,-1.8335268E-2,-9.815169E-3,-1.099163E-2,-6.716686E-2,1.9194017E-1,8.482204E-3,-1.9297618E-2,1.1870152E-1,2.2492227E-1,3.5924038E-1,2.1959823E-1,2.9867896E-1,-2.1201273E-2,-1.2262679E-2,-2.52323E-2,-1.34396E-2,-1.8465479E-1,-1.9537082E-2,3.754425E-2,9.540428E-3,-2.354622E-4,-7.158876E-4,-8.4748626E-2,4.899152E-2,-1.4698601E-2,2.0090437E-1,-1.7818451E-1,1.4805813E-1,-6.266739E-2,1.7016752E-2,7.359235E-2,1.7002022E-1,1.314959E-1,2.3958692E-1,1.6150165E-2,2.6690228E-2,1.6563389E-1,1.322531E-2,3.137663E-1,1.1527519E-2,-1.318445E-2,-5.2071786E-3,-3.985296E-3,1.0279625E-3,1.0777855E-2,-2.8063456E-5,-5.2102306E-3,-1.7477274E-3,-2.0723343E-4,3.8815977E-3,6.642546E-3,1.2671503E-2,-1.5873933E-2,-7.2778943E-3,3.486429E-4,1.0401259E-2,-3.679302E-3,-9.7334385E-4,-8.0369954E-4,2.5627818E-3,1.5497233E-3,4.948182E-3,9.136527E-3,4.896325E-3,1.835227E-3,6.9378377E-3,1.2617888E-2,7.6883077E-3,8.38543E-3,1.3918638E-3,1.6131293E-2,8.569996E-3],"categories":[],"categories_nodes":[],"categories_segments":[],"categories_sizes":[],"default_left":[0,0,0,0,0,0,0,0,0,0,0,0,0,0,0,0,0,0,0,0,0,0,0,0,0,0,0,0,0,0,0,0,0,0,0,0,0,0,0,0,0,0,0,0,0,0,0,0,0,0,0,0,0,0,0,0,0,0,0,0,0,0,0,0,0,0,0,0,0,0,0,0,0,0,0,0,0,0,0,0,0,0,0,0,0,0,0,0,0,0,0,0,0,0,0,0,0,0,0,0,0,0,0,0,0,0,0,0,0,0,0,0,0,0,0,0,0,0,0,0,0,0,0,0,0,0,0],"id":7,"left_children":[1,3,5,7,9,11,13,15,-1,17,19,21,23,25,27,-1,-1,-1,-1,-1,-1,29,31,33,35,37,39,41,43,-1,-1,-1,45,47,49,51,53,55,57,59,-1,61,63,65,-1,67,-1,69,-1,71,73,-1,-1,-1,75,-1,-1,-1,77,79,81,83,85,87,89,91,93,-1,-1,-1,-1,95,97,99,-1,-1,-1,101,103,-1,105,107,109,111,113,115,117,119,121,-1,-1,123,-1,125,-1,-1,-1,-1,-1,-1,-1,-1,-1,-1,-1,-1,-1,-1,-1,-1,-1,-1,-1,-1,-1,-1,-1,-1,-1,-1,-1,-1,-1,-1,-1,-1,-1],"loss_changes":[2.9415606E1,9.258776E0,2.4682419E1,1.0800018E0,3.0190802E-1,1.8846203E1,7.1240225E0,1.1634102E0,0E0,7.129192E-2,5.075644E-5,1.6166077E0,3.606609E0,6.5526543E0,1.4338531E0,0E0,0E0,0E0,0E0,0E0,0E0,4.313736E-1,1.1197557E0,3.174561E0,4.769976E-1,4.9672747E-1,8.9230776E-1,2.484981E0,1.566124E-1,0E0,0E0,0E0,1.5788937E-1,7.158661E-2,8.390559E-1,8.937287E-2,1.9523662E-2,1.4176226E-1,2.073108E-1,8.0542755E-1,0E0,5.9492314E-1,3.085637E-1,2.3682594E-1,0E0,2.722168E-2,0E0,3.9619923E-2,0E0,5.433299E-1,1.6856447E-1,0E0,0E0,0E0,3.6893005E-5,0E0,0E0,0E0,4.0912814E-2,4.423716E-1,9.1222376E-1,7.98137E-2,1.842581E-1,3.699851E-2,6.7955494E-2,2.3003626E-1,1.40028E-2,0E0,0E0,0E0,0E0,1.8252206E-1,1.2709127E-1,1.1543661E-1,0E0,0E0,0E0,1.1858262E-2,4.8872884E-3,0E0,2.77318E-1,2.1958977E-2,1.677588E-1,9.416401E-3,3.2547604E-2,4.772857E-2,1.784277E-2,1.1013895E-3,7.228136E-3,0E0,0E0,1.0769367E-2,0E0,2.7947903E-2,0E0,0E0,0E0,0E0,0E0,0E0,0E0,0E0,0E0,0E0,0E0,0E0,0E0,0E0,0E0,0E0,0E0,0E0,0E0,0E0,0E0,0E0,0E0,0E0,0E0,0E0,0E0,0E0,0E0,0E0,0E0,0E0,0E0],"parents":[2147483647,0,0,1,1,2,2,3,3,4,4,5,5,6,6,7,7,9,9,10,10,11,11,12,12,13,13,14,14,21,21,22,22,23,23,24,24,25,25,26,26,27,27,28,28,32,32,33,33,34,34,35,35,36,36,37,37,38,38,39,39,41,41,42,42,43,43,45,45,47,47,49,49,50,50,54,54,58,58,59,59,60,60,61,61,62,62,63,63,64,64,65,65,66,66,71,71,72,72,73,73,77,77,78,78,80,80,81,81,82,82,83,83,84,84,85,85,86,86,87,87,88,88,91,91,93,93],"right_children":[2,4,6,8,10,12,14,16,-1,18,20,22,24,26,28,-1,-1,-1,-1,-1,-1,30,32,34,36,38,40,42,44,-1,-1,-1,46,48,50,52,54,56,58,60,-1,62,64,66,-1,68,-1,70,-1,72,74,-1,-1,-1,76,-1,-1,-1,78,80,82,84,86,88,90,92,94,-1,-1,-1,-1,96,98,100,-1,-1,-1,102,104,-1,106,108,110,112,114,116,118,120,122,-1,-1,124,-1,126,-1,-1,-1,-1,-1,-1,-1,-1,-1,-1,-1,-1,-1,-1,-1,-1,-1,-1,-1,-1,-1,-1,-1,-1,-1,-1,-1,-1,-1,-1,-1,-1,-1],"split_conditions":[1.4220958E3,4.646843E1,8.8019325E1,2.65E2,1E0,6.354402E3,4.925E3,1E0,-9.3329195E-3,4.7447884E1,5.507589E0,4.1190493E3,1E0,1.578048E2,1.1781468E2,-8.1038706E-2,-3.0149711E-2,-2.3040105E-2,-1.0575208E-2,-8.653641E-4,-1.799345E-4,6.463258E1,5.095039E1,4.9E1,9.497023E0,3.9821995E3,1E0,7.457774E3,1.749322E2,-4.9149953E-2,-3.0581689E-2,-3.4107443E-2,2.399556E1,7.935244E0,9.768845E3,4.7375797E1,2.8985243E0,4.823382E0,1.02040054E2,4.737078E1,-2.0762285E-2,6.222663E3,9.214286E3,6.3953486E3,1.7067112E-2,1E0,-1.0991786E-2,1E0,-9.3428735E-3,6.8E1,1E0,9.072163E-3,1.4815367E-2,-6.584573E-3,1E0,-1.8335268E-2,-9.815169E-3,-1.099163E-2,8.006851E0,1.0056907E0,2.4907449E3,5.6281567E3,1.0430115E2,9.368055E1,1.1276071E4,1.4285527E2,1E0,-2.1201273E-2,-1.2262679E-2,-2.52323E-2,-1.34396E-2,7.7207827E3,6.887132E3,6.69194E0,9.540428E-3,-2.354622E-4,-7.158876E-4,4.715366E3,3.4101045E0,-1.4698601E-2,4.639361E1,1.9691621E2,6.1538696E0,4.206105E0,1.0619677E2,9.368055E1,4.6479464E0,7.135482E0,1E0,1.6150165E-2,2.6690228E-2,1E0,1.322531E-2,1E0,1.1527519E-2,-1.318445E-2,-5.2071786E-3,-3.985296E-3,1.0279625E-3,1.0777855E-2,-2.8063456E-5,-5.2102306E-3,-1.7477274E-3,-2.0723343E-4,3.8815977E-3,6.642546E-3,1.2671503E-2,-1.5873933E-2,-7.2778943E-3,3.486429E-4,1.0401259E-2,-3.679302E-3,-9.7334385E-4,-8.0369954E-4,2.5627818E-3,1.5497233E-3,4.948182E-3,9.136527E-3,4.896325E-3,1.835227E-3,6.9378377E-3,1.2617888E-2,7.6883077E-3,8.38543E-3,1.3918638E-3,1.6131293E-2,8.569996E-3],"split_indices":[6,5,1,1,98,6,6,79,0,5,0,6,15,1,1,0,0,0,0,0,0,1,1,1,4,6,71,6,1,0,0,0,7,4,6,5,0,0,1,5,0,6,6,6,0,113,0,30,0,1,45,0,0,0,2,0,0,0,4,0,6,6,1,1,6,1,30,0,0,0,0,6,6,4,0,0,0,6,0,0,5,1,4,0,1,1,0,4,415,0,0,90,0,41,0,0,0,0,0,0,0,0,0,0,0,0,0,0,0,0,0,0,0,0,0,0,0,0,0,0,0,0,0,0,0,0,0],"split_type":[0,0,0,0,0,0,0,0,0,0,0,0,0,0,0,0,0,0,0,0,0,0,0,0,0,0,0,0,0,0,0,0,0,0,0,0,0,0,0,0,0,0,0,0,0,0,0,0,0,0,0,0,0,0,0,0,0,0,0,0,0,0,0,0,0,0,0,0,0,0,0,0,0,0,0,0,0,0,0,0,0,0,0,0,0,0,0,0,0,0,0,0,0,0,0,0,0,0,0,0,0,0,0,0,0,0,0,0,0,0,0,0,0,0,0,0,0,0,0,0,0,0,0,0,0,0,0],"sum_hessian":[9.6E2,3.1E1,9.29E2,1.7E1,1.4E1,2.82E2,6.47E2,1.6E1,1E0,1.1E1,3E0,9.8E1,1.84E2,1.98E2,4.49E2,1.3E1,3E0,6E0,5E0,2E0,1E0,3E1,6.8E1,1.35E2,4.9E1,7.6E1,1.22E2,2.19E2,2.3E2,1E1,2E1,1.8E1,5E1,2.3E1,1.12E2,4.3E1,6E0,3.8E1,3.8E1,1.2E2,2E0,1.33E2,8.6E1,1.95E2,3.5E1,4E1,1E1,2E1,3E0,8.3E1,2.9E1,2.1E1,2.2E1,1E0,5E0,2.7E1,1.1E1,2.1E1,1.7E1,8.7E1,3.3E1,4.9E1,8.4E1,4.9E1,3.7E1,1.12E2,8.3E1,3.4E1,6E0,1.5E1,5E0,3.2E1,5.1E1,1.6E1,1.3E1,2E0,3E0,1.5E1,2E0,1E0,8.6E1,1.4E1,1.9E1,2.2E1,2.7E1,4.6E1,3.8E1,8E0,4.1E1,3.3E1,4E0,5.3E1,5.9E1,6.5E1,1.8E1,1.5E1,1.7E1,2E1,3.1E1,2E0,1.4E1,1E1,5E0,1E0,1E0,3.9E1,4.7E1,1E0,1.3E1,6E0,1.3E1,1.7E1,5E0,1.4E1,1.3E1,1.8E1,2.8E1,3.1E1,7E0,1E0,7E0,3.4E1,7E0,5.2E1,1E0,6E1,5E0],"tree_param":{"num_deleted":"0","num_feature":"425","num_nodes":"127","size_leaf_vector":"1"}},{"base_weights":[7.0235627E-3,-2.6890257E-1,9.5294915E-2,-5.7427007E-1,-2.7238062E-2,-1.00482896E-1,1.8585731E-1,-1.0648749E0,-4.6362117E-1,-1.1546388E-1,2.5824E-1,-3.3428118E-1,6.478614E-2,1.2240727E-1,2.4729492E-1,-7.658732E-2,-4.346921E-2,-3.2899257E-2,-3.8090575E-1,-3.2799605E-1,-4.0246557E-2,2.6698387E-1,-1.0187626E-4,-7.752296E-1,-2.2113442E-1,-2.2740822E-1,1.4687146E-1,-1.1834663E-2,2.1824302E-1,1.3636619E-1,2.5379518E-1,-3.9733645E-1,-9.752254E-3,-3.4715423E-1,-6.539854E-2,-1.1024191E-1,3.462008E-2,7.1462058E-3,1.4028645E-2,-4.22291E-2,-1.5200615E-2,-2.7977145E-1,-1.5018167E-1,-2.919243E-1,1.324637E-2,1.6055253E-1,-5.3952537E-3,-9.0506E-2,2.1735832E-2,1.9051209E-1,3.891969E-1,-6.3975656E-4,1.5858889E-1,2.5622877E-1,2.4599195E-3,-2.0607641E-2,-1.1737149E-2,-2.2888565E-2,-1.4242507E-2,-4.4870614E-3,-4.1782856E-4,-1.4833635E-1,3.322135E-2,1.0876901E-2,1.3482271E-1,-3.0598414E-1,-6.6698017E-3,-1.0374299E-2,-6.2001884E-2,-2.5594357E-2,-1.7236695E-1,9.056709E-2,2.0686647E-1,-7.7306232E-3,-4.7516823E-2,-3.519481E-2,4.6984244E-2,1.3165875E-1,2.3063146E-1,1.4899095E-2,2.685829E-2,5.7100933E-3,9.936897E-3,2.5895965E-1,4.022732E-3,-9.185346E-2,-2.1036175E-1,-7.7416557E-3,5.886396E-3,-8.9409975E-3,1.950242E-3,-2.2076608E-3,8.600545E-3,-1.6399587E-2,-9.673024E-3,-7.1370535E-2,1.19288765E-4,1.0571027E-2,-2.0543405E-1,1.3779461E-2,1.3271654E-1,2.3308517E-1,7.3093176E-3,-2.971278E-3,-1.6911235E-2,-4.7508184E-2,-2.6307788E-4,1.0525749E-2,7.016631E-2,6.145583E-2,8.155151E-3,1.9804388E-1,1.3662279E-2,2.6293892E-1,6.64578E-3,-2.9758082E-3,-5.588584E-3,-7.6159798E-3,-1.3118236E-2,-1.3145209E-4,-5.459428E-4,3.6119818E-4,-9.4862777E-4,-3.8119429E-3,-2.0205975E-4,-6.868376E-3,-1.7746678E-2,2.1835873E-3,-4.2615412E-4,3.620114E-3,7.325073E-3,1.2087433E-2,-5.4353955E-3,-2.8145155E-3,1.8945456E-3,-1.1187434E-3,-3.6098956E-4,-1.2799025E-3,-3.4478665E-3,-1.137352E-4,1.5886626E-4,-4.0677143E-4,1.8155627E-3,1.9718918E-3,4.5084055E-3,2.0382405E-4,3.632997E-3,1.0239309E-2,5.157423E-3,1.3211997E-2,-5.495548E-4],"categories":[],"categories_nodes":[],"categories_segments":[],"categories_sizes":[],"default_left":[0,0,0,0,0,0,0,0,0,0,0,0,0,0,0,0,0,0,0,0,0,0,0,0,0,0,0,0,0,0,0,0,0,0,0,0,0,0,0,0,0,0,0,0,0,0,0,0,0,0,0,0,0,0,0,0,0,0,0,0,0,0,0,0,0,0,0,0,0,0,0,0,0,0,0,0,0,0,0,0,0,0,0,0,0,0,0,0,0,0,0,0,0,0,0,0,0,0,0,0,0,0,0,0,0,0,0,0,0,0,0,0,0,0,0,0,0,0,0,0,0,0,0,0,0,0,0,0,0,0,0,0,0,0,0,0,0,0,0,0,0,0,0,0,0,0,0,0,0,0,0],"id":8,"left_children":[1,3,5,7,9,11,13,15,17,19,21,23,25,27,29,-1,-1,-1,31,33,35,37,-1,39,41,43,45,47,49,51,53,55,-1,57,59,61,63,-1,-1,-1,-1,65,67,69,-1,71,-1,73,75,77,79,-1,81,83,-1,-1,-1,-1,-1,-1,-1,85,87,89,91,93,-1,-1,95,-1,97,99,101,-1,103,105,107,109,111,-1,-1,-1,-1,113,-1,115,117,119,-1,121,-1,-1,-1,-1,-1,123,-1,-1,125,127,129,131,133,-1,135,137,139,141,143,145,-1,147,-1,149,-1,-1,-1,-1,-1,-1,-1,-1,-1,-1,-1,-1,-1,-1,-1,-1,-1,-1,-1,-1,-1,-1,-1,-1,-1,-1,-1,-1,-1,-1,-1,-1,-1,-1,-1,-1,-1],"loss_changes":[2.321289E1,1.7031345E1,1.2819814E1,5.0433617E0,3.3040674E0,8.870129E0,1.8954468E0,3.1116486E-1,1.1159058E0,1.5854094E0,7.109475E-2,4.5682983E0,3.271357E0,3.1545515E0,1.456585E-1,0E0,0E0,0E0,1.1183834E-1,1.080997E-1,3.9684033E-1,1.047492E-2,0E0,3.6415768E-1,2.783382E-1,1.0302455E0,3.8679957E-1,2.7399388E-1,6.03775E-1,5.5065453E-2,1.04400635E-1,3.815651E-2,0E0,3.5009146E-2,3.4157364E-3,2.1806887E-1,8.656131E-2,0E0,0E0,0E0,0E0,1.1649561E-1,1.7409945E-1,6.218183E-1,0E0,3.086362E-1,0E0,7.808572E-2,1.065844E-1,2.6478004E-1,9.6377134E-2,0E0,2.2531152E-3,9.0530396E-2,0E0,0E0,0E0,0E0,0E0,0E0,0E0,8.9282155E-2,3.2066192E-2,1.7629279E-2,5.418536E-2,2.074337E-2,0E0,0E0,9.821877E-3,0E0,2.8455716E-1,1.341066E-1,3.1222415E-1,0E0,6.28452E-3,9.880431E-3,4.236581E-2,1.0697287E-1,4.7259808E-2,0E0,0E0,0E0,0E0,7.940769E-2,0E0,4.9415976E-3,2.2938251E-3,8.500044E-5,0E0,3.2180925E-3,0E0,0E0,0E0,0E0,0E0,4.2808354E-3,0E0,0E0,1.3441008E-1,1.1039001E-2,1.1841476E-2,1.8321943E-1,1.7692715E-2,0E0,2.0911149E-4,6.22404E-3,5.5673103E-5,1.0400355E-2,1.5497312E-2,1.1275724E-2,0E0,7.6681376E-3,0E0,8.130932E-2,0E0,0E0,0E0,0E0,0E0,0E0,0E0,0E0,0E0,0E0,0E0,0E0,0E0,0E0,0E0,0E0,0E0,0E0,0E0,0E0,0E0,0E0,0E0,0E0,0E0,0E0,0E0,0E0,0E0,0E0,0E0,0E0,0E0,0E0,0E0,0E0,0E0],"parents":[2147483647,0,0,1,1,2,2,3,3,4,4,5,5,6,6,7,7,8,8,9,9,10,10,11,11,12,12,13,13,14,14,18,18,19,19,20,20,21,21,23,23,24,24,25,25,26,26,27,27,28,28,29,29,30,30,31,31,33,33,34,34,35,35,36,36,41,41,42,42,43,43,45,45,47,47,48,48,49,49,50,50,52,52,53,53,61,61,62,62,63,63,64,64,65,65,68,68,70,70,71,71,72,72,74,74,75,75,76,76,77,77,78,78,83,83,85,85,86,86,87,87,89,89,95,95,98,98,99,99,100,100,101,101,102,102,104,104,105,105,106,106,107,107,108,108,109,109,111,111,113,113],"right_children":[2,4,6,8,10,12,14,16,18,20,22,24,26,28,30,-1,-1,-1,32,34,36,38,-1,40,42,44,46,48,50,52,54,56,-1,58,60,62,64,-1,-1,-1,-1,66,68,70,-1,72,-1,74,76,78,80,-1,82,84,-1,-1,-1,-1,-1,-1,-1,86,88,90,92,94,-1,-1,96,-1,98,100,102,-1,104,106,108,110,112,-1,-1,-1,-1,114,-1,116,118,120,-1,122,-1,-1,-1,-1,-1,124,-1,-1,126,128,130,132,134,-1,136,138,140,142,144,146,-1,148,-1,150,-1,-1,-1,-1,-1,-1,-1,-1,-1,-1,-1,-1,-1,-1,-1,-1,-1,-1,-1,-1,-1,-1,-1,-1,-1,-1,-1,-1,-1,-1,-1,-1,-1,-1,-1,-1,-1],"split_conditions":[7.939335E1,6.6362397E3,4.925E3,4.0146565E3,1.1746614E4,1.5485796E2,1.1360085E2,1.2703402E3,5E1,2.3585675E0,3E0,2.8333333E3,1.6467163E3,7.0565693E3,4.6148254E1,-7.658732E-2,-4.346921E-2,-3.2899257E-2,2.4758814E1,5.8027966E1,1E0,2.2626224E0,-1.0187626E-4,1.514465E2,4.1899443E3,7.9949822E0,1E0,5.6281567E3,1.0272671E4,3.501167E0,1E0,1E0,-9.752254E-3,1.8374568E0,2.1599405E0,9.852047E3,1E0,7.1462058E-3,1.4028645E-2,-4.22291E-2,-1.5200615E-2,1.2494216E2,1.02040054E2,1.9691621E2,1.324637E-2,1.9691621E2,-5.3952537E-3,9.703002E1,8.9015366E1,7.876799E3,9.5E1,-6.3975656E-4,1.4285527E2,1E0,2.4599195E-3,-2.0607641E-2,-1.1737149E-2,-2.2888565E-2,-1.4242507E-2,-4.4870614E-3,-4.1782856E-4,1E0,5.475983E1,1E0,2.5254948E0,4.823382E0,-6.6698017E-3,-1.0374299E-2,5.491151E0,-2.5594357E-2,6.868208E0,7.5878263E0,2E0,-7.7306232E-3,3.581986E0,1E0,6.222663E3,9.703002E1,9.765137E1,1.4899095E-2,2.685829E-2,5.7100933E-3,9.936897E-3,1E0,4.022732E-3,1E0,3E0,3.501167E0,5.886396E-3,2.2444445E1,1.950242E-3,-2.2076608E-3,8.600545E-3,-1.6399587E-2,-9.673024E-3,8.006851E0,1.19288765E-4,1.0571027E-2,7.158986E0,6.2281055E0,4.0865693E3,4.7476475E1,9.92755E0,-2.971278E-3,1.0646965E2,1E0,3.5035074E0,1.014288E2,9.525936E1,8.518301E1,8.155151E-3,8.85249E0,1.3662279E-2,1E0,6.64578E-3,-2.9758082E-3,-5.588584E-3,-7.6159798E-3,-1.3118236E-2,-1.3145209E-4,-5.459428E-4,3.6119818E-4,-9.4862777E-4,-3.8119429E-3,-2.0205975E-4,-6.868376E-3,-1.7746678E-2,2.1835873E-3,-4.2615412E-4,3.620114E-3,7.325073E-3,1.2087433E-2,-5.4353955E-3,-2.8145155E-3,1.8945456E-3,-1.1187434E-3,-3.6098956E-4,-1.2799025E-3,-3.4478665E-3,-1.137352E-4,1.5886626E-4,-4.0677143E-4,1.8155627E-3,1.9718918E-3,4.5084055E-3,2.0382405E-4,3.632997E-3,1.0239309E-2,5.157423E-3,1.3211997E-2,-5.495548E-4],"split_indices":[1,6,6,6,6,1,1,6,1,0,2,6,6,6,5,0,0,0,7,1,3,0,0,1,6,0,139,6,6,0,90,113,0,0,0,6,45,0,0,0,0,1,1,1,0,1,0,1,1,6,1,0,1,83,0,0,0,0,0,0,0,45,1,27,0,0,0,0,0,0,4,4,2,0,0,30,6,1,1,0,0,0,0,21,0,26,2,0,0,7,0,0,0,0,0,4,0,0,4,0,6,5,0,0,1,43,0,1,1,1,0,4,0,76,0,0,0,0,0,0,0,0,0,0,0,0,0,0,0,0,0,0,0,0,0,0,0,0,0,0,0,0,0,0,0,0,0,0,0,0,0],"split_type":[0,0,0,0,0,0,0,0,0,0,0,0,0,0,0,0,0,0,0,0,0,0,0,0,0,0,0,0,0,0,0,0,0,0,0,0,0,0,0,0,0,0,0,0,0,0,0,0,0,0,0,0,0,0,0,0,0,0,0,0,0,0,0,0,0,0,0,0,0,0,0,0,0,0,0,0,0,0,0,0,0,0,0,0,0,0,0,0,0,0,0,0,0,0,0,0,0,0,0,0,0,0,0,0,0,0,0,0,0,0,0,0,0,0,0,0,0,0,0,0,0,0,0,0,0,0,0,0,0,0,0,0,0,0,0,0,0,0,0,0,0,0,0,0,0,0,0,0,0,0,0],"sum_hessian":[9.51E2,2.3E2,7.21E2,1.01E2,1.29E2,2.28E2,4.93E2,1.7E1,8.4E1,9.9E1,3E1,9.4E1,1.34E2,2.44E2,2.49E2,3E0,1.4E1,2.3E1,6.1E1,2.5E1,7.4E1,2.9E1,1E0,1.8E1,7.6E1,2.9E1,1.05E2,1.02E2,1.42E2,1.5E1,2.34E2,5.5E1,6E0,2.3E1,2E0,3.8E1,3.6E1,4E0,2.5E1,1.5E1,3E0,4E1,3.6E1,2.6E1,3E0,1E2,5E0,3E1,7.2E1,1.24E2,1.8E1,2E0,1.3E1,2.31E2,3E0,4.9E1,6E0,6E0,1.7E1,1E0,1E0,3E1,8E0,3E1,6E0,3.3E1,7E0,2.1E1,1.5E1,8E0,1.8E1,4.1E1,5.9E1,1.1E1,1.9E1,2.2E1,5E1,5.2E1,7.2E1,1.3E1,5E0,8E0,5E0,2.27E2,4E0,1.7E1,1.3E1,6E0,2E0,1.8E1,1.2E1,1E0,5E0,2.6E1,7E0,1.3E1,2E0,1E0,1.7E1,1.5E1,2.6E1,5.2E1,7E0,1.3E1,6E0,1.6E1,6E0,2E1,3E1,1.7E1,3.5E1,4.4E1,2.8E1,2.19E2,8E0,8E0,9E0,8E0,5E0,3E0,3E0,7E0,1.1E1,1.2E1,1E0,1.3E1,4E0,6E0,9E0,6E0,2E1,5.1E1,1E0,2E0,5E0,3E0,3E0,9E0,7E0,4E0,2E0,1.2E1,8E0,1.3E1,1.7E1,3E0,1.4E1,4E1,4E0,2.18E2,1E0],"tree_param":{"num_deleted":"0","num_feature":"425","num_nodes":"151","size_leaf_vector":"1"}},{"base_weights":[1.4981356E-3,-9.895158E-1,2.8367821E-2,-1.4957412E0,-2.0925245E-1,-2.3653397E-1,1.0828406E-1,-1.0048898E-1,-5.1887196E-2,-3.228219E-1,-8.404732E-3,-5.3047794E-1,-2.3002038E-2,-3.7903175E-2,1.7721021E-1,-4.519749E-3,-1.7324694E-2,-6.0758594E-4,-1.8561681E-3,-8.216889E-1,-4.4626284E-1,-9.949023E-2,2.5830662E-1,-2.4137993E-1,8.9358225E-2,1.2076414E-1,2.4008681E-1,-1.3549328E-4,-3.71933E-6,-8.744524E-1,-2.0260632E-2,-3.1875215E-2,-3.656762E-1,-3.4929028E-1,-2.7758293E-2,6.329632E-3,1.3474809E-2,-2.3768323E-2,-1.9448406E-1,-1.8047935E-1,1.380838E-1,3.0991841E-2,2.3775503E-1,2.2332244E-1,1.5059806E-2,-4.6058018E-2,-1.8249894E-2,-3.777662E-1,-8.702955E-3,-4.0655288E-1,-1.2753417E-2,-8.3419226E-2,8.6772E-2,-7.901635E-2,-2.3224959E-1,-3.3953977E-1,1.5013583E-2,1.4961612E-1,-5.2983207E-3,-1.3331946E-2,9.297305E-2,2.0973171E-1,3.3585593E-1,1.7233308E-1,2.6433036E-1,-3.880941E-1,-1.0463085E-2,-2.1946145E-2,-8.156761E-3,-1.8480219E-1,-4.5849703E-2,-2.9236248E-3,1.7669252E-1,-7.5584822E-3,-3.729568E-2,-2.5173894E-1,-1.0250081E-1,-2.4241278E-2,-7.8263655E-3,1.5576279E-1,-6.5890155E-3,-3.9292537E-2,5.1583596E-2,3.844541E-2,1.4118731E-1,2.1707526E-1,5.412197E-3,4.6310904E-3,1.7135097E-2,1.3809638E-1,1.1182609E-2,2.3945768E-1,1.5340971E-2,-1.9587113E-2,-5.689359E-3,-1.1980137E-2,-6.3867467E-3,-4.850092E-3,2.5249665E-4,4.6728455E-4,-5.3891604E-4,1.757288E-3,9.277964E-3,-2.5622954E-3,3.6014318E-3,-1.4207403E-2,-8.458072E-3,-5.7983818E-3,1.3084411E-4,4.630626E-3,9.264421E-3,-6.2381267E-3,-1.2159948E-3,3.4702222E-3,2.5193693E-4,-4.911529E-4,2.8222043E-3,4.665337E-3,7.7933185E-3,1.0969032E-2,7.5848104E-4,-5.1269535E-4,7.0573227E-3,1.2399267E-2,8.302574E-3],"categories":[],"categories_nodes":[],"categories_segments":[],"categories_sizes":[],"default_left":[0,0,0,0,0,0,0,0,0,0,0,0,0,0,0,0,0,0,0,0,0,0,0,0,0,0,0,0,0,0,0,0,0,0,0,0,0,0,0,0,0,0,0,0,0,0,0,0,0,0,0,0,0,0,0,0,0,0,0,0,0,0,0,0,0,0,0,0,0,0,0,0,0,0,0,0,0,0,0,0,0,0,0,0,0,0,0,0,0,0,0,0,0,0,0,0,0,0,0,0,0,0,0,0,0,0,0,0,0,0,0,0,0,0,0,0,0,0,0,0,0,0,0,0,0],"id":9,"left_children":[1,3,5,7,9,11,13,-1,-1,15,17,19,21,23,25,-1,-1,-1,27,29,31,33,35,37,39,41,43,-1,-1,45,-1,-1,47,49,51,-1,-1,-1,53,55,57,59,61,63,-1,-1,-1,65,-1,67,-1,69,71,73,75,77,-1,79,-1,81,83,85,87,89,91,93,-1,-1,-1,95,97,99,101,-1,103,105,107,-1,-1,109,-1,111,113,115,117,119,-1,-1,-1,121,-1,123,-1,-1,-1,-1,-1,-1,-1,-1,-1,-1,-1,-1,-1,-1,-1,-1,-1,-1,-1,-1,-1,-1,-1,-1,-1,-1,-1,-1,-1,-1,-1,-1,-1],"loss_changes":[2.521838E1,9.561741E0,1.954431E1,1.4457855E0,2.4819857E-1,1.3419812E1,7.150689E0,0E0,0E0,7.1927905E-3,1.0013126E-4,1.8405037E0,2.715298E0,5.9255695E0,1.6816893E0,0E0,0E0,0E0,4.361729E-6,6.318092E-2,8.765087E-1,1.76425E0,5.6768656E-3,8.7317324E-1,1.8787879E0,2.6812818E0,1.6528893E-1,0E0,0E0,4.450798E-2,0E0,0E0,5.7029247E-2,1.49998665E-2,5.0447774E-1,0E0,0E0,0E0,3.087008E-1,1.78426E0,3.5359025E-1,4.0233684E-1,2.3471212E-1,3.3500385E-1,0E0,0E0,0E0,4.061222E-3,0E0,2.2949338E-2,0E0,1.9339907E-1,2.10219E-1,5.456771E-2,1.1580515E-1,3.761264E-1,0E0,2.1943617E-1,0E0,1.46958E-1,1.5494168E-1,4.2832613E-2,6.557703E-3,1.1670232E-1,3.1154156E-2,4.5728683E-4,0E0,0E0,0E0,1.3176769E-2,1.0463485E-1,1.4499354E-3,9.794146E-3,0E0,2.5042562E-2,8.039379E-2,1.3043888E-2,0E0,0E0,1.9353437E-1,0E0,7.630791E-2,2.0387009E-2,2.66175E-2,7.947564E-3,3.4840584E-2,0E0,0E0,0E0,2.5428772E-2,0E0,7.624626E-4,0E0,0E0,0E0,0E0,0E0,0E0,0E0,0E0,0E0,0E0,0E0,0E0,0E0,0E0,0E0,0E0,0E0,0E0,0E0,0E0,0E0,0E0,0E0,0E0,0E0,0E0,0E0,0E0,0E0,0E0,0E0,0E0,0E0],"parents":[2147483647,0,0,1,1,2,2,3,3,4,4,5,5,6,6,9,9,10,10,11,11,12,12,13,13,14,14,18,18,19,19,20,20,21,21,22,22,23,23,24,24,25,25,26,26,29,29,32,32,33,33,34,34,38,38,39,39,40,40,41,41,42,42,43,43,47,47,49,49,51,51,52,52,53,53,54,54,55,55,57,57,59,59,60,60,61,61,62,62,63,63,64,64,65,65,69,69,70,70,71,71,72,72,74,74,75,75,76,76,79,79,81,81,82,82,83,83,84,84,85,85,89,89,91,91],"right_children":[2,4,6,8,10,12,14,-1,-1,16,18,20,22,24,26,-1,-1,-1,28,30,32,34,36,38,40,42,44,-1,-1,46,-1,-1,48,50,52,-1,-1,-1,54,56,58,60,62,64,-1,-1,-1,66,-1,68,-1,70,72,74,76,78,-1,80,-1,82,84,86,88,90,92,94,-1,-1,-1,96,98,100,102,-1,104,106,108,-1,-1,110,-1,112,114,116,118,120,-1,-1,-1,122,-1,124,-1,-1,-1,-1,-1,-1,-1,-1,-1,-1,-1,-1,-1,-1,-1,-1,-1,-1,-1,-1,-1,-1,-1,-1,-1,-1,-1,-1,-1,-1,-1,-1,-1],"split_conditions":[1.3591077E3,2.65E2,7.939335E1,6.849685E0,7.148857E2,6.6362397E3,5.1316543E3,-1.0048898E-1,-5.1887196E-2,4.9253454E0,5.507589E0,4.0865693E3,1.2686371E4,1.578048E2,1.1360085E2,-4.519749E-3,-1.7324694E-2,-6.0758594E-4,5.5253496E0,7.6266594E1,4.799128E1,2.1599405E0,2.2626224E0,2.9509514E3,1.6467163E3,7.457774E3,1.6100705E2,-1.3549328E-4,-3.71933E-6,4.6397034E1,-2.0260632E-2,-3.1875215E-2,2.4567333E1,1E0,9.852047E3,6.329632E-3,1.3474809E-2,-2.3768323E-2,4.6283024E1,3.3145712E2,1E0,6.8421055E3,1.0272671E4,6.407407E3,1.5059806E-2,-4.6058018E-2,-1.8249894E-2,1E0,-8.702955E-3,7.935244E0,-1.2753417E-2,5.7917305E1,5.7423466E1,1.0712762E2,1.2494216E2,1.9691621E2,1.5013583E-2,1E0,-5.2983207E-3,4.515979E0,9.525936E1,1E0,8.11129E1,1.42E2,8.182808E0,4.092816E0,-1.0463085E-2,-2.1946145E-2,-8.156761E-3,7.7207827E3,1E0,7.612316E0,0E0,-7.5584822E-3,4.6164927E0,4.591943E3,5.6315885E0,-2.4241278E-2,-7.8263655E-3,2.8371433E1,-6.5890155E-3,5.4067925E3,1E0,8.62112E1,1.0340156E2,1E0,5.412197E-3,4.6310904E-3,1.7135097E-2,5.1934487E3,1.1182609E-2,1E0,1.5340971E-2,-1.9587113E-2,-5.689359E-3,-1.1980137E-2,-6.3867467E-3,-4.850092E-3,2.5249665E-4,4.6728455E-4,-5.3891604E-4,1.757288E-3,9.277964E-3,-2.5622954E-3,3.6014318E-3,-1.4207403E-2,-8.458072E-3,-5.7983818E-3,1.3084411E-4,4.630626E-3,9.264421E-3,-6.2381267E-3,-1.2159948E-3,3.4702222E-3,2.5193693E-4,-4.911529E-4,2.8222043E-3,4.665337E-3,7.7933185E-3,1.0969032E-2,7.5848104E-4,-5.1269535E-4,7.0573227E-3,1.2399267E-2,8.302574E-3],"split_indices":[6,1,1,4,6,6,6,0,0,0,0,6,6,1,1,0,0,0,0,1,1,0,0,6,6,6,1,0,0,5,0,0,7,30,6,0,0,0,5,1,139,6,6,6,0,0,0,113,0,4,0,1,1,1,1,1,0,94,0,0,1,222,1,1,4,0,0,0,0,6,3,4,2,0,0,6,0,0,0,7,0,6,45,1,1,21,0,0,0,6,0,37,0,0,0,0,0,0,0,0,0,0,0,0,0,0,0,0,0,0,0,0,0,0,0,0,0,0,0,0,0,0,0,0,0],"split_type":[0,0,0,0,0,0,0,0,0,0,0,0,0,0,0,0,0,0,0,0,0,0,0,0,0,0,0,0,0,0,0,0,0,0,0,0,0,0,0,0,0,0,0,0,0,0,0,0,0,0,0,0,0,0,0,0,0,0,0,0,0,0,0,0,0,0,0,0,0,0,0,0,0,0,0,0,0,0,0,0,0,0,0,0,0,0,0,0,0,0,0,0,0,0,0,0,0,0,0,0,0,0,0,0,0,0,0,0,0,0,0,0,0,0,0,0,0,0,0,0,0,0,0,0,0],"sum_hessian":[9.45E2,2.4E1,9.21E2,1.4E1,1E1,2.13E2,7.08E2,5E0,9E0,6E0,4E0,8.9E1,1.24E2,2.27E2,4.81E2,1E0,5E0,2E0,2E0,1.8E1,7.1E1,9.8E1,2.6E1,8.7E1,1.4E2,2.55E2,2.26E2,1E0,1E0,1.5E1,3E0,1.9E1,5.2E1,2.1E1,7.7E1,3E0,2.3E1,1.3E1,7.4E1,2.1E1,1.19E2,1.45E2,1.1E2,1.81E2,4.5E1,1.3E1,2E0,4.8E1,4E0,1.1E1,1E1,5.2E1,2.5E1,1.9E1,5.5E1,1.6E1,5E0,1.14E2,5E0,8.5E1,6E1,8.8E1,2.2E1,8.3E1,9.8E1,4.4E1,4E0,9E0,2E0,1.3E1,3.9E1,1.3E1,1.2E1,6E0,1.3E1,4.7E1,8E0,8E0,8E0,1.12E2,2E0,6.1E1,2.4E1,2.9E1,3.1E1,8.1E1,7E0,1E0,2.1E1,5.2E1,3.1E1,6.6E1,3.2E1,4.3E1,1E0,5E0,8E0,1.9E1,2E1,5E0,8E0,1E0,1.1E1,1.2E1,1E0,3.2E1,1.5E1,7E0,1E0,3.7E1,7.5E1,8E0,5.3E1,1.7E1,7E0,8E0,2.1E1,9E0,2.2E1,8E1,1E0,1E0,5.1E1,5.7E1,9E0],"tree_param":{"num_deleted":"0","num_feature":"425","num_nodes":"125","size_leaf_vector":"1"}},{"base_weights":[-3.6426228E-3,-2.6838312E-1,8.132732E-2,-5.5459654E-1,-2.926588E-2,-5.766193E-1,1.0952972E-1,-1.0963132E0,-4.532552E-1,-1.07628465E-1,1.2722218E-2,-9.0932596E-1,-2.6870683E-1,-2.8823834E-2,1.696561E-1,-3.85696E-2,-6.624052E-2,-6.7661667E-1,-3.7223247E-1,-3.5273796E-1,-2.6649686E-2,-5.9715938E-2,-2.7314574E-2,-3.2455853E-1,-6.049156E-3,-2.1584567E-1,1.1091232E-1,1.1333076E-1,2.2835517E-1,-4.3818235E-2,-2.7728325E-2,-3.9712527E-1,-2.561433E-1,-3.7862793E-1,-8.672629E-3,-7.4634016E-2,7.614307E-2,-9.312391E-3,-1.9035181E-2,-4.008611E-4,-3.6239624E-6,-2.1061275E-2,-1.7931677E-1,1.334611E-1,-7.7490094E-3,-2.8639573E-3,1.947656E-1,2.0449147E-1,2.606895E-1,-2.100672E-2,-1.334474E-2,-4.9266815E-3,-1.3640572E-2,-1.3229528E-2,-2.2105336E-2,-1.9972396E-1,-3.7117027E-2,-7.219587E-3,1.6705425E-1,-2.5221175E-1,-1.1560004E-1,1.479147E-1,-5.3269113E-3,-8.172833E-2,2.4471968E-2,1.6418622E-1,3.4464374E-1,1.4653225E-1,2.5800052E-1,2.738545E-1,9.13137E-3,-1.0531708E-2,-1.992798E-3,-9.0982296E-2,1.1336119E-2,-1.2108326E-3,-4.049301E-3,1.7133475E-3,8.800533E-3,-1.46676125E-2,-8.330434E-3,-9.925737E-3,-5.6042105E-2,6.001552E-2,1.8980992E-1,-6.6333385E-3,-4.3960627E-2,-3.3513155E-2,4.6422858E-2,1.20110124E-1,2.0109992E-1,1.3864264E-2,2.5025249E-2,-5.67166E-4,1.5134247E-1,8.381325E-3,1.3257712E-2,1.4003023E-2,7.4801682E-3,-2.6279928E-3,-5.6108637E-3,-5.5473036E-4,1.8407302E-3,1.7213821E-4,-3.3205986E-4,-3.3173922E-3,2.4259887E-3,-1.2790489E-2,3.8173974E-3,9.884871E-3,-2.8750738E-3,-2.6360182E-3,-6.1965943E-4,-2.363469E-3,-1.7655492E-4,9.975242E-4,3.2535468E-3,1.9200683E-3,7.3546316E-3,7.101579E-3,1.1184708E-2,5.9269415E-3,8.706031E-3],"categories":[],"categories_nodes":[],"categories_segments":[],"categories_sizes":[],"default_left":[0,0,0,0,0,0,0,0,0,0,0,0,0,0,0,0,0,0,0,0,0,0,0,0,0,0,0,0,0,0,0,0,0,0,0,0,0,0,0,0,0,0,0,0,0,0,0,0,0,0,0,0,0,0,0,0,0,0,0,0,0,0,0,0,0,0,0,0,0,0,0,0,0,0,0,0,0,0,0,0,0,0,0,0,0,0,0,0,0,0,0,0,0,0,0,0,0,0,0,0,0,0,0,0,0,0,0,0,0,0,0,0,0,0,0,0,0,0,0,0,0,0,0],"id":10,"left_children":[1,3,5,7,9,11,13,15,17,19,-1,21,23,25,27,-1,-1,29,31,33,35,-1,-1,37,39,41,43,45,47,-1,-1,49,51,53,-1,55,57,-1,-1,-1,-1,-1,59,61,-1,63,65,67,69,-1,-1,-1,-1,-1,-1,71,73,75,77,79,81,83,-1,85,87,89,91,93,95,97,-1,-1,-1,99,101,-1,103,-1,-1,-1,-1,-1,105,107,109,-1,111,113,115,117,119,-1,-1,-1,121,-1,-1,-1,-1,-1,-1,-1,-1,-1,-1,-1,-1,-1,-1,-1,-1,-1,-1,-1,-1,-1,-1,-1,-1,-1,-1,-1,-1],"loss_changes":[2.1572023E1,1.5929956E1,1.3534576E1,5.3223076E0,2.8731155E0,2.8289938E0,5.8030233E0,1.6594887E-1,1.3949986E0,1.9953152E0,0E0,7.960243E-1,2.4742472E-1,5.5642867E0,1.5809546E0,0E0,0E0,7.472134E-2,9.767437E-2,5.036831E-2,3.8548085E-1,0E0,0E0,3.781128E-2,4.6468893E-5,6.071763E-1,7.521411E-1,2.366132E0,1.2956524E-1,0E0,0E0,5.2675247E-2,1.2524784E-2,3.5040617E-2,0E0,2.4131575E-1,1.90671E-1,0E0,0E0,0E0,0E0,0E0,3.3777022E-1,4.0773892E-1,0E0,2.2620645E-1,6.171417E-1,3.9948368E-1,4.9672604E-2,0E0,0E0,0E0,0E0,0E0,0E0,1.2535214E-2,1.10648945E-1,6.563373E-4,8.240223E-3,7.790804E-2,2.0615679E-1,3.8264203E-1,0E0,4.611124E-2,1.0083613E-1,1.7759514E-1,1.1318326E-1,5.487573E-2,2.1018982E-3,2.0560741E-2,0E0,0E0,0E0,1.0419846E-2,1.3552964E-2,0E0,2.7530655E-4,0E0,0E0,0E0,0E0,0E0,3.231404E-2,2.0522557E-1,1.5181565E-1,0E0,4.0475093E-3,8.906763E-3,2.6840359E-2,1.2442905E-1,5.6312323E-2,0E0,0E0,0E0,3.0169964E-2,0E0,0E0,0E0,0E0,0E0,0E0,0E0,0E0,0E0,0E0,0E0,0E0,0E0,0E0,0E0,0E0,0E0,0E0,0E0,0E0,0E0,0E0,0E0,0E0,0E0,0E0,0E0,0E0],"parents":[2147483647,0,0,1,1,2,2,3,3,4,4,5,5,6,6,7,7,8,8,9,9,11,11,12,12,13,13,14,14,17,17,18,18,19,19,20,20,23,23,24,24,25,25,26,26,27,27,28,28,31,31,32,32,33,33,35,35,36,36,42,42,43,43,45,45,46,46,47,47,48,48,55,55,56,56,57,57,58,58,59,59,60,60,61,61,63,63,64,64,65,65,66,66,67,67,68,68,69,69,73,73,74,74,76,76,82,82,83,83,84,84,86,86,87,87,88,88,89,89,90,90,94,94],"right_children":[2,4,6,8,10,12,14,16,18,20,-1,22,24,26,28,-1,-1,30,32,34,36,-1,-1,38,40,42,44,46,48,-1,-1,50,52,54,-1,56,58,-1,-1,-1,-1,-1,60,62,-1,64,66,68,70,-1,-1,-1,-1,-1,-1,72,74,76,78,80,82,84,-1,86,88,90,92,94,96,98,-1,-1,-1,100,102,-1,104,-1,-1,-1,-1,-1,106,108,110,-1,112,114,116,118,120,-1,-1,-1,122,-1,-1,-1,-1,-1,-1,-1,-1,-1,-1,-1,-1,-1,-1,-1,-1,-1,-1,-1,-1,-1,-1,-1,-1,-1,-1,-1,-1],"split_conditions":[7.939335E1,6.6362397E3,1.4423834E3,3.2323943E3,1.2686371E4,3.5901672E1,5E3,4.6236176E1,4.3E1,2.1599405E0,1.2722218E-2,1.2040668E3,1E0,1.578048E2,1.1360085E2,-3.85696E-2,-6.624052E-2,1E0,5.669643E3,4.799128E1,9.852047E3,-5.9715938E-2,-2.7314574E-2,7.116412E0,5.5253496E0,2.9509514E3,1E0,7.0565693E3,1.4285527E2,-4.3818235E-2,-2.7728325E-2,1E0,2.2626224E0,1.9211626E1,-8.672629E-3,5.7917305E1,5.7423466E1,-9.312391E-3,-1.9035181E-2,-4.008611E-4,-3.6239624E-6,-2.1061275E-2,1.06E2,1E0,-7.7490094E-3,5.6281567E3,1.0272671E4,6.8125E3,1E0,-2.100672E-2,-1.334474E-2,-4.9266815E-3,-1.3640572E-2,-1.3229528E-2,-2.2105336E-2,1E0,1E0,9.875E3,0E0,4.591943E3,3.9821995E3,1.7563777E2,-5.3269113E-3,9.734786E1,8.998613E1,7.930737E3,9.581357E1,5.1934487E3,7.0030856E0,1E0,9.13137E-3,-1.0531708E-2,-1.992798E-3,1E0,1E0,-1.2108326E-3,2.5254948E0,1.7133475E-3,8.800533E-3,-1.46676125E-2,-8.330434E-3,-9.925737E-3,1.2804964E2,9.8033196E-1,1E0,-6.6333385E-3,3.581986E0,1E0,6.222663E3,9.4755066E1,8.8019325E1,1.3864264E-2,2.5025249E-2,-5.67166E-4,6.0244346E3,8.381325E-3,1.3257712E-2,1.4003023E-2,7.4801682E-3,-2.6279928E-3,-5.6108637E-3,-5.5473036E-4,1.8407302E-3,1.7213821E-4,-3.3205986E-4,-3.3173922E-3,2.4259887E-3,-1.2790489E-2,3.8173974E-3,9.884871E-3,-2.8750738E-3,-2.6360182E-3,-6.1965943E-4,-2.363469E-3,-1.7655492E-4,9.975242E-4,3.2535468E-3,1.9200683E-3,7.3546316E-3,7.101579E-3,1.1184708E-2,5.9269415E-3,8.706031E-3],"split_indices":[1,6,6,6,6,7,6,5,1,0,0,6,30,1,1,0,0,3,6,1,6,0,0,4,0,6,94,6,1,0,0,13,0,7,0,1,1,0,0,0,0,0,1,139,0,6,6,6,43,0,0,0,0,0,0,36,3,6,2,6,6,1,0,1,1,6,1,6,4,79,0,0,0,26,27,0,0,0,0,0,0,0,1,0,213,0,0,30,6,1,1,0,0,0,6,0,0,0,0,0,0,0,0,0,0,0,0,0,0,0,0,0,0,0,0,0,0,0,0,0,0,0,0],"split_type":[0,0,0,0,0,0,0,0,0,0,0,0,0,0,0,0,0,0,0,0,0,0,0,0,0,0,0,0,0,0,0,0,0,0,0,0,0,0,0,0,0,0,0,0,0,0,0,0,0,0,0,0,0,0,0,0,0,0,0,0,0,0,0,0,0,0,0,0,0,0,0,0,0,0,0,0,0,0,0,0,0,0,0,0,0,0,0,0,0,0,0,0,0,0,0,0,0,0,0,0,0,0,0,0,0,0,0,0,0,0,0,0,0,0,0,0,0,0,0,0,0,0,0],"sum_hessian":[9.57E2,2.32E2,7.25E2,1.05E2,1.27E2,2.9E1,6.96E2,1.5E1,9E1,1E2,2.7E1,1.3E1,1.6E1,2.11E2,4.85E2,8E0,7E0,2.2E1,6.8E1,2.4E1,7.6E1,6E0,7E0,1.3E1,3E0,9E1,1.21E2,2.49E2,2.36E2,6E0,1.6E1,5.4E1,1.4E1,2E1,4E0,5.2E1,2.4E1,5E0,8E0,2E0,1E0,1.2E1,7.8E1,1.12E2,9E0,1.03E2,1.46E2,1.4E2,9.6E1,4.4E1,1E1,2E0,1.2E1,9E0,1.1E1,1.1E1,4.1E1,1.3E1,1.1E1,3.5E1,4.3E1,1.06E2,6E0,2.6E1,7.7E1,1.23E2,2.3E1,6.9E1,7.1E1,8E1,1.6E1,1E1,1E0,1.9E1,2.2E1,1E0,1.2E1,1E0,1E1,2.2E1,1.3E1,1.7E1,2.6E1,3.5E1,7.1E1,1E1,1.6E1,2.1E1,5.6E1,5.8E1,6.5E1,1.8E1,5E0,2E0,6.7E1,7E0,6.4E1,7.5E1,5E0,8E0,1.1E1,1.2E1,1E1,3E0,9E0,2.4E1,2E0,1E0,3.4E1,6.9E1,2E0,1.2E1,4E0,1.4E1,7E0,2.4E1,3.2E1,1.5E1,4.3E1,2E1,4.5E1,3E1,3.7E1],"tree_param":{"num_deleted":"0","num_feature":"425","num_nodes":"123","size_leaf_vector":"1"}},{"base_weights":[-7.3324265E-3,-7.7118874E-1,2.0498248E-2,-1.1605277E0,-2.2661349E-1,-1.8303365E-1,1.171012E-1,-7.958214E-2,-7.76407E-1,-2.8038517E-1,-8.645058E-3,-4.6571124E-1,-7.105896E-3,-8.205332E-3,1.7144904E-1,-4.397243E-2,-1.7523086E-2,-5.7868958E-3,-3.0174083E-1,-5.7398475E-4,-3.528595E-6,-6.5029854E-1,-3.6971858E-1,-7.401105E-2,1.8521969E-1,-2.0044248E-1,1.05903186E-1,1.2536833E-1,2.1980704E-1,-1.582349E-2,-4.229498E-3,-4.2875614E-2,-5.1653546E-1,-2.634933E-2,-2.9152706E-1,-3.669698E-1,-1.9870667E-2,2.1785481E-1,7.1879305E-2,-2.7072045E-1,-1.2654883E-1,-1.3452896E-1,1.3439107E-1,5.0038833E-2,2.439122E-1,2.0719557E-1,1.4256539E-2,-2.895532E-2,-1.8238422E-2,-3.1285512E-1,-1.5249485E-1,-2.017322E-2,-1.0424463E-2,-8.011256E-2,7.561923E-2,8.213241E-3,1.2050143E-2,4.9988697E-3,-9.311199E-3,-3.0856323E-1,-8.00516E-3,-8.959261E-3,-6.395769E-2,-3.506578E-1,1.4070435E-2,1.4425293E-1,-4.683457E-3,-1.790323E-2,9.867134E-2,2.2343886E-1,2.3982525E-2,1.7801541E-1,2.4315895E-1,-1.7288875E-2,-1.1914511E-2,-8.240801E-3,-1.3481379E-3,-1.7708261E-1,-3.861289E-2,1.0692098E-2,3.0017253E-2,-8.785725E-5,-5.621751E-4,-1.0798025E-2,-1.7357737E-2,-4.7195274E-3,-4.4991933E-2,-2.2434806E-2,-5.79679E-3,1.5080464E-1,-6.1110975E-3,-5.9732832E-2,2.3128828E-2,4.7128145E-2,1.3385852E-1,2.4079637E-1,6.1585493E-3,1.2992744E-1,1.0475577E-2,7.6140882E-3,1.250356E-2,-1.2298044E-2,-5.7887957E-3,-3.5102572E-3,-7.3194506E-6,-1.1694217E-3,4.7449144E-3,-2.4287305E-3,-4.9996375E-5,4.141769E-3,9.470413E-3,-5.473137E-3,-1.946705E-3,1.5610959E-3,-1.8640877E-3,3.156662E-4,2.9721865E-3,2.8553773E-3,6.9835032E-3,1.2236062E-2,5.8408976E-3,-3.3669473E-4,6.667081E-3],"categories":[],"categories_nodes":[],"categories_segments":[],"categories_sizes":[],"default_left":[0,0,0,0,0,0,0,0,0,0,0,0,0,0,0,0,0,0,0,0,0,0,0,0,0,0,0,0,0,0,0,0,0,0,0,0,0,0,0,0,0,0,0,0,0,0,0,0,0,0,0,0,0,0,0,0,0,0,0,0,0,0,0,0,0,0,0,0,0,0,0,0,0,0,0,0,0,0,0,0,0,0,0,0,0,0,0,0,0,0,0,0,0,0,0,0,0,0,0,0,0,0,0,0,0,0,0,0,0,0,0,0,0,0,0,0,0,0,0,0,0,0,0],"id":11,"left_children":[1,3,5,7,9,11,13,-1,15,17,19,21,23,25,27,-1,-1,-1,29,-1,-1,31,33,35,37,39,41,43,45,-1,-1,-1,47,-1,49,51,53,55,57,59,61,63,65,67,69,71,-1,-1,-1,73,75,-1,-1,77,79,-1,-1,-1,81,83,-1,-1,85,87,-1,89,-1,91,93,95,-1,97,99,-1,-1,-1,-1,101,103,-1,105,-1,-1,-1,-1,-1,107,-1,-1,109,-1,111,113,115,117,119,-1,121,-1,-1,-1,-1,-1,-1,-1,-1,-1,-1,-1,-1,-1,-1,-1,-1,-1,-1,-1,-1,-1,-1,-1,-1,-1],"loss_changes":[1.995641E1,6.7338142E0,1.7835009E1,1.9106407E0,1.7338401E-1,1.4518093E1,4.189642E0,0E0,2.1846771E-1,7.2710514E-3,9.641211E-5,1.7441044E0,2.342739E0,4.1232395E0,9.284153E-1,0E0,0E0,0E0,5.2139163E-3,0E0,0E0,5.826149E-1,7.809439E-1,2.1339297E0,1.5818799E-1,3.292575E-1,8.263087E-1,1.970222E0,1.12277985E-1,0E0,0E0,0E0,2.6165009E-2,0E0,1.09451294E-1,3.733921E-2,6.675947E-1,5.069852E-3,2.8306477E-2,9.711027E-2,1.07144296E-1,1.2673277E0,2.5191653E-1,4.5444098E-1,3.0789423E-1,1.4350986E-1,0E0,0E0,0E0,2.807331E-2,9.476438E-3,0E0,0E0,2.7888235E-1,2.7722642E-1,0E0,0E0,0E0,3.8630387E-5,1.4370203E-2,0E0,0E0,6.1424747E-3,1.550858E-1,0E0,1.9651008E-1,0E0,1.0093012E-1,1.3878423E-1,1.1131334E-1,0E0,1.2726617E-1,1.0287762E-2,0E0,0E0,0E0,0E0,6.0200274E-2,6.196715E-2,0E0,1.2349509E-1,0E0,0E0,0E0,0E0,0E0,2.0003486E-3,0E0,0E0,2.4669647E-1,0E0,2.5733411E-2,1.5831262E-2,1.6715102E-2,1.29877925E-2,4.5011044E-3,0E0,2.0961046E-2,0E0,0E0,0E0,0E0,0E0,0E0,0E0,0E0,0E0,0E0,0E0,0E0,0E0,0E0,0E0,0E0,0E0,0E0,0E0,0E0,0E0,0E0,0E0,0E0,0E0],"parents":[2147483647,0,0,1,1,2,2,3,3,4,4,5,5,6,6,8,8,9,9,10,10,11,11,12,12,13,13,14,14,18,18,21,21,22,22,23,23,24,24,25,25,26,26,27,27,28,28,32,32,34,34,35,35,36,36,37,37,38,38,39,39,40,40,41,41,42,42,43,43,44,44,45,45,49,49,50,50,53,53,54,54,58,58,59,59,62,62,63,63,65,65,67,67,68,68,69,69,71,71,72,72,77,77,78,78,80,80,86,86,89,89,91,91,92,92,93,93,94,94,95,95,97,97],"right_children":[2,4,6,8,10,12,14,-1,16,18,20,22,24,26,28,-1,-1,-1,30,-1,-1,32,34,36,38,40,42,44,46,-1,-1,-1,48,-1,50,52,54,56,58,60,62,64,66,68,70,72,-1,-1,-1,74,76,-1,-1,78,80,-1,-1,-1,82,84,-1,-1,86,88,-1,90,-1,92,94,96,-1,98,100,-1,-1,-1,-1,102,104,-1,106,-1,-1,-1,-1,-1,108,-1,-1,110,-1,112,114,116,118,120,-1,122,-1,-1,-1,-1,-1,-1,-1,-1,-1,-1,-1,-1,-1,-1,-1,-1,-1,-1,-1,-1,-1,-1,-1,-1,-1],"split_conditions":[1.4220958E3,2.65E2,8.8019325E1,1E0,1E0,6.354402E3,4.925E3,-7.958214E-2,6.2281055E0,5.1342E0,5.507589E0,4.1190493E3,1E0,1.578048E2,1.1980105E2,-4.397243E-2,-1.7523086E-2,-5.7868958E-3,5.7666726E0,-5.7398475E-4,-3.528595E-6,6.463258E1,5.3226643E1,4.799128E1,8.778524E0,3.9821995E3,1.6467163E3,7.4110005E3,1.749322E2,-1.582349E-2,-4.229498E-3,-4.2875614E-2,3.7916565E3,-2.634933E-2,2.4758814E1,1.0477387E4,9E3,4.7375797E1,3.5986269E0,4.7462907E0,1.02040054E2,3.3145712E2,1E0,6.222663E3,1.1276071E4,6.3181816E3,1.4256539E-2,-2.895532E-2,-1.8238422E-2,7.4220024E1,8.5E1,-2.017322E-2,-1.0424463E-2,6.1605385E1,7.5937524E0,8.213241E-3,1.2050143E-2,4.9988697E-3,1E0,4.206105E0,-8.00516E-3,-8.959261E-3,2.44E1,6.45217E0,1.4070435E-2,1E0,-4.683457E-3,5.6281567E3,1.0046376E2,4.7506035E1,2.3982525E-2,1.4285527E2,4.6231174E1,-1.7288875E-2,-1.1914511E-2,-8.240801E-3,-1.3481379E-3,7.4110005E3,7.217954E3,1.0692098E-2,6.1605385E1,-8.785725E-5,-5.621751E-4,-1.0798025E-2,-1.7357737E-2,-4.7195274E-3,8.006851E0,-2.2434806E-2,-5.79679E-3,1.9691621E2,-6.1110975E-3,9.734786E1,1E0,6.7612007E3,1.9678423E1,1E0,6.1585493E-3,1.2074198E2,1.0475577E-2,7.6140882E-3,1.250356E-2,-1.2298044E-2,-5.7887957E-3,-3.5102572E-3,-7.3194506E-6,-1.1694217E-3,4.7449144E-3,-2.4287305E-3,-4.9996375E-5,4.141769E-3,9.470413E-3,-5.473137E-3,-1.946705E-3,1.5610959E-3,-1.8640877E-3,3.156662E-4,2.9721865E-3,2.8553773E-3,6.9835032E-3,1.2236062E-2,5.8408976E-3,-3.3669473E-4,6.667081E-3],"split_indices":[6,1,1,30,30,6,6,0,0,0,0,6,15,1,1,0,0,0,0,0,0,1,1,1,4,6,6,6,1,0,0,0,6,0,7,6,6,5,0,0,1,1,139,6,6,6,0,0,0,1,1,0,0,1,4,0,0,0,2,0,0,0,7,0,0,94,0,6,1,5,0,1,5,0,0,0,0,6,6,0,1,0,0,0,0,0,4,0,0,1,0,1,394,6,7,47,0,1,0,0,0,0,0,0,0,0,0,0,0,0,0,0,0,0,0,0,0,0,0,0,0,0,0],"split_type":[0,0,0,0,0,0,0,0,0,0,0,0,0,0,0,0,0,0,0,0,0,0,0,0,0,0,0,0,0,0,0,0,0,0,0,0,0,0,0,0,0,0,0,0,0,0,0,0,0,0,0,0,0,0,0,0,0,0,0,0,0,0,0,0,0,0,0,0,0,0,0,0,0,0,0,0,0,0,0,0,0,0,0,0,0,0,0,0,0,0,0,0,0,0,0,0,0,0,0,0,0,0,0,0,0,0,0,0,0,0,0,0,0,0,0,0,0,0,0,0,0,0,0],"sum_hessian":[9.37E2,3.2E1,9.05E2,1.8E1,1.4E1,2.91E2,6.14E2,7E0,1.1E1,1.1E1,3E0,1.11E2,1.8E2,1.86E2,4.28E2,8E0,3E0,2E0,9E0,2E0,1E0,3.6E1,7.5E1,1.34E2,4.6E1,6.9E1,1.17E2,2.21E2,2.07E2,8E0,1E0,1.2E1,2.4E1,2.3E1,5.2E1,2E1,1.14E2,3.5E1,1.1E1,3.4E1,3.5E1,1.2E1,1.05E2,1.36E2,8.5E1,1.77E2,3E1,1.5E1,9E0,4.4E1,8E0,1.5E1,5E0,7E1,4.4E1,1.3E1,2.2E1,8E0,3E0,2.4E1,1E1,1.8E1,1.7E1,8E0,4E0,1.01E2,4E0,5.7E1,7.9E1,8E1,5E0,1.01E2,7.6E1,2.8E1,1.6E1,7E0,1E0,2E1,5E1,1E1,3.4E1,1E0,2E0,9E0,1.5E1,5E0,1.2E1,5E0,3E0,9.9E1,2E0,2.8E1,2.9E1,3.3E1,4.6E1,6.7E1,1.3E1,4.2E1,5.9E1,7E0,6.9E1,8E0,1.2E1,2.7E1,2.3E1,1.9E1,1.5E1,1.1E1,1E0,3.7E1,6.2E1,7E0,2.1E1,2.6E1,3E0,8E0,2.5E1,4E0,4.2E1,6.4E1,3E0,1E0,4.1E1],"tree_param":{"num_deleted":"0","num_feature":"425","num_nodes":"123","size_leaf_vector":"1"}},{"base_weights":[2.7274806E-3,-2.3779601E-1,7.367659E-2,-4.9459222E-1,-2.7847046E-2,-5.3851736E-1,9.764816E-2,-8.6863995E-1,-4.165277E-1,-1.0128046E-1,2.0860656E-1,-8.3669937E-1,-2.625872E-1,-3.4200378E-2,1.521297E-1,-4.7890738E-2,-1.8083096E-2,-2.9173663E-2,-3.4280735E-1,-3.0550554E-1,-2.9813562E-2,5.6804945E-3,1.0963081E-2,-5.50178E-2,-2.2675714E-2,-2.977217E-1,-5.548477E-4,-2.2650424E-1,1.0209748E-1,1.0182539E-1,2.1209416E-1,-3.5035917E-1,-7.4745896E-3,-3.3764532E-1,-8.960839E-3,-1.4833695E-1,5.2080327E-3,-8.560443E-3,-1.7449172E-2,-4.1362712E-1,-1.7850997E-1,1.203608E-1,-7.1305647E-3,3.76983E-2,2.0751923E-1,2.002206E-1,1.360935E-2,-1.8495662E-2,-2.3495917E-1,-1.7661974E-2,-7.096402E-3,-1.068041E-2,-8.781338E-2,-4.479087E-2,6.269877E-2,-2.567013E-2,-1.4622203E-2,-2.3759341E-1,-1.1095003E-1,5.8573246E-2,1.8007316E-1,-2.5618523E-2,7.511018E-2,1.9362806E-1,2.2191945E-2,1.6844198E-1,2.3617668E-1,-3.4435273E-3,-1.2234049E-2,-4.649417E-3,-1.0309697E-3,-7.5323E-2,9.2983246E-4,9.085262E-3,7.3785926E-3,-1.3835399E-2,-7.6784478E-3,-8.955366E-3,-5.0876714E-2,-1.488343E-1,1.1028213E-1,7.231341E-2,2.2299029E-1,-5.490934E-2,2.6707849E-2,1.2413131E-2,9.460066E-2,1.347577E-1,2.1145475E-1,1.19994305E-1,2.0300917E-1,2.5017327E-1,8.947071E-3,-2.0504142E-3,-5.254062E-3,6.314659E-4,-2.8365984E-4,-4.1971737E-4,1.2777699E-3,-3.2305853E-3,2.424606E-3,-1.6688395E-2,-3.9235405E-3,1.1934758E-3,7.3109353E-3,9.7250147E-4,4.5574666E-3,1.1959354E-2,-3.0948957E-3,-3.9211386E-3,-1.4984413E-3,3.0005455E-4,5.2096653E-3,1.1763533E-3,-2.8686882E-3,1.2677098E-3,6.1169495E-3,4.4495407E-3,7.890004E-3,1.1502689E-2,5.6991884E-3,1.0258675E-3,6.3155266E-3,8.742419E-3,1.170965E-2,1.3056478E-2,9.144505E-3],"categories":[],"categories_nodes":[],"categories_segments":[],"categories_sizes":[],"default_left":[0,0,0,0,0,0,0,0,0,0,0,0,0,0,0,0,0,0,0,0,0,0,0,0,0,0,0,0,0,0,0,0,0,0,0,0,0,0,0,0,0,0,0,0,0,0,0,0,0,0,0,0,0,0,0,0,0,0,0,0,0,0,0,0,0,0,0,0,0,0,0,0,0,0,0,0,0,0,0,0,0,0,0,0,0,0,0,0,0,0,0,0,0,0,0,0,0,0,0,0,0,0,0,0,0,0,0,0,0,0,0,0,0,0,0,0,0,0,0,0,0,0,0,0,0,0,0],"id":12,"left_children":[1,3,5,7,9,11,13,15,17,19,21,23,25,27,29,-1,-1,-1,31,33,35,-1,-1,-1,-1,37,-1,39,41,43,45,47,-1,49,-1,51,53,-1,-1,55,57,59,-1,61,63,65,-1,-1,67,-1,-1,-1,69,71,73,-1,-1,75,77,79,81,83,85,87,-1,89,91,-1,-1,-1,-1,93,95,97,-1,-1,-1,-1,99,101,103,105,107,109,111,113,115,117,119,121,123,125,-1,-1,-1,-1,-1,-1,-1,-1,-1,-1,-1,-1,-1,-1,-1,-1,-1,-1,-1,-1,-1,-1,-1,-1,-1,-1,-1,-1,-1,-1,-1,-1,-1,-1,-1],"loss_changes":[1.633159E1,1.1739503E1,1.0897593E1,2.499773E0,2.122123E0,2.0840607E0,5.1197205E0,3.7694836E-1,8.2148457E-1,1.3482578E0,4.443288E-3,8.1435394E-1,1.3807213E-1,5.5011415E0,1.4987049E0,0E0,0E0,0E0,3.5217762E-2,3.6901712E-2,2.9133397E-1,0E0,0E0,0E0,0E0,3.1044722E-2,0E0,7.074952E-1,5.668758E-1,1.8628604E0,1.0889721E-1,4.170847E-2,0E0,4.802227E-3,0E0,4.444951E-2,1.609044E-1,0E0,0E0,5.5407286E-2,2.570479E-1,4.137429E-1,0E0,4.117269E-1,2.554674E-1,1.8303156E-1,0E0,0E0,9.101629E-4,0E0,0E0,0E0,1.5598908E-3,4.194855E-2,1.169682E-1,0E0,0E0,7.910967E-2,1.341928E-1,6.384529E-1,2.5210977E-1,1.0109086E-1,1.3202322E-1,7.645106E-2,0E0,1.5483308E-1,2.653122E-2,0E0,0E0,0E0,0E0,1.407142E-2,1.0759252E-3,5.108677E-3,0E0,0E0,0E0,0E0,3.0429747E-2,1.2995985E-1,1.4246231E-1,1.6150288E-2,2.0399022E-1,2.2280112E-2,3.7882067E-2,2.2291226E-2,1.5632308E-1,1.3376266E-2,1.097424E-1,2.6939392E-2,1.2619495E-2,3.107071E-3,0E0,0E0,0E0,0E0,0E0,0E0,0E0,0E0,0E0,0E0,0E0,0E0,0E0,0E0,0E0,0E0,0E0,0E0,0E0,0E0,0E0,0E0,0E0,0E0,0E0,0E0,0E0,0E0,0E0,0E0,0E0,0E0,0E0,0E0,0E0],"parents":[2147483647,0,0,1,1,2,2,3,3,4,4,5,5,6,6,7,7,8,8,9,9,10,10,11,11,12,12,13,13,14,14,18,18,19,19,20,20,25,25,27,27,28,28,29,29,30,30,31,31,33,33,35,35,36,36,39,39,40,40,41,41,43,43,44,44,45,45,48,48,52,52,53,53,54,54,57,57,58,58,59,59,60,60,61,61,62,62,63,63,65,65,66,66,71,71,72,72,73,73,78,78,79,79,80,80,81,81,82,82,83,83,84,84,85,85,86,86,87,87,88,88,89,89,90,90,91,91],"right_children":[2,4,6,8,10,12,14,16,18,20,22,24,26,28,30,-1,-1,-1,32,34,36,-1,-1,-1,-1,38,-1,40,42,44,46,48,-1,50,-1,52,54,-1,-1,56,58,60,-1,62,64,66,-1,-1,68,-1,-1,-1,70,72,74,-1,-1,76,78,80,82,84,86,88,-1,90,92,-1,-1,-1,-1,94,96,98,-1,-1,-1,-1,100,102,104,106,108,110,112,114,116,118,120,122,124,126,-1,-1,-1,-1,-1,-1,-1,-1,-1,-1,-1,-1,-1,-1,-1,-1,-1,-1,-1,-1,-1,-1,-1,-1,-1,-1,-1,-1,-1,-1,-1,-1,-1,-1,-1],"split_conditions":[7.939335E1,6.6362397E3,1.4423834E3,3.3299343E3,1.2686371E4,3.5901672E1,4.925E3,7.7152306E1,4.3E1,2.3585675E0,2.2626224E0,1.2040668E3,1E0,1.578048E2,1.1879833E2,-4.7890738E-2,-1.8083096E-2,-2.9173663E-2,6E0,4.799128E1,7.4110005E3,5.6804945E-3,1.0963081E-2,-5.50178E-2,-2.2675714E-2,7.116412E0,-5.548477E-4,2.9509514E3,1E0,7.583556E3,1.749322E2,1E0,-7.4745896E-3,7.935244E0,-8.960839E-3,3E0,6.696029E1,-8.560443E-3,-1.7449172E-2,9.1E1,1.06E2,2.05E2,-7.1305647E-3,4.206105E0,1.1276071E4,6.3181816E3,1.360935E-2,-1.8495662E-2,2.2626224E0,-1.7661974E-2,-7.096402E-3,-1.068041E-2,6.9960137E3,1.0237189E4,9.214286E3,-2.567013E-2,-1.4622203E-2,4.5384614E3,3.9526875E3,3.7205918E3,4.6361217E1,6.6629272E3,6.222663E3,8.8019325E1,2.2191945E-2,1.4285527E2,1E0,-3.4435273E-3,-1.2234049E-2,-4.649417E-3,-1.0309697E-3,1E0,2.547562E0,1E0,7.3785926E-3,-1.3835399E-2,-7.6784478E-3,-8.955366E-3,1.27E2,3.9490268E0,3.9821995E3,3.6954784E1,9.145489E0,5.6281567E3,9.4755066E1,1E0,9.9379105E1,9.214286E3,4.7506035E1,1.2074198E2,5.524679E3,1E0,8.947071E-3,-2.0504142E-3,-5.254062E-3,6.314659E-4,-2.8365984E-4,-4.1971737E-4,1.2777699E-3,-3.2305853E-3,2.424606E-3,-1.6688395E-2,-3.9235405E-3,1.1934758E-3,7.3109353E-3,9.7250147E-4,4.5574666E-3,1.1959354E-2,-3.0948957E-3,-3.9211386E-3,-1.4984413E-3,3.0005455E-4,5.2096653E-3,1.1763533E-3,-2.8686882E-3,1.2677098E-3,6.1169495E-3,4.4495407E-3,7.890004E-3,1.1502689E-2,5.6991884E-3,1.0258675E-3,6.3155266E-3,8.742419E-3,1.170965E-2,1.3056478E-2,9.144505E-3],"split_indices":[1,6,6,6,6,7,6,1,1,0,0,6,30,1,1,0,0,0,2,1,6,0,0,0,0,4,0,6,94,6,1,13,0,4,0,0,1,0,0,1,1,1,0,0,6,6,0,0,0,0,0,0,6,6,6,0,0,6,6,6,5,6,6,1,0,1,30,0,0,0,0,9,0,27,0,0,0,0,1,0,6,7,4,6,1,27,1,6,5,1,6,10,0,0,0,0,0,0,0,0,0,0,0,0,0,0,0,0,0,0,0,0,0,0,0,0,0,0,0,0,0,0,0,0,0,0,0],"split_type":[0,0,0,0,0,0,0,0,0,0,0,0,0,0,0,0,0,0,0,0,0,0,0,0,0,0,0,0,0,0,0,0,0,0,0,0,0,0,0,0,0,0,0,0,0,0,0,0,0,0,0,0,0,0,0,0,0,0,0,0,0,0,0,0,0,0,0,0,0,0,0,0,0,0,0,0,0,0,0,0,0,0,0,0,0,0,0,0,0,0,0,0,0,0,0,0,0,0,0,0,0,0,0,0,0,0,0,0,0,0,0,0,0,0,0,0,0,0,0,0,0,0,0,0,0,0,0],"sum_hessian":[9.55E2,2.17E2,7.38E2,9.7E1,1.2E2,2.7E1,7.11E2,1.5E1,8.2E1,9.2E1,2.8E1,1.2E1,1.5E1,2.08E2,5.03E2,1.2E1,3E0,2.3E1,5.9E1,2.3E1,6.9E1,4E0,2.4E1,6E0,6E0,1.3E1,2E0,8.6E1,1.22E2,2.75E2,2.28E2,5.6E1,3E0,1.7E1,6E0,1.5E1,5.4E1,5E0,8E0,1.6E1,7E1,1.14E2,8E0,1.72E2,1.03E2,1.94E2,3.4E1,4.6E1,1E1,1.5E1,2E0,6E0,9E0,2.9E1,2.5E1,7E0,9E0,3.6E1,3.4E1,5.7E1,5.7E1,6.4E1,1.08E2,9.9E1,4E0,1.06E2,8.8E1,1E0,9E0,8E0,1E0,1.7E1,1.2E1,1.6E1,9E0,2.3E1,1.3E1,1.5E1,1.9E1,1.1E1,4.6E1,1.7E1,4E1,4.1E1,2.3E1,2.6E1,8.2E1,2.5E1,7.4E1,4.6E1,6E1,6.8E1,2E1,9E0,8E0,4E0,8E0,8E0,8E0,1.7E1,2E0,2E0,9E0,1.4E1,3.2E1,5E0,1.2E1,3.8E1,2E0,2E1,2.1E1,1.9E1,4E0,2.3E1,3E0,2.4E1,5.8E1,1E1,1.5E1,6.1E1,1.3E1,3E0,4.3E1,3.5E1,2.5E1,5.6E1,1.2E1],"tree_param":{"num_deleted":"0","num_feature":"425","num_nodes":"127","size_leaf_vector":"1"}},{"base_weights":[4.842454E-4,-7.7088475E-1,2.7255746E-2,-8.902771E-2,-5.1796246E-1,-1.6402762E-1,1.12227924E-1,-4.2238835E-2,-2.4047911E-1,-4.1708028E-1,-1.5502309E-2,-6.6095884E-3,1.5956935E-1,-2.9434776E-1,-5.2862167E-3,-4.0029977E-2,-3.7719622E-1,2.6745431E-2,-2.5589675E-1,-1.7728738E-1,9.118547E-2,1.1842918E-1,1.9965802E-1,-5.3086597E-3,-1.594546E-2,-7.1875253E-3,1.0442734E-5,-2.921146E-2,-3.321996E-1,-7.067386E-2,1.109315E-1,-3.4182325E-1,-6.8533197E-3,-2.4225286E-1,-1.213334E-1,-2.5872866E-2,1.3005553E-1,3.924064E-2,2.060531E-1,2.0343912E-1,3.46514E-3,-4.3094158E-4,-1.08122826E-4,-2.2699129E-2,-2.7997947E-1,-2.713766E-1,-3.0032767E-2,6.305887E-2,2.0788737E-1,-2.0376222E-2,-1.04259215E-2,-1.3224467E-2,-5.4612714E-3,-1.5626162E-1,